{"type":"n","options":{"inputSize":1,"hiddenLayers":[20],"outputSize":1,"decayRate":0.999,"smoothEps":1e-8,"regc":0.000001,"clipval":5},"hiddenLayers":[{"inputMatrix":{"rows":20,"columns":1,"weights":{"0":0.01093995850533247,"1":0.2047288864850998,"2":-0.26687121391296387,"3":-0.28239741921424866,"4":0.28582167625427246,"5":-0.0797770619392395,"6":0.1372130811214447,"7":0.25124579668045044,"8":-0.10880628973245621,"9":0.14456415176391602,"10":-0.005959340371191502,"11":0.06995360553264618,"12":-0.017518077045679092,"13":-0.042559195309877396,"14":-0.00671165669336915,"15":-0.1612972468137741,"16":-0.17328694462776184,"17":0.04957413300871849,"18":0.2238975167274475,"19":0.09275100380182266}},"inputHidden":{"rows":20,"columns":20,"weights":{"0":-0.09993752092123032,"1":0.08988814055919647,"2":0.3293853998184204,"3":-0.1438715010881424,"4":0.0971330851316452,"5":0.26111331582069397,"6":0.01735679991543293,"7":-0.021622398868203163,"8":0.29402440786361694,"9":-0.023004094138741493,"10":-0.3512999415397644,"11":0.0012193721486255527,"12":0.34116557240486145,"13":-0.3926430940628052,"14":-0.03230275958776474,"15":-0.2740810811519623,"16":-0.3717440366744995,"17":-0.32986387610435486,"18":0.006211877800524235,"19":0.0744670033454895,"20":0.3522157669067383,"21":-0.14466479420661926,"22":0.2572046220302582,"23":-0.2645677328109741,"24":-0.4035309851169586,"25":0.36528682708740234,"26":0.3843063414096832,"27":0.4109378755092621,"28":0.25644299387931824,"29":0.3462669551372528,"30":-0.2405679076910019,"31":0.520693838596344,"32":0.23926468193531036,"33":-0.3891560137271881,"34":0.2780004143714905,"35":-0.2310117781162262,"36":-0.21870054304599762,"37":-0.27561742067337036,"38":0.08311760425567627,"39":-0.39572134613990784,"40":-0.627458930015564,"41":0.4731022119522095,"42":-0.11978821456432343,"43":0.06379780918359756,"44":0.652198851108551,"45":0.050751276314258575,"46":-0.6389737129211426,"47":-0.572677731513977,"48":0.10240494459867477,"49":-0.5412436127662659,"50":-0.000510971643961966,"51":-0.631731390953064,"52":0.01757635548710823,"53":0.33257222175598145,"54":-0.6831332445144653,"55":-0.08537542819976807,"56":-0.15931227803230286,"57":0.05253485590219498,"58":-0.6317346692085266,"59":0.6502981781959534,"60":-0.6517119407653809,"61":0.5288187861442566,"62":0.11996500194072723,"63":0.18133121728897095,"64":0.6110541820526123,"65":0.13873089849948883,"66":-0.5918081998825073,"67":-0.6813691258430481,"68":0.10944616049528122,"69":-0.6009446382522583,"70":-0.09395836293697357,"71":-0.6855681538581848,"72":0.1323270946741104,"73":-0.1533677726984024,"74":-0.5940159559249878,"75":-0.20794260501861572,"76":-0.14258301258087158,"77":-0.10567276924848557,"78":-0.5462110042572021,"79":0.5678089261054993,"80":0.3621051609516144,"81":-0.19951747357845306,"82":0.2799433767795563,"83":-0.04882753640413284,"84":-0.31073036789894104,"85":0.19678615033626556,"86":0.37823882699012756,"87":0.40319499373435974,"88":0.22317680716514587,"89":0.3064407408237457,"90":-0.25440242886543274,"91":0.38297268748283386,"92":0.261097252368927,"93":-0.26496827602386475,"94":0.38142141699790955,"95":-0.3154624402523041,"96":-0.28228268027305603,"97":-0.31567421555519104,"98":0.1335955560207367,"99":-0.38846102356910706,"100":-0.5588263869285583,"101":0.36826780438423157,"102":-0.7758869528770447,"103":0.12977661192417145,"104":0.664284348487854,"105":-0.4032772183418274,"106":-0.6031079888343811,"107":-0.7461744546890259,"108":-0.6857242584228516,"109":-0.6563131809234619,"110":0.8050558567047119,"111":-0.5876753926277161,"112":-0.3973497450351715,"113":0.7654076814651489,"114":-0.5660780668258667,"115":0.7885850071907043,"116":0.6359036564826965,"117":0.9056556820869446,"118":-0.4894994795322418,"119":0.6995469927787781,"120":-0.05549316480755806,"121":0.0825653150677681,"122":0.3666481375694275,"123":-0.18210485577583313,"124":0.046263087540864944,"125":0.3101317584514618,"126":-0.1029772162437439,"127":-0.10929443687200546,"128":0.3202659785747528,"129":0.028041446581482887,"130":-0.3510940670967102,"131":-0.09244519472122192,"132":0.39846736192703247,"133":-0.3936974108219147,"134":-0.050082504749298096,"135":-0.25812360644340515,"136":-0.3532142639160156,"137":-0.2702442705631256,"138":-0.06175762042403221,"139":-0.0022686675656586885,"140":0.25713828206062317,"141":-0.3000760078430176,"142":0.23300939798355103,"143":-0.02564418688416481,"144":-0.38100573420524597,"145":0.2284153252840042,"146":0.31298428773880005,"147":0.2674190402030945,"148":0.25057452917099,"149":0.2728414833545685,"150":-0.2657310366630554,"151":0.4032658636569977,"152":0.24274010956287384,"153":-0.30305007100105286,"154":0.19988253712654114,"155":-0.23544928431510925,"156":-0.32684096693992615,"157":-0.26288193464279175,"158":0.08259104937314987,"159":-0.2934964895248413,"160":-0.6463518142700195,"161":0.30940163135528564,"162":-0.704785943031311,"163":0.2538456916809082,"164":0.677349865436554,"165":-1.0172497034072876,"166":-0.6907079815864563,"167":-0.6511324644088745,"168":-0.9846207499504089,"169":-0.5655620694160461,"170":0.8602516651153564,"171":-0.580751359462738,"172":-0.9170777797698975,"173":0.8514268398284912,"174":-0.5841328501701355,"175":0.8173312544822693,"176":0.9386609196662903,"177":0.9051151275634766,"178":-0.6242371201515198,"179":0.6631415486335754,"180":0.3765985667705536,"181":-0.205241858959198,"182":0.33523979783058167,"183":-0.009262791834771633,"184":-0.44329017400741577,"185":0.217693030834198,"186":0.34634390473365784,"187":0.4354759752750397,"188":0.2673138976097107,"189":0.33190882205963135,"190":-0.2608543336391449,"191":0.2843204140663147,"192":0.32577505707740784,"193":-0.37634778022766113,"194":0.23770734667778015,"195":-0.21707981824874878,"196":-0.32161691784858704,"197":-0.29243773221969604,"198":0.1288369745016098,"199":-0.33911338448524475,"200":-0.7075228095054626,"201":0.4335026741027832,"202":-0.7512046098709106,"203":0.24400785565376282,"204":0.632763147354126,"205":-0.8328022360801697,"206":-0.5861063003540039,"207":-0.7649898529052734,"208":-0.7827953100204468,"209":-0.5321823358535767,"210":0.7245687246322632,"211":-0.6110899448394775,"212":-0.790179967880249,"213":0.7184967994689941,"214":-0.6445702910423279,"215":0.6746802926063538,"216":0.7212927937507629,"217":0.7793194651603699,"218":-0.4882773458957672,"219":0.6417573690414429,"220":-0.04632292687892914,"221":0.13625669479370117,"222":0.2963528335094452,"223":-0.9986642599105835,"224":0.053290966898202896,"225":0.26843419671058655,"226":-0.10018392652273178,"227":-0.02863592654466629,"228":0.3074386715888977,"229":0.016205044463276863,"230":-0.37912067770957947,"231":-0.03520726412534714,"232":0.2774956524372101,"233":-0.40611714124679565,"234":0.01451991219073534,"235":-0.37085673213005066,"236":-0.3491872251033783,"237":-0.3806329369544983,"238":-0.010045429691672325,"239":0.06596527993679047,"240":-0.6209489107131958,"241":0.3872676491737366,"242":-0.6899636387825012,"243":0.28301241993904114,"244":0.6164865493774414,"245":-0.9217596650123596,"246":-0.5919138789176941,"247":-0.7657294869422913,"248":-0.855696976184845,"249":-0.625711977481842,"250":0.8262131214141846,"251":-0.5808515548706055,"252":-0.9826316833496094,"253":0.7940608263015747,"254":-0.5874508619308472,"255":0.8957166075706482,"256":0.9763014316558838,"257":0.8038108944892883,"258":-0.5980011820793152,"259":0.5999172329902649,"260":-0.5732195377349854,"261":0.31104713678359985,"262":-0.7100309729576111,"263":0.2740282714366913,"264":0.5211578607559204,"265":-0.7730385661125183,"266":-0.671220064163208,"267":-0.7705351710319519,"268":-0.7575937509536743,"269":-0.6188320517539978,"270":0.6522914171218872,"271":-0.5818533897399902,"272":-0.7188343405723572,"273":0.6963268518447876,"274":-0.5685642957687378,"275":0.6604619026184082,"276":0.6756658554077148,"277":0.753142774105072,"278":-0.5135467052459717,"279":0.6092062592506409,"280":-0.19068391621112823,"281":-0.49083882570266724,"282":0.38096883893013,"283":-0.22498095035552979,"284":-0.4210527837276459,"285":0.32919082045555115,"286":-0.33804288506507874,"287":0.43430083990097046,"288":0.3514237701892853,"289":-0.21004019677639008,"290":-0.31131529808044434,"291":-0.26924052834510803,"292":0.2995937466621399,"293":-0.33556604385375977,"294":-0.2800788879394531,"295":-0.2957683205604553,"296":-0.2990872859954834,"297":-0.39715465903282166,"298":-0.26677435636520386,"299":0.2293768674135208,"300":-0.5620579123497009,"301":0.4162733852863312,"302":-0.7401071786880493,"303":0.1621108204126358,"304":0.5366316437721252,"305":-0.8430161476135254,"306":-0.6370257139205933,"307":-0.6647417545318604,"308":-0.8325108885765076,"309":-0.6184350848197937,"310":0.7762632966041565,"311":-0.5819674134254456,"312":-0.7632015347480774,"313":0.7763821482658386,"314":-0.5788100361824036,"315":0.669010579586029,"316":0.8635920286178589,"317":0.8413807153701782,"318":-0.5813035368919373,"319":0.592516303062439,"320":-0.6109821200370789,"321":0.49805134534835815,"322":-0.7201583385467529,"323":0.21738949418067932,"324":0.5807573795318604,"325":-0.5073065757751465,"326":-0.6018819808959961,"327":-0.7256731986999512,"328":-0.7824190855026245,"329":-0.6474315524101257,"330":0.8673140406608582,"331":-0.7032760381698608,"332":-0.4742215871810913,"333":0.8148542642593384,"334":-0.6657407879829407,"335":0.7328552603721619,"336":0.6869171857833862,"337":0.9140087962150574,"338":-0.5732953548431396,"339":0.5769140720367432,"340":-0.6174856424331665,"341":0.3156791925430298,"342":-0.6778619289398193,"343":0.2390436828136444,"344":0.5714964866638184,"345":-0.8522769212722778,"346":-0.5683285593986511,"347":-0.80379718542099,"348":-0.8225477337837219,"349":-0.5521778464317322,"350":0.8237879276275635,"351":-0.5801438689231873,"352":-0.8734447956085205,"353":0.8376297950744629,"354":-0.645396888256073,"355":0.8232797384262085,"356":0.7950211763381958,"357":0.8960976600646973,"358":-0.5461391806602478,"359":0.6040976047515869,"360":-0.517099142074585,"361":-0.36286449432373047,"362":0.2564224302768707,"363":-0.21194766461849213,"364":-0.20752675831317902,"365":0.38749754428863525,"366":-0.45452606678009033,"367":0.30089491605758667,"368":0.25690919160842896,"369":0.2799621522426605,"370":-0.3038599491119385,"371":-0.5169789791107178,"372":0.37062036991119385,"373":-0.311141699552536,"374":-0.4887520670890808,"375":-0.3382534980773926,"376":-0.3470532298088074,"377":-0.37756139039993286,"378":-0.3532389998435974,"379":0.44425445795059204,"380":-0.41512441635131836,"381":-0.31434759497642517,"382":0.35651251673698425,"383":-0.06314226984977722,"384":-0.28735947608947754,"385":0.3818802237510681,"386":-0.3270406126976013,"387":0.34435799717903137,"388":0.3269924819469452,"389":0.2851545810699463,"390":-0.37637755274772644,"391":-0.3600292503833771,"392":0.2437654435634613,"393":-0.36384496092796326,"394":-0.33921462297439575,"395":-0.3524521589279175,"396":-0.2574140727519989,"397":-0.3662426769733429,"398":-0.35412511229515076,"399":0.26128819584846497}},"inputBias":{"rows":20,"columns":1,"weights":{"0":-0.49421226978302,"1":-0.05180157348513603,"2":-0.8363732099533081,"3":-0.5314944386482239,"4":-0.5640577077865601,"5":-0.8112455606460571,"6":-0.48607337474823,"7":-0.3879399299621582,"8":-0.8073897957801819,"9":-0.38036683201789856,"10":-0.8197619915008545,"11":-0.5049562454223633,"12":-0.7742382884025574,"13":-0.8521377444267273,"14":-0.511638879776001,"15":-0.8329651355743408,"16":-0.8292146325111389,"17":-0.8211982846260071,"18":-0.3768896758556366,"19":-0.406130313873291}},"forgetMatrix":{"rows":20,"columns":1,"weights":{"0":-0.0008489045430906117,"1":0.27756741642951965,"2":0.3715801239013672,"3":0.398604154586792,"4":0.4113720655441284,"5":0.21571335196495056,"6":0.05831952020525932,"7":0.3501415252685547,"8":0.1966557502746582,"9":0.3977198004722595,"10":0.1350388377904892,"11":0.11023756116628647,"12":0.22373345494270325,"13":0.26935240626335144,"14":0.2188403606414795,"15":0.09134883433580399,"16":0.055550169199705124,"17":0.30859553813934326,"18":0.21351639926433563,"19":0.21010959148406982}},"forgetHidden":{"rows":20,"columns":20,"weights":{"0":0.015852250158786774,"1":-0.07837407290935516,"2":0.10213476419448853,"3":0.06535395234823227,"4":-0.06943849474191666,"5":0.027657588943839073,"6":0.07342024147510529,"7":-0.03760768100619316,"8":0.018700025975704193,"9":-0.003534197574481368,"10":-0.04555675387382507,"11":0.07377892732620239,"12":0.08104053139686584,"13":-0.06343335658311844,"14":-0.05451134964823723,"15":-0.07854440808296204,"16":-0.06342048943042755,"17":-0.10318666696548462,"18":0.03287409245967865,"19":-0.05591496080160141,"20":0.15634822845458984,"21":0.044076912105083466,"22":0.2248440384864807,"23":-0.2182764708995819,"24":0.07109590619802475,"25":0.22936995327472687,"26":0.03695529326796532,"27":-0.11984473466873169,"28":0.31688064336776733,"29":-0.0245306845754385,"30":-0.2528512477874756,"31":0.0987178310751915,"32":0.21722140908241272,"33":-0.2371470332145691,"34":0.10566774755716324,"35":-0.3129693567752838,"36":-0.2183070182800293,"37":-0.29942786693573,"38":-0.04592125862836838,"39":-0.04815642535686493,"40":-0.6206273436546326,"41":-0.06907150149345398,"42":-0.6445707082748413,"43":0.6406753063201904,"44":0.02764754928648472,"45":-0.5965192317962646,"46":-0.6181349158287048,"47":-0.029913973063230515,"48":-0.5551005601882935,"49":0.02881879173219204,"50":0.5917462706565857,"51":-0.5717720985412598,"52":-0.671875536441803,"53":0.6497564315795898,"54":-0.6470381617546082,"55":0.5693789124488831,"56":0.656755268573761,"57":0.5680253505706787,"58":-0.5175080299377441,"59":0.640494167804718,"60":-0.558638334274292,"61":-0.17339737713336945,"62":-0.6611339449882507,"63":0.762530505657196,"64":0.013704589568078518,"65":-0.5600964426994324,"66":-0.6673926711082458,"67":0.05994854494929314,"68":-0.6623673439025879,"69":0.10180123895406723,"70":0.6538845300674438,"71":-0.6292144060134888,"72":-0.686583399772644,"73":0.7036066055297852,"74":-0.6596497297286987,"75":0.6602779030799866,"76":0.6299781799316406,"77":0.7196455001831055,"78":-0.6089260578155518,"79":0.5672701597213745,"80":0.2699747085571289,"81":-0.19853390753269196,"82":0.10466060787439346,"83":0.006077967118471861,"84":-0.193511962890625,"85":0.1056017354130745,"86":0.2574625611305237,"87":0.12418580800294876,"88":0.07289505749940872,"89":0.21105490624904633,"90":-0.0869867280125618,"91":0.3363876938819885,"92":0.046433739364147186,"93":-0.04709094017744064,"94":0.18340438604354858,"95":-0.10947386175394058,"96":-0.039789967238903046,"97":-0.06374943256378174,"98":0.22315151989459991,"99":-0.26726704835891724,"100":-0.6998416185379028,"101":-0.15621702373027802,"102":-0.7023356556892395,"103":0.7433987259864807,"104":-0.03332892432808876,"105":-0.5917157530784607,"106":-0.6644196510314941,"107":-0.09336184710264206,"108":-0.6424432992935181,"109":-0.09927508980035782,"110":0.6766115427017212,"111":-0.6631603837013245,"112":-0.7135486006736755,"113":0.6583735942840576,"114":-0.6427618265151978,"115":0.6321085691452026,"116":0.6349099278450012,"117":0.6937395930290222,"118":-0.6340237855911255,"119":0.5711280107498169,"120":0.04852351173758507,"121":-0.0123700937256217,"122":0.04657445475459099,"123":0.020924299955368042,"124":0.01628439873456955,"125":0.13721388578414917,"126":-0.013383031822741032,"127":0.06176723167300224,"128":0.021664761006832123,"129":0.04999665170907974,"130":-0.12519043684005737,"131":-0.013703940436244011,"132":0.049624547362327576,"133":-0.029539508745074272,"134":0.01488028559833765,"135":-0.1388983428478241,"136":-0.02103162370622158,"137":-0.07697126269340515,"138":0.000939632358495146,"139":-0.06463205814361572,"140":0.015650587156414986,"141":0.02530224435031414,"142":-0.007689497899264097,"143":0.09168801456689835,"144":0.005970396101474762,"145":0.06859782338142395,"146":0.12696243822574615,"147":0.04688940569758415,"148":-0.05925862863659859,"149":0.04784275218844414,"150":-0.07611747086048126,"151":0.07398586720228195,"152":0.004127922933548689,"153":-0.10332725197076797,"154":0.08995489776134491,"155":-0.055543482303619385,"156":-0.06477992236614227,"157":-0.06649337708950043,"158":0.058885931968688965,"159":-0.09272433817386627,"160":-0.67286616563797,"161":-0.2222355455160141,"162":-0.5800646543502808,"163":0.6577113270759583,"164":-0.04334772750735283,"165":-0.6738762855529785,"166":-0.5721921324729919,"167":-0.05640650913119316,"168":-0.6876881718635559,"169":-0.08866502344608307,"170":0.6275807619094849,"171":-0.6449639797210693,"172":-0.6747166514396667,"173":0.6141965389251709,"174":-0.6851282119750977,"175":0.7298450469970703,"176":0.7185468077659607,"177":0.6423438191413879,"178":-0.49167197942733765,"179":0.5977476835250854,"180":0.277452290058136,"181":-0.29823577404022217,"182":0.008955460041761398,"183":-0.019993022084236145,"184":-0.3005065321922302,"185":0.12691852450370789,"186":0.32026582956314087,"187":0.32645106315612793,"188":-0.02139069139957428,"189":0.26564309000968933,"190":0.021149128675460815,"191":0.384806752204895,"192":0.03545084223151207,"193":-0.13564179837703705,"194":0.15676110982894897,"195":-0.0626768246293068,"196":-0.07646260410547256,"197":-0.1111585721373558,"198":0.15040390193462372,"199":-0.25871866941452026,"200":-0.6255438923835754,"201":-0.1851019263267517,"202":-0.5679653286933899,"203":0.7134913802146912,"204":0.012569325976073742,"205":-0.6842519044876099,"206":-0.5817128419876099,"207":-0.03789975866675377,"208":-0.6986034512519836,"209":0.042024701833724976,"210":0.6144313812255859,"211":-0.5629485249519348,"212":-0.6629558205604553,"213":0.7162001729011536,"214":-0.6180868744850159,"215":0.6271461844444275,"216":0.5866698026657104,"217":0.6277279853820801,"218":-0.5470293164253235,"219":0.6611818671226501,"220":0.040829673409461975,"221":-0.030879030004143715,"222":0.07703065127134323,"223":0.05521736666560173,"224":-0.04440431296825409,"225":0.16628821194171906,"226":0.07888517528772354,"227":0.00280823465436697,"228":0.12706615030765533,"229":0.09423411637544632,"230":-0.20973153412342072,"231":0.029950320720672607,"232":0.20442703366279602,"233":-0.19608153402805328,"234":0.07877139002084732,"235":-0.14177200198173523,"236":-0.10971049219369888,"237":-0.12283729761838913,"238":0.008780809119343758,"239":0.014323776587843895,"240":-0.6050471663475037,"241":-0.17531335353851318,"242":-0.6692146062850952,"243":0.7309131026268005,"244":-0.06825950741767883,"245":-0.6824297308921814,"246":-0.5601723194122314,"247":0.07601509243249893,"248":-0.631215512752533,"249":0.04452564939856529,"250":0.6550819873809814,"251":-0.6824519038200378,"252":-0.6319165825843811,"253":0.6246498227119446,"254":-0.6642428636550903,"255":0.5735898017883301,"256":0.6421686410903931,"257":0.6748083829879761,"258":-0.49544206261634827,"259":0.5820521712303162,"260":-0.6765391826629639,"261":-0.12041792273521423,"262":-0.6638715267181396,"263":0.695777952671051,"264":-0.0195954367518425,"265":-0.6784569621086121,"266":-0.6001645922660828,"267":-0.05915200710296631,"268":-0.584185004234314,"269":0.05926124006509781,"270":0.6585053205490112,"271":-0.6254907846450806,"272":-0.5665468573570251,"273":0.6201820969581604,"274":-0.6004940867424011,"275":0.6476218700408936,"276":0.7180410623550415,"277":0.6574670672416687,"278":-0.5270956158638,"279":0.5675160884857178,"280":0.09881391376256943,"281":-0.05525648593902588,"282":0.04419051110744476,"283":0.04990275949239731,"284":-0.12925036251544952,"285":0.14903780817985535,"286":0.15609635412693024,"287":0.08337770402431488,"288":0.14681588113307953,"289":0.07150273025035858,"290":-0.05916624516248703,"291":0.04959395155310631,"292":0.14628618955612183,"293":-0.1368945688009262,"294":0.11948709189891815,"295":-0.11384285986423492,"296":-0.04491204395890236,"297":-0.00035849123378284276,"298":0.04607858881354332,"299":-0.03618675842881203,"300":-0.6593575477600098,"301":-0.08149098604917526,"302":-0.6232118010520935,"303":0.6914048194885254,"304":0.0445689857006073,"305":-0.7171041369438171,"306":-0.5798682570457458,"307":-0.03153839707374573,"308":-0.652517557144165,"309":-0.05723470076918602,"310":0.6174352169036865,"311":-0.6721330285072327,"312":-0.6500413417816162,"313":0.5892784595489502,"314":-0.5585502982139587,"315":0.6770508885383606,"316":0.5844259262084961,"317":0.6313709616661072,"318":-0.5382104516029358,"319":0.5706438422203064,"320":-0.5975339412689209,"321":-0.16972926259040833,"322":-0.6055095195770264,"323":0.6577155590057373,"324":-0.05328855291008949,"325":-0.6974295973777771,"326":-0.5948795676231384,"327":-0.011024856939911842,"328":-0.6863902807235718,"329":-0.024075258523225784,"330":0.65471351146698,"331":-0.6810165047645569,"332":-0.562579333782196,"333":0.706993818283081,"334":-0.5427619218826294,"335":0.6273000240325928,"336":0.6210430860519409,"337":0.6819996237754822,"338":-0.5186662077903748,"339":0.6488993167877197,"340":-0.5761584639549255,"341":-0.19121895730495453,"342":-0.6268874406814575,"343":0.7547180652618408,"344":0.09033364802598953,"345":-0.5854583382606506,"346":-0.6577485799789429,"347":-0.09203142672777176,"348":-0.7306970953941345,"349":-0.015893898904323578,"350":0.6775901317596436,"351":-0.6309091448783875,"352":-0.577046811580658,"353":0.6644932627677917,"354":-0.5646162629127502,"355":0.6961361169815063,"356":0.5969988703727722,"357":0.7136987447738647,"358":-0.5991791486740112,"359":0.5778623223304749,"360":0.117796391248703,"361":-0.12526492774486542,"362":0.1349991112947464,"363":0.03896084055304527,"364":-0.1508806347846985,"365":0.037239570170640945,"366":0.16385342180728912,"367":0.1096254214644432,"368":0.13360898196697235,"369":0.11700086295604706,"370":-0.09757865965366364,"371":0.16191884875297546,"372":0.14293067157268524,"373":-0.07612629979848862,"374":0.08357520401477814,"375":-0.018867140635848045,"376":-0.10203229635953903,"377":-0.06831324100494385,"378":0.01978989504277706,"379":-0.19193696975708008,"380":0.12427806854248047,"381":-0.16962137818336487,"382":0.11217425763607025,"383":0.1094626858830452,"384":-0.2492419332265854,"385":0.08030987530946732,"386":0.19982010126113892,"387":0.07258245348930359,"388":0.101335808634758,"389":0.09269609302282333,"390":-0.12400113046169281,"391":0.10087596625089645,"392":0.12689104676246643,"393":-0.04391488432884216,"394":0.03558599203824997,"395":-0.04176025837659836,"396":-0.020018503069877625,"397":-0.12311498820781708,"398":0.011451000347733498,"399":-0.17733141779899597}},"forgetBias":{"rows":20,"columns":1,"weights":{"0":0,"1":0,"2":0,"3":0,"4":0,"5":0,"6":0,"7":0,"8":0,"9":0,"10":0,"11":0,"12":0,"13":0,"14":0,"15":0,"16":0,"17":0,"18":0,"19":0}},"outputMatrix":{"rows":20,"columns":1,"weights":{"0":0.09436067938804626,"1":0.26109373569488525,"2":-0.1401738077402115,"3":-0.3356609642505646,"4":0.38458549976348877,"5":0.07150035351514816,"6":-0.02130376361310482,"7":0.28723084926605225,"8":-0.04955580458045006,"9":0.2080700397491455,"10":-0.06454898416996002,"11":0.1804116815328598,"12":-0.09104272723197937,"13":-0.03697904199361801,"14":0.0822329968214035,"15":0.017004603520035744,"16":-0.10422659665346146,"17":0.014828444458544254,"18":0.20933979749679565,"19":0.08175881206989288}},"outputHidden":{"rows":20,"columns":20,"weights":{"0":-0.0544830746948719,"1":-0.5075998306274414,"2":0.33400288224220276,"3":0.07419360429048538,"4":-0.6309337615966797,"5":0.29568538069725037,"6":0.010731635615229607,"7":0.5512416362762451,"8":0.26984071731567383,"9":0.5914246439933777,"10":-0.2159849852323532,"11":0.023459991440176964,"12":0.32010266184806824,"13":-0.25922417640686035,"14":-0.06269387900829315,"15":-0.286670058965683,"16":-0.29477518796920776,"17":-0.24534234404563904,"18":-0.08726593852043152,"19":0.012663946487009525,"20":0.27807337045669556,"21":-0.2696071267127991,"22":0.24301032721996307,"23":-0.1824878603219986,"24":-0.23702488839626312,"25":0.3486209809780121,"26":0.19751577079296112,"27":0.24233119189739227,"28":0.367753267288208,"29":0.2484557032585144,"30":-0.4213795065879822,"31":0.22799329459667206,"32":0.321289598941803,"33":-0.4505506753921509,"34":0.3437143862247467,"35":-0.3235454261302948,"36":-0.24383634328842163,"37":-0.3931655287742615,"38":0.30523481965065,"39":-0.20763936638832092,"40":-0.5728523135185242,"41":0.3791881799697876,"42":-0.5760056972503662,"43":0.2856557369232178,"44":0.5520155429840088,"45":-0.6553215384483337,"46":-0.671674370765686,"47":-0.5958681106567383,"48":-0.6899175643920898,"49":-0.6648441553115845,"50":0.6958596706390381,"51":-0.6406844854354858,"52":-0.7284089922904968,"53":0.7216536402702332,"54":-0.6351985335350037,"55":0.6685230731964111,"56":0.6692537069320679,"57":0.7018863558769226,"58":-0.5702988505363464,"59":0.5946874022483826,"60":-0.6395235657691956,"61":0.4896533489227295,"62":0.3278220593929291,"63":0.368588924407959,"64":0.6228298544883728,"65":0.19398517906665802,"66":-0.5311192274093628,"67":-0.618471622467041,"68":0.18570402264595032,"69":-0.6824151873588562,"70":-0.1684199571609497,"71":-0.5777171850204468,"72":0.1922759860754013,"73":-0.05134237930178642,"74":-0.5900368094444275,"75":-0.2991166114807129,"76":-0.28990235924720764,"77":-0.08947841078042984,"78":-0.5728650093078613,"79":0.5259794592857361,"80":0.23067635297775269,"81":-0.411392480134964,"82":0.28118905425071716,"83":-0.13627399504184723,"84":-0.36157071590423584,"85":0.19603008031845093,"86":0.18607699871063232,"87":0.37488070130348206,"88":0.20490141212940216,"89":0.3982231318950653,"90":-0.2959459125995636,"91":0.259684294462204,"92":0.3001687526702881,"93":-0.33184707164764404,"94":0.2235419750213623,"95":-0.15617750585079193,"96":-0.20835718512535095,"97":-0.23649245500564575,"98":0.21803966164588928,"99":-0.28023257851600647,"100":-0.5790642499923706,"101":0.34653064608573914,"102":-0.7177761197090149,"103":0.8026106953620911,"104":0.6027766466140747,"105":-0.694852352142334,"106":-0.6786236763000488,"107":-0.718876838684082,"108":-0.755694568157196,"109":-0.5856396555900574,"110":0.6359140276908875,"111":-0.6583244800567627,"112":-0.7120182514190674,"113":0.65188068151474,"114":-0.6535186767578125,"115":0.6615430116653442,"116":0.7574815154075623,"117":0.6454795598983765,"118":-0.4930326044559479,"119":0.7001354694366455,"120":-0.09618543088436127,"121":-0.6121290326118469,"122":0.2658441662788391,"123":0.021668126806616783,"124":-0.6587507128715515,"125":0.1916022002696991,"126":0.025191092863678932,"127":0.6775708198547363,"128":0.30143648386001587,"129":0.5259231328964233,"130":-0.260407418012619,"131":-0.07833617180585861,"132":0.2738220989704132,"133":-0.34957242012023926,"134":-0.09632724523544312,"135":-0.3198727071285248,"136":-0.25522708892822266,"137":-0.25991401076316833,"138":-0.09239029884338379,"139":-0.05976776406168938,"140":0.22377315163612366,"141":-0.33465448021888733,"142":0.19896802306175232,"143":0.013055951334536076,"144":-0.35547298192977905,"145":0.19226451218128204,"146":0.2472722977399826,"147":0.33935558795928955,"148":0.2499244213104248,"149":0.28668057918548584,"150":-0.30996766686439514,"151":0.239343523979187,"152":0.21254388988018036,"153":-0.2584460973739624,"154":0.17413102090358734,"155":-0.24759647250175476,"156":-0.24760423600673676,"157":-0.2786196172237396,"158":0.32488059997558594,"159":-0.2319299876689911,"160":-0.6430478692054749,"161":0.23906558752059937,"162":-0.6974870562553406,"163":0.9179484248161316,"164":0.6507686972618103,"165":-0.7010132074356079,"166":-0.5872448086738586,"167":-0.7548098564147949,"168":-0.7242379188537598,"169":-0.6323440670967102,"170":0.6546061038970947,"171":-0.6107490062713623,"172":-0.7142736911773682,"173":0.7458756566047668,"174":-0.6082109808921814,"175":0.6396949291229248,"176":0.6265828013420105,"177":0.6735276579856873,"178":-0.5505190491676331,"179":0.6497907042503357,"180":0.1873393952846527,"181":-0.26233112812042236,"182":0.28245800733566284,"183":-0.14263379573822021,"184":-0.3944770097732544,"185":0.17020052671432495,"186":0.3115861713886261,"187":0.27995288372039795,"188":0.30467140674591064,"189":0.3430861234664917,"190":-0.29951295256614685,"191":0.135390505194664,"192":0.25701141357421875,"193":-0.19941909611225128,"194":0.21365073323249817,"195":-0.16226640343666077,"196":-0.17969223856925964,"197":-0.3116571009159088,"198":0.32331186532974243,"199":-0.27455219626426697,"200":-0.6417282819747925,"201":0.27485421299934387,"202":-0.6431677937507629,"203":0.9145940542221069,"204":0.5423367619514465,"205":-0.6142860054969788,"206":-0.6179960370063782,"207":-0.678450882434845,"208":-0.6256980299949646,"209":-0.5447325110435486,"210":0.7184194922447205,"211":-0.7125343084335327,"212":-0.6010400652885437,"213":0.7210401296615601,"214":-0.6297845244407654,"215":0.697148859500885,"216":0.6358605623245239,"217":0.6811378002166748,"218":-0.5799431800842285,"219":0.710591733455658,"220":-0.08332383632659912,"221":-0.5271787047386169,"222":0.3654356300830841,"223":0.09104020148515701,"224":-0.5728014707565308,"225":0.2231925129890442,"226":-0.0026032261084765196,"227":0.5903356075286865,"228":0.30636054277420044,"229":-0.044634509831666946,"230":-0.3124587833881378,"231":-0.01695902645587921,"232":0.220004603266716,"233":-0.26552021503448486,"234":-0.029880842193961143,"235":-0.3575612008571625,"236":-0.3357425332069397,"237":-0.24547865986824036,"238":-0.059031810611486435,"239":0.04158409312367439,"240":-0.642166018486023,"241":0.3445407450199127,"242":-0.6542090773582458,"243":1.002760887145996,"244":0.70316481590271,"245":-0.7483476996421814,"246":-0.638166606426239,"247":-0.7269112467765808,"248":-0.6424980759620667,"249":-0.5666232109069824,"250":0.7670415043830872,"251":-0.6441770792007446,"252":-0.6877856850624084,"253":0.7030819058418274,"254":-0.6141144037246704,"255":0.7007032632827759,"256":0.7167568802833557,"257":0.6655870079994202,"258":-0.5458954572677612,"259":0.5845915079116821,"260":-0.7278287410736084,"261":0.2957315444946289,"262":-0.7171323299407959,"263":0.8620175123214722,"264":0.6508057713508606,"265":-0.5980636477470398,"266":-0.6540904641151428,"267":-0.7811776399612427,"268":-0.6622548699378967,"269":-0.5540987253189087,"270":0.652985692024231,"271":-0.5939112305641174,"272":-0.6953215003013611,"273":0.5642185211181641,"274":-0.6952900290489197,"275":0.698306679725647,"276":0.5963693857192993,"277":0.726288378238678,"278":-0.5276365876197815,"279":0.6167190074920654,"280":-0.05555664002895355,"281":-0.5836625695228577,"282":0.31089264154434204,"283":-0.03165949508547783,"284":-0.5047698616981506,"285":0.32903358340263367,"286":-0.030870141461491585,"287":0.518482506275177,"288":0.32486093044281006,"289":0.5349408984184265,"290":-0.28800156712532043,"291":-0.15459544956684113,"292":0.2306501865386963,"293":-0.2966868281364441,"294":-0.04132338613271713,"295":-0.27966246008872986,"296":-0.21587996184825897,"297":-0.25211286544799805,"298":-0.08046115934848785,"299":-0.41748031973838806,"300":-0.5992690324783325,"301":0.3987140953540802,"302":-0.6636534929275513,"303":1.0111955404281616,"304":0.6141549944877625,"305":-0.7265596389770508,"306":-0.6461044549942017,"307":-0.6814287304878235,"308":-0.6222145557403564,"309":-0.5797905921936035,"310":0.6734632849693298,"311":-0.6424921751022339,"312":-0.6221499443054199,"313":0.5839674472808838,"314":-0.5912382006645203,"315":0.6443087458610535,"316":0.5773279070854187,"317":0.7161410450935364,"318":-0.5832761526107788,"319":0.6744015216827393,"320":-0.6552231311798096,"321":0.32409048080444336,"322":-0.6988175511360168,"323":0.9711927771568298,"324":0.6074085831642151,"325":-0.7242664098739624,"326":-0.6037859320640564,"327":-0.7601101994514465,"328":-0.685020387172699,"329":-0.672433614730835,"330":0.7051330804824829,"331":-0.6758409142494202,"332":-0.7529608011245728,"333":0.6866788864135742,"334":-0.5717399716377258,"335":0.71254563331604,"336":0.618584930896759,"337":0.6668891310691833,"338":-0.5400866270065308,"339":0.5907308459281921,"340":-0.5792063474655151,"341":0.24411340057849884,"342":-0.7029819488525391,"343":0.9450166821479797,"344":0.6265339851379395,"345":-0.6759107112884521,"346":-0.6050704717636108,"347":-0.7968714237213135,"348":-0.7289211750030518,"349":-0.6443473696708679,"350":0.7385974526405334,"351":-0.5840584635734558,"352":-0.6221368312835693,"353":0.7001993656158447,"354":-0.5621569752693176,"355":0.6232607364654541,"356":0.6767759919166565,"357":0.7324504256248474,"358":-0.4726886749267578,"359":0.6972492337226868,"360":0.19063645601272583,"361":-0.3106246888637543,"362":0.30879026651382446,"363":-0.24311606585979462,"364":-0.30467015504837036,"365":0.3580745458602905,"366":-0.0012943410547450185,"367":0.2749805748462677,"368":0.2787024676799774,"369":0.22806793451309204,"370":-0.24698036909103394,"371":-0.04793723300099373,"372":0.2924042046070099,"373":-0.33607256412506104,"374":0.21598725020885468,"375":-0.28830960392951965,"376":-0.34969907999038696,"377":-0.36204949021339417,"378":0.1517908275127411,"379":-0.25135740637779236,"380":0.18471558392047882,"381":-0.38271430134773254,"382":0.3210024833679199,"383":0.06936506181955338,"384":-0.44675910472869873,"385":0.3366296887397766,"386":-0.14802667498588562,"387":0.418460488319397,"388":0.24511471390724182,"389":0.4366200268268585,"390":-0.3448747396469116,"391":-0.38231608271598816,"392":0.2636597454547882,"393":-0.2787809371948242,"394":0.30841442942619324,"395":-0.262256383895874,"396":-0.2615585923194885,"397":-0.23022975027561188,"398":0.27942734956741333,"399":-0.42846742272377014}},"outputBias":{"rows":20,"columns":1,"weights":{"0":-0.49428343772888184,"1":-0.050006162375211716,"2":-0.8364878296852112,"3":-0.5312235951423645,"4":-0.5646231174468994,"5":-0.8111624121665955,"6":-0.48580402135849,"7":-0.3866271674633026,"8":-0.806856632232666,"9":-0.37926653027534485,"10":-0.819970428943634,"11":-0.5051103830337524,"12":-0.7733280658721924,"13":-0.8523485064506531,"14":-0.5119633078575134,"15":-0.8329787254333496,"16":-0.8293757438659668,"17":-0.8213370442390442,"18":-0.37975770235061646,"19":-0.4054044485092163}},"cellActivationMatrix":{"rows":20,"columns":1,"weights":{"0":0.46615809202194214,"1":-0.6799260973930359,"2":-0.23813295364379883,"3":0.2834950387477875,"4":-0.6081861257553101,"5":-0.29311585426330566,"6":0.4940771162509918,"7":0.45855751633644104,"8":-0.33429110050201416,"9":0.6545924544334412,"10":0.2888016402721405,"11":0.42401742935180664,"12":-0.25868797302246094,"13":0.2502763867378235,"14":0.51195228099823,"15":0.30615541338920593,"16":0.30775269865989685,"17":0.3070327639579773,"18":0.4899131655693054,"19":-0.6283361315727234}},"cellActivationHidden":{"rows":20,"columns":20,"weights":{"0":0.015304530039429665,"1":-0.2985081672668457,"2":0.30270981788635254,"3":-0.4371963143348694,"4":-0.12908601760864258,"5":0.4182807505130768,"6":-0.005196513142436743,"7":-0.08981718122959137,"8":0.44598352909088135,"9":-0.01822342351078987,"10":-0.39052218198776245,"11":0.013788982294499874,"12":0.3561874032020569,"13":-0.5401339530944824,"14":0.06023009866476059,"15":-0.4930994510650635,"16":-0.4428674876689911,"17":-0.3881216049194336,"18":0.1090020015835762,"19":0.04606357589364052,"20":-0.263698935508728,"21":0.2227773219347,"22":-0.6488502621650696,"23":0.28145039081573486,"24":0.3573947250843048,"25":-0.6566807627677917,"26":-0.2733766734600067,"27":-0.36593616008758545,"28":-0.7488560080528259,"29":-0.26521965861320496,"30":0.7281889319419861,"31":-0.31808578968048096,"32":-0.7399277687072754,"33":0.7711055874824524,"34":-0.28653401136398315,"35":0.6498244404792786,"36":0.6978550553321838,"37":0.703689694404602,"38":-0.3131607472896576,"39":0.28414368629455566,"40":-0.3485298752784729,"41":0.8132959008216858,"42":0.1638222634792328,"43":-0.2983647584915161,"44":0.8532566428184509,"45":0.14026212692260742,"46":-0.35630133748054504,"47":-0.787082850933075,"48":0.2522144317626953,"49":-0.8818629384040833,"50":-0.19758199155330658,"51":-0.3285554051399231,"52":0.23184101283550262,"53":-0.21270425617694855,"54":-0.3146677315235138,"55":-0.22294826805591583,"56":-0.16366228461265564,"57":-0.25538620352745056,"58":-0.3642663061618805,"59":0.48287883400917053,"60":-0.1975378394126892,"61":-0.6746893525123596,"62":-0.05959490314126015,"63":-0.16843675076961517,"64":-0.4806623160839081,"65":-0.008862841874361038,"66":-0.1237247958779335,"67":0.39688006043434143,"68":-0.10480604320764542,"69":0.6242886781692505,"70":0.15466047823429108,"71":-0.172345831990242,"72":-0.06414127349853516,"73":0.12156905233860016,"74":-0.05995287373661995,"75":0.15498773753643036,"76":0.19902147352695465,"77":0.04039562866091728,"78":0.03552749752998352,"79":-0.3275485038757324,"80":-0.1678006798028946,"81":0.2241833209991455,"82":-0.7962591648101807,"83":0.37338176369667053,"84":0.31399908661842346,"85":-0.9276225566864014,"86":-0.19702015817165375,"87":-0.21669314801692963,"88":-0.9649192094802856,"89":-0.24447593092918396,"90":0.8762100338935852,"91":-0.29172852635383606,"92":-1.1041172742843628,"93":0.9150416254997253,"94":-0.2316015362739563,"95":0.8065088391304016,"96":0.7671181559562683,"97":1.0505541563034058,"98":-0.12633046507835388,"99":0.20360974967479706,"100":-0.3938344717025757,"101":0.8211674094200134,"102":0.06678414344787598,"103":-0.1757362186908722,"104":0.7462762594223022,"105":0.19664645195007324,"106":-0.28816407918930054,"107":-0.6726087331771851,"108":0.30088257789611816,"109":-0.9303164482116699,"110":-0.2240029275417328,"111":-0.1855984330177307,"112":0.23264871537685394,"113":-0.2539803981781006,"114":-0.24863076210021973,"115":-0.16054396331310272,"116":-0.2449006736278534,"117":-0.2543220520019531,"118":-0.4851222038269043,"119":1.007459282875061,"120":0.010202393867075443,"121":-0.2529964745044708,"122":0.3338005542755127,"123":-0.518650472164154,"124":-0.009050280787050724,"125":0.37078195810317993,"126":-0.049235787242650986,"127":0.0302257277071476,"128":0.3219086527824402,"129":0.024910714477300644,"130":-0.4177377223968506,"131":-0.08267038315534592,"132":0.3787324130535126,"133":-0.4330398440361023,"134":0.06220122426748276,"135":-0.4202035069465637,"136":-0.3383617401123047,"137":-0.42304036021232605,"138":0.17677229642868042,"139":-0.017481796443462372,"140":0.3160242736339569,"141":-0.1539890170097351,"142":0.7091804146766663,"143":-0.13453201949596405,"144":-0.24356834590435028,"145":0.8398033380508423,"146":0.26983270049095154,"147":0.28038740158081055,"148":0.8100927472114563,"149":0.36570730805397034,"150":-0.7896506786346436,"151":0.3660716712474823,"152":0.9259756803512573,"153":-0.7746039628982544,"154":0.3296032249927521,"155":-0.7072066068649292,"156":-0.6905627250671387,"157":-0.853834867477417,"158":0.21680161356925964,"159":-0.2985708713531494,"160":-0.44942280650138855,"161":0.8283381462097168,"162":0.16263623535633087,"163":-0.22735898196697235,"164":0.6058277487754822,"165":0.21598300337791443,"166":-0.5115524530410767,"167":-0.6576805114746094,"168":0.32305026054382324,"169":-0.9007627367973328,"170":-0.26088833808898926,"171":-0.22371554374694824,"172":0.24697382748126984,"173":-0.29433244466781616,"174":-0.3395669162273407,"175":-0.22334879636764526,"176":-0.27935343980789185,"177":-0.285786509513855,"178":-0.6023908257484436,"179":1.0509527921676636,"180":0.10149244964122772,"181":-0.21028505265712738,"182":0.5314894318580627,"183":-0.29051142930984497,"184":-0.191431924700737,"185":0.323045939207077,"186":0.2287285327911377,"187":0.07362901419401169,"188":0.33543190360069275,"189":0.07314655929803848,"190":-0.6978183388710022,"191":0.19636909663677216,"192":0.26835963129997253,"193":-0.6285261511802673,"194":0.1487380415201187,"195":-0.6787742972373962,"196":-0.6578989028930664,"197":-0.2676413655281067,"198":0.27756503224372864,"199":-0.08365519344806671,"200":0.45071935653686523,"201":-0.8734435439109802,"202":-0.20531195402145386,"203":0.18055233359336853,"204":-0.7866277098655701,"205":-0.2755681276321411,"206":0.5751376748085022,"207":0.8082269430160522,"208":-0.2727728486061096,"209":0.8929680585861206,"210":0.3215256929397583,"211":0.25450894236564636,"212":-0.356155663728714,"213":0.300896018743515,"214":0.4188951253890991,"215":0.3055070638656616,"216":0.3654122054576874,"217":0.38804057240486145,"218":0.7224626541137695,"219":-0.9852678179740906,"220":0.013242126442492008,"221":-0.19126789271831512,"222":0.4098679721355438,"223":-0.4248581826686859,"224":-0.03318373113870621,"225":0.4586006999015808,"226":0.019908884540200233,"227":-0.019481023773550987,"228":0.6154853701591492,"229":-0.01959165185689926,"230":-0.5868891477584839,"231":-0.018913645297288895,"232":0.5002201795578003,"233":-0.6160851716995239,"234":0.09067133814096451,"235":-0.7279477119445801,"236":-0.4960581064224243,"237":-0.6360331773757935,"238":0.11360476911067963,"239":-0.02554636262357235,"240":-0.3581169545650482,"241":0.6906801462173462,"242":0.09155669808387756,"243":-0.0876796767115593,"244":0.5561368465423584,"245":0.2378615438938141,"246":-0.516430675983429,"247":-0.6446851491928101,"248":0.26255688071250916,"249":-0.8029061555862427,"250":-0.21314990520477295,"251":-0.1527225375175476,"252":0.2528991997241974,"253":-0.23369114100933075,"254":-0.19484221935272217,"255":-0.23153500258922577,"256":-0.20866629481315613,"257":-0.2510751187801361,"258":-0.4555151164531708,"259":1.0304131507873535,"260":0.824571430683136,"261":-0.8731603026390076,"262":-0.3607083559036255,"263":0.32177579402923584,"264":-0.7836688160896301,"265":-0.3550865650177002,"266":0.9846644997596741,"267":0.7495781183242798,"268":-0.3890162706375122,"269":0.9438625574111938,"270":0.35489895939826965,"271":0.37344127893447876,"272":-0.42891138792037964,"273":0.3407211899757385,"274":0.761038601398468,"275":0.3759254515171051,"276":0.36235037446022034,"277":0.46450430154800415,"278":1.1041107177734375,"279":-0.9549526572227478,"280":-0.07444359362125397,"281":-0.22932535409927368,"282":0.539885938167572,"283":-0.43324071168899536,"284":-0.1397472769021988,"285":0.507988691329956,"286":-0.1135525107383728,"287":-0.07522514462471008,"288":0.5570380687713623,"289":0.017069216817617416,"290":-0.5934566855430603,"291":-0.09627081453800201,"292":0.57846599817276,"293":-0.7188220620155334,"294":0.003194201970472932,"295":-0.8058915138244629,"296":-0.562702476978302,"297":-0.603052020072937,"298":0.14895153045654297,"299":-0.04886101931333542,"300":0.38879695534706116,"301":-0.853580117225647,"302":-0.2052154690027237,"303":0.31905755400657654,"304":-0.8120519518852234,"305":-0.2877333462238312,"306":0.28976544737815857,"307":0.8501609563827515,"308":-0.2771264612674713,"309":0.9363541007041931,"310":0.33696383237838745,"311":0.32681429386138916,"312":-0.28854119777679443,"313":0.29179689288139343,"314":0.2687686085700989,"315":0.2924073040485382,"316":0.2111234962940216,"317":0.24786148965358734,"318":0.4739416539669037,"319":-1.0174036026000977,"320":0.2548638880252838,"321":-0.8667004108428955,"322":-0.09814340621232986,"323":0.1865791231393814,"324":-0.7799062132835388,"325":-0.17231470346450806,"326":0.3553037643432617,"327":0.7814162969589233,"328":-0.25151076912879944,"329":0.9436496496200562,"330":0.17177844047546387,"331":0.34065091609954834,"332":-0.25810158252716064,"333":0.29010820388793945,"334":0.28524526953697205,"335":0.2848776876926422,"336":0.17775094509124756,"337":0.24980291724205017,"338":0.298916757106781,"339":-0.7785021662712097,"340":0.6976180672645569,"341":-0.8583605289459229,"342":-0.2666761577129364,"343":0.1818612664937973,"344":-0.6540554761886597,"345":-0.48200586438179016,"346":0.8669071793556213,"347":0.6767428517341614,"348":-0.3429526686668396,"349":0.923713207244873,"350":0.40700316429138184,"351":0.21928957104682922,"352":-0.3021100163459778,"353":0.3840731382369995,"354":0.4347657561302185,"355":0.31411272287368774,"356":0.2704754173755646,"357":0.2943689823150635,"358":0.9086238145828247,"359":-1.0100712776184082,"360":-0.0666949599981308,"361":-0.2852475941181183,"362":0.3552384376525879,"363":-0.3649601936340332,"364":-0.09324216097593307,"365":0.5014386177062988,"366":-0.03542264178395271,"367":-0.12920676171779633,"368":0.564274251461029,"369":-0.055158574134111404,"370":-0.6032106876373291,"371":-0.08074470609426498,"372":0.48599714040756226,"373":-0.5995581150054932,"374":0.054059792309999466,"375":-0.5091361403465271,"376":-0.41844820976257324,"377":-0.583317220211029,"378":0.09797012060880661,"379":0.07425440847873688,"380":-0.003537865588441491,"381":0.29761695861816406,"382":-0.1795492172241211,"383":0.3676564693450928,"384":0.1830252707004547,"385":-0.24135653674602509,"386":0.09649167954921722,"387":0.055206507444381714,"388":-0.18965210020542145,"389":0.02072674036026001,"390":0.2929927706718445,"391":0.017855390906333923,"392":-0.31983715295791626,"393":0.2769480049610138,"394":-0.069398894906044,"395":0.2379007637500763,"396":0.20839840173721313,"397":0.2856215238571167,"398":-0.1270102560520172,"399":-0.0021938420832157135}},"cellActivationBias":{"rows":20,"columns":1,"weights":{"0":-0.23856274783611298,"1":-0.29795393347740173,"2":-0.256178081035614,"3":0.3058984577655792,"4":0.23167777061462402,"5":-0.25908809900283813,"6":-0.25165775418281555,"7":-0.3169826567173004,"8":-0.24237920343875885,"9":-0.3126775324344635,"10":0.21622200310230255,"11":-0.20236781239509583,"12":-0.2266763597726822,"13":0.2006724625825882,"14":-0.15734679996967316,"15":0.20935854315757751,"16":0.2626056373119354,"17":0.22103330492973328,"18":0.0842711329460144,"19":0.29075950384140015}}}],"outputConnector":{"rows":1,"columns":20,"weights":{"0":-0.47125956416130066,"1":0.5707660913467407,"2":0.0065102591179311275,"3":0.19164006412029266,"4":0.5722951889038086,"5":-0.06930775940418243,"6":-0.47610026597976685,"7":-0.4911370575428009,"8":-0.11454013735055923,"9":-0.5401151776313782,"10":0.08894871920347214,"11":-0.4560953974723816,"12":-0.10190384089946747,"13":0.1107415035367012,"14":-0.49229222536087036,"15":0.04965200275182724,"16":0.0504663847386837,"17":0.13033448159694672,"18":-0.47139522433280945,"19":0.5099503397941589}},"output":{"rows":1,"columns":1,"weights":{"0":-0.09303140640258789}},"inputLookup":null,"inputLookupLength":null,"outputLookup":null,"outputLookupLength":null}