{"type":"n","options":{"inputSize":1,"hiddenLayers":[20],"outputSize":1,"decayRate":0.999,"smoothEps":1e-8,"regc":0.000001,"clipval":5},"hiddenLayers":[{"inputMatrix":{"rows":20,"columns":1,"weights":{"0":0.8664021492004395,"1":-0.7064234614372253,"2":-0.4826565086841583,"3":1.114676594734192,"4":-0.6996653079986572,"5":0.917820930480957,"6":-0.5242013931274414,"7":0.027673901990056038,"8":-0.43002521991729736,"9":1.008245587348938,"10":1.0679337978363037,"11":-0.5120600461959839,"12":0.9619913101196289,"13":0.9610813856124878,"14":0.31299564242362976,"15":-0.06801409274339676,"16":-0.6206420660018921,"17":0.016180843114852905,"18":0.6395173072814941,"19":-0.5983762145042419}},"inputHidden":{"rows":20,"columns":20,"weights":{"0":-0.21411597728729248,"1":0.23903889954090118,"2":-0.604858934879303,"3":0.015590272843837738,"4":-0.35278332233428955,"5":-0.1458841860294342,"6":-0.5494473576545715,"7":0.5429447293281555,"8":-0.5237275958061218,"9":0.012562944553792477,"10":0.10556481033563614,"11":0.4806167185306549,"12":-0.11161459237337112,"13":-0.4353364109992981,"14":-0.07102535665035248,"15":0.4079393744468689,"16":-0.4856546223163605,"17":-0.20040328800678253,"18":-0.0001376652071485296,"19":-0.5445989966392517,"20":-0.16497944295406342,"21":0.16401825845241547,"22":-0.19160135090351105,"23":-0.21587452292442322,"24":-0.10531057417392731,"25":0.3022320568561554,"26":-0.0794864296913147,"27":0.19035761058330536,"28":-0.16085878014564514,"29":0.27327680587768555,"30":0.19135822355747223,"31":0.15103936195373535,"32":-0.18199816346168518,"33":0.2932772934436798,"34":0.23943643271923065,"35":0.14663448929786682,"36":-0.1965668946504593,"37":-0.30821603536605835,"38":0.2454855591058731,"39":-0.17283283174037933,"40":0.024038780480623245,"41":0.27719658613204956,"42":-0.23666918277740479,"43":0.028536202386021614,"44":-0.1857423186302185,"45":-0.3333888053894043,"46":-0.28139087557792664,"47":0.09841633588075638,"48":-0.22301675379276276,"49":-0.20378424227237701,"50":0.12194834649562836,"51":0.18715913593769073,"52":-0.09397934377193451,"53":-0.8766578435897827,"54":-0.021743401885032654,"55":0.11768582463264465,"56":-0.2572370171546936,"57":0.11236054450273514,"58":-0.09347416460514069,"59":-0.2898043990135193,"60":-0.19701378047466278,"61":0.20683611929416656,"62":-0.6392648816108704,"63":0.01446820329874754,"64":-0.20154182612895966,"65":0.08321890980005264,"66":-0.4850286543369293,"67":0.530017077922821,"68":-0.634377121925354,"69":0.5870818495750427,"70":0.01782561093568802,"71":0.6654955744743347,"72":-0.10012111812829971,"73":0.000431968568591401,"74":-0.0846392959356308,"75":-0.06239809840917587,"76":-0.5239294767379761,"77":-0.5339412689208984,"78":0.5077678561210632,"79":-0.5924720168113708,"80":-0.20292167365550995,"81":0.1518857628107071,"82":-0.17659413814544678,"83":-0.20196403563022614,"84":-0.1530897468328476,"85":0.31807273626327515,"86":-0.015952864661812782,"87":0.18955358862876892,"88":-0.22516828775405884,"89":0.20482051372528076,"90":0.16282548010349274,"91":0.16325095295906067,"92":-0.26265355944633484,"93":0.34759458899497986,"94":0.2566344439983368,"95":0.03891974315047264,"96":-0.1014212965965271,"97":-0.2552354335784912,"98":0.2561652958393097,"99":-0.16443520784378052,"100":-0.4960958957672119,"101":-0.024543821811676025,"102":-0.2685587704181671,"103":-0.6532853841781616,"104":0.02335095964372158,"105":0.7064118981361389,"106":-0.21211548149585724,"107":1.2782460451126099,"108":-0.19004704058170319,"109":0.6807217597961426,"110":0.45774129033088684,"111":0.4245626628398895,"112":-0.6467891931533813,"113":0.35292139649391174,"114":1.3928823471069336,"115":1.0246272087097168,"116":-0.05077250674366951,"117":-1.3786596059799194,"118":0.379667192697525,"119":-0.2257888913154602,"120":-0.01269738283008337,"121":0.2658228576183319,"122":-0.1713343858718872,"123":-0.06978272646665573,"124":-0.2054857313632965,"125":0.09136609733104706,"126":-0.12101390957832336,"127":0.056444622576236725,"128":-0.1631709188222885,"129":0.09324678033590317,"130":-0.0014847873244434595,"131":0.18171343207359314,"132":-0.03610679507255554,"133":-0.14447620511054993,"134":0.09031466394662857,"135":0.024988455697894096,"136":-0.1625547856092453,"137":0.0020083885174244642,"138":0.10972438007593155,"139":-0.21723097562789917,"140":-0.5678719878196716,"141":0.2581978738307953,"142":-0.5664321184158325,"143":-0.5803114771842957,"144":-0.3338806927204132,"145":0.3525369167327881,"146":-0.34478434920310974,"147":0.6757053732872009,"148":-0.5639925599098206,"149":0.8255478143692017,"150":0.6009120941162109,"151":0.43066641688346863,"152":-0.5658372044563293,"153":0.22892144322395325,"154":0.7823079824447632,"155":0.25915297865867615,"156":-0.35450679063796997,"157":-0.6811744570732117,"158":0.851179838180542,"159":-0.3738490343093872,"160":-0.027042757719755173,"161":0.2820892930030823,"162":-0.24894604086875916,"163":-0.06424611061811447,"164":-0.2845612168312073,"165":-0.2465192824602127,"166":-0.18915367126464844,"167":0.029389360919594765,"168":-0.18707723915576935,"169":-0.23810787498950958,"170":-0.005544629413634539,"171":0.25038111209869385,"172":-0.005972155835479498,"173":-0.583505392074585,"174":0.021135849878191948,"175":0.12589651346206665,"176":-0.16179776191711426,"177":0.07664527744054794,"178":-0.09439108520746231,"179":-0.24850954115390778,"180":-0.1869524121284485,"181":-0.07061369717121124,"182":0.010287106968462467,"183":-0.16103072464466095,"184":-0.1346127986907959,"185":0.27516353130340576,"186":-0.11815010756254196,"187":0.6793417930603027,"188":-0.18616905808448792,"189":0.11977436393499374,"190":0.1775086522102356,"191":-0.025783512741327286,"192":-0.18889681994915009,"193":0.053040504455566406,"194":0.8111178874969482,"195":0.7602093815803528,"196":-0.1326698362827301,"197":-1.3676146268844604,"198":-0.08658728748559952,"199":0.030113881453871727,"200":-0.12631793320178986,"201":0.2854991555213928,"202":-0.5593342185020447,"203":-0.022508101537823677,"204":-0.29152941703796387,"205":-0.18523792922496796,"206":-0.43093031644821167,"207":0.516450822353363,"208":-0.5997394919395447,"209":0.24268226325511932,"210":0.18544001877307892,"211":0.4871510863304138,"212":-0.1987263560295105,"213":-0.40296828746795654,"214":-0.07790912687778473,"215":0.08791346848011017,"216":-0.443347692489624,"217":-0.4196319580078125,"218":0.29207128286361694,"219":-0.5447465777397156,"220":-0.1715138852596283,"221":0.3312745988368988,"222":-0.18743900954723358,"223":-0.008907183073461056,"224":-0.15621545910835266,"225":-0.8112905621528625,"226":-0.22288712859153748,"227":0.37649983167648315,"228":-0.10651141405105591,"229":-0.37246158719062805,"230":0.09609824419021606,"231":0.17656508088111877,"232":-0.1973108947277069,"233":-1.3560961484909058,"234":0.04065816104412079,"235":0.5141149163246155,"236":-0.17944391071796417,"237":-0.16508330404758453,"238":-0.31771567463874817,"239":-0.15259496867656708,"240":-0.09609761834144592,"241":0.1409754753112793,"242":-0.5084820985794067,"243":-0.06083222106099129,"244":-0.21267208456993103,"245":-0.06501699984073639,"246":-0.5786324739456177,"247":0.44119125604629517,"248":-0.6116711497306824,"249":0.1413673609495163,"250":0.05744214728474617,"251":0.4043872654438019,"252":-0.05196253955364227,"253":-0.26851686835289,"254":-0.09872541576623917,"255":0.3153696358203888,"256":-0.4719966650009155,"257":-0.2761639952659607,"258":0.10436633974313736,"259":-0.5635005831718445,"260":0.21174761652946472,"261":-0.1444058120250702,"262":0.075552798807621,"263":0.09796688705682755,"264":0.06269307434558868,"265":-0.2717110514640808,"266":0.022576507180929184,"267":0.17535321414470673,"268":0.16862599551677704,"269":-0.36815130710601807,"270":-0.5393810868263245,"271":-0.33867543935775757,"272":0.25279876589775085,"273":-0.4434875249862671,"274":-0.08968348056077957,"275":0.4482370913028717,"276":-0.07402858138084412,"277":-0.23734566569328308,"278":-0.4419310688972473,"279":-0.09058817476034164,"280":-0.8398743271827698,"281":0.2552849352359772,"282":-0.5285745859146118,"283":-0.9033676981925964,"284":-0.3361167907714844,"285":0.0031185157131403685,"286":-0.42093777656555176,"287":0.9151622653007507,"288":-0.38854578137397766,"289":0.25353118777275085,"290":0.7538025379180908,"291":0.2094380110502243,"292":-0.8696054220199585,"293":0.1053214818239212,"294":1.0693775415420532,"295":1.523420810699463,"296":-0.4190860390663147,"297":-1.1867492198944092,"298":0.22687585651874542,"299":-0.48090946674346924,"300":0.3734477460384369,"301":0.2623189091682434,"302":-0.10646141320466995,"303":0.44865772128105164,"304":-0.3513542115688324,"305":-1.0150998830795288,"306":-0.13269557058811188,"307":0.02388336881995201,"308":-0.11629515141248703,"309":-0.9692503809928894,"310":-0.3851378858089447,"311":0.04771431162953377,"312":0.34760573506355286,"313":-1.7294435501098633,"314":-0.3301638066768646,"315":0.40931862592697144,"316":-0.1698053777217865,"317":0.013613431714475155,"318":-0.8909705877304077,"319":-0.22005309164524078,"320":-0.03391483426094055,"321":0.2244773954153061,"322":-0.2985246777534485,"323":-0.031889501959085464,"324":-0.2564970850944519,"325":-0.056985706090927124,"326":-0.20030251145362854,"327":-0.04235239326953888,"328":-0.15286312997341156,"329":0.03905697166919708,"330":0.11474140733480453,"331":0.1308647096157074,"332":-0.02861769124865532,"333":-0.10087593644857407,"334":0.09764937311410904,"335":0.04005507379770279,"336":-0.18353502452373505,"337":-0.055484749376773834,"338":-0.03607666492462158,"339":-0.2097206711769104,"340":-0.7795986533164978,"341":0.39849138259887695,"342":-0.4692392945289612,"343":-0.9303914308547974,"344":-0.3649083971977234,"345":0.4552989900112152,"346":-0.4319215416908264,"347":0.7021545767784119,"348":-0.6899664402008057,"349":0.37883949279785156,"350":0.7873254418373108,"351":0.7366682887077332,"352":-0.7719095349311829,"353":-0.08687963336706161,"354":1.0752571821212769,"355":0.4019611179828644,"356":-0.4071634113788605,"357":-1.2869848012924194,"358":0.1697472333908081,"359":-0.5208990573883057,"360":0.47798147797584534,"361":0.020952368155121803,"362":0.5918570756912231,"363":0.29109758138656616,"364":-0.062409378588199615,"365":0.31385338306427,"366":-0.12061718106269836,"367":-0.11866186559200287,"368":0.25481006503105164,"369":0.1811712384223938,"370":-0.7848811745643616,"371":-0.41972070932388306,"372":0.5456574559211731,"373":0.06691930443048477,"374":-0.016603557392954826,"375":-0.7793172597885132,"376":-0.06945693492889404,"377":-0.6109479665756226,"378":-0.16510626673698425,"379":0.04213935509324074,"380":-0.06397222727537155,"381":0.17041608691215515,"382":-0.24503402411937714,"383":-0.054474927484989166,"384":-0.20008382201194763,"385":-0.19891555607318878,"386":-0.09764356911182404,"387":0.11065234243869781,"388":-0.16541174054145813,"389":-0.1740955412387848,"390":0.05580846965312958,"391":0.19731269776821136,"392":0.005231853108853102,"393":-0.6058230996131897,"394":0.053913503885269165,"395":0.1000184416770935,"396":-0.16865232586860657,"397":0.08041558414697647,"398":-0.12038446217775345,"399":-0.2146250307559967}},"inputBias":{"rows":20,"columns":1,"weights":{"0":0.45769935846328735,"1":-0.620385468006134,"2":-0.695593535900116,"3":0.5360612273216248,"4":-0.677358090877533,"5":0.23506879806518555,"6":-0.7740786075592041,"7":0.749130129814148,"8":-0.7131646275520325,"9":0.4269581139087677,"10":0.39905378222465515,"11":-0.7925494313240051,"12":0.4860520362854004,"13":0.46270862221717834,"14":1.3592274188995361,"15":-1.2488019466400146,"16":-0.7495080828666687,"17":1.6663917303085327,"18":-0.31618738174438477,"19":-0.753802478313446}},"forgetMatrix":{"rows":20,"columns":1,"weights":{"0":0.43289715051651,"1":-0.5405752658843994,"2":-0.5567387938499451,"3":0.45476415753364563,"4":-0.5167946219444275,"5":0.6515212059020996,"6":-0.6902375817298889,"7":-0.2901090383529663,"8":-0.36037036776542664,"9":0.3260875940322876,"10":0.6365694999694824,"11":-0.5209674835205078,"12":0.4537007212638855,"13":1.644724726676941,"14":-0.4837593138217926,"15":-0.42046552896499634,"16":-0.5552718043327332,"17":-0.4817981719970703,"18":0.8992487192153931,"19":-0.6365332007408142}},"forgetHidden":{"rows":20,"columns":20,"weights":{"0":-0.4717036485671997,"1":0.08600964397192001,"2":-0.28645968437194824,"3":-0.45484399795532227,"4":-0.16220901906490326,"5":0.059552427381277084,"6":-0.3017485737800598,"7":0.48400571942329407,"8":-0.40001142024993896,"9":-0.06918809562921524,"10":0.3584536910057068,"11":0.21637898683547974,"12":-0.3881848454475403,"13":-0.3153356909751892,"14":0.3996291160583496,"15":1.6454570293426514,"16":-0.40108639001846313,"17":-0.5246425867080688,"18":-0.28480908274650574,"19":-0.3070831596851349,"20":-0.22581571340560913,"21":0.05030025169253349,"22":-0.27053186297416687,"23":-0.3410412073135376,"24":-0.002378833247348666,"25":0.2338302731513977,"26":-0.09730762988328934,"27":0.09167759120464325,"28":-0.17446662485599518,"29":0.22540068626403809,"30":0.259578138589859,"31":0.172103613615036,"32":-0.24882721900939941,"33":0.2329580932855606,"34":0.18501563370227814,"35":0.30250832438468933,"36":-0.15372860431671143,"37":-0.14617663621902466,"38":0.35902494192123413,"39":-0.2133059799671173,"40":-0.17455798387527466,"41":0.3300895392894745,"42":-0.31046292185783386,"43":-0.19642961025238037,"44":-0.3064555525779724,"45":0.25002381205558777,"46":-0.2872474789619446,"47":0.22322753071784973,"48":-0.25614437460899353,"49":0.26582375168800354,"50":0.23694242537021637,"51":0.32947981357574463,"52":-0.30731794238090515,"53":0.36769118905067444,"54":0.23000487685203552,"55":0.323853462934494,"56":-0.26063966751098633,"57":-0.313103049993515,"58":0.2606203556060791,"59":-0.29306161403656006,"60":-0.4140109419822693,"61":0.05055127665400505,"62":-0.26506343483924866,"63":-0.429934561252594,"64":-0.19223372638225555,"65":0.13416849076747894,"66":-0.26353707909584045,"67":0.5465989112854004,"68":-0.38131245970726013,"69":-0.16861149668693542,"70":0.24388274550437927,"71":-0.0949493944644928,"72":-0.30759286880493164,"73":-0.21122829616069794,"74":0.2715715765953064,"75":1.7869842052459717,"76":-0.26229506731033325,"77":-0.7157604694366455,"78":-0.15219052135944366,"79":-0.22165583074092865,"80":-0.34488460421562195,"81":0.05895346775650978,"82":-0.22439447045326233,"83":-0.35284996032714844,"84":-0.11483167111873627,"85":0.3851410746574402,"86":-0.16620157659053802,"87":0.12664763629436493,"88":-0.25771817564964294,"89":0.2776486873626709,"90":0.2570157051086426,"91":0.2929629683494568,"92":-0.3974170386791229,"93":0.2695218026638031,"94":0.2339331954717636,"95":0.25209736824035645,"96":-0.231878399848938,"97":-0.19600112736225128,"98":0.37887486815452576,"99":-0.16923150420188904,"100":-0.5874767899513245,"101":0.09245090931653976,"102":-0.4168245494365692,"103":-0.5963210463523865,"104":-0.057084012776613235,"105":0.3579391837120056,"106":-0.32565951347351074,"107":1.447529673576355,"108":-0.3919946253299713,"109":0.2828816771507263,"110":0.4375684857368469,"111":0.29847291111946106,"112":-0.627070426940918,"113":-0.27766719460487366,"114":1.6968328952789307,"115":2.69140362739563,"116":-0.4121776223182678,"117":-1.698175311088562,"118":-0.0722901001572609,"119":-0.35266047716140747,"120":-0.3085131347179413,"121":0.2063342034816742,"122":-0.3497437536716461,"123":-0.38317060470581055,"124":-0.2716546952724457,"125":0.3206903040409088,"126":-0.32062631845474243,"127":0.23519903421401978,"128":-0.33060455322265625,"129":0.3350023031234741,"130":0.33050021529197693,"131":0.19987526535987854,"132":-0.27257227897644043,"133":0.392572283744812,"134":0.3662410378456116,"135":0.27325257658958435,"136":-0.19365356862545013,"137":-0.2607859671115875,"138":0.34919577836990356,"139":-0.27570509910583496,"140":-0.3410496711730957,"141":0.07114093005657196,"142":-0.3057136833667755,"143":-0.34553080797195435,"144":-0.07330935448408127,"145":0.3768414556980133,"146":-0.16196800768375397,"147":0.35444891452789307,"148":-0.4045388400554657,"149":0.36776259541511536,"150":0.30797818303108215,"151":0.1603313684463501,"152":-0.3910547196865082,"153":0.48641300201416016,"154":0.4255320429801941,"155":0.17887479066848755,"156":-0.1542617678642273,"157":-0.4120706617832184,"158":0.4820772707462311,"159":-0.21971236169338226,"160":-0.17134393751621246,"161":0.371676504611969,"162":-0.25401052832603455,"163":-0.16900363564491272,"164":-0.3590599298477173,"165":0.18606963753700256,"166":-0.35963132977485657,"167":0.2635873854160309,"168":-0.2634506821632385,"169":0.2266152799129486,"170":0.24830788373947144,"171":0.2784649729728699,"172":-0.177322119474411,"173":0.25310590863227844,"174":0.1721375733613968,"175":0.24234160780906677,"176":-0.24347814917564392,"177":-0.21585816144943237,"178":0.23436225950717926,"179":-0.23445366322994232,"180":-0.653408408164978,"181":0.04997115954756737,"182":-0.6289039850234985,"183":-0.413188099861145,"184":-0.14221343398094177,"185":0.0018975891871377826,"186":-0.3612692058086395,"187":1.162839412689209,"188":-0.6255120038986206,"189":-0.07751759886741638,"190":0.47978293895721436,"191":0.3705770969390869,"192":-0.6467486023902893,"193":-0.49529001116752625,"194":1.368396282196045,"195":2.805891990661621,"196":-0.4186655879020691,"197":-1.468980073928833,"198":-0.2256280928850174,"199":-0.5728195309638977,"200":-0.4763767123222351,"201":0.17411290109157562,"202":-0.339511901140213,"203":-0.3654628396034241,"204":-0.19433297216892242,"205":0.038565743714571,"206":-0.28708699345588684,"207":0.49620869755744934,"208":-0.4181686043739319,"209":-0.3132850229740143,"210":0.2986292541027069,"211":0.2376851737499237,"212":-0.3179229199886322,"213":-0.6212217211723328,"214":0.4090993404388428,"215":1.4031617641448975,"216":-0.38850101828575134,"217":-0.3477828800678253,"218":-0.4706375002861023,"219":-0.3098624050617218,"220":-0.27695515751838684,"221":0.33933138847351074,"222":-0.3725777268409729,"223":-0.23384390771389008,"224":-0.2904999852180481,"225":0.2724866569042206,"226":-0.22015932202339172,"227":0.21342690289020538,"228":-0.2578565776348114,"229":0.21718066930770874,"230":0.32381245493888855,"231":0.34406977891921997,"232":-0.23516111075878143,"233":0.38606807589530945,"234":0.3348771631717682,"235":0.2951193153858185,"236":-0.32982566952705383,"237":-0.3212115466594696,"238":0.295980840921402,"239":-0.2571287155151367,"240":-0.4217371940612793,"241":0.1469493955373764,"242":-0.1282528042793274,"243":-0.44477608799934387,"244":-0.041509613394737244,"245":0.1689697802066803,"246":-0.22989852726459503,"247":0.3994227945804596,"248":-0.2940775454044342,"249":-0.1820325255393982,"250":0.18354947865009308,"251":0.0397246889770031,"252":-0.3490236699581146,"253":-0.21989333629608154,"254":0.3741258978843689,"255":1.7203521728515625,"256":-0.3423216640949249,"257":-0.41795599460601807,"258":-0.2692146897315979,"259":-0.23948095738887787,"260":-1.3125343322753906,"261":0.47564995288848877,"262":-1.6350256204605103,"263":-0.8109661936759949,"264":-0.27403366565704346,"265":0.904984176158905,"266":-0.9126567244529724,"267":0.0016646337462589145,"268":-1.5861456394195557,"269":0.8624686002731323,"270":1.2703166007995605,"271":2.2772843837738037,"272":-1.1564929485321045,"273":0.2831145226955414,"274":0.9077349901199341,"275":1.0104008913040161,"276":-1.1686265468597412,"277":-0.15350623428821564,"278":0.42942309379577637,"279":-1.7326749563217163,"280":-0.3132668733596802,"281":0.0025147697888314724,"282":-0.17859028279781342,"283":-0.49989908933639526,"284":-0.0863880142569542,"285":0.4909374713897705,"286":-0.14270174503326416,"287":0.553583025932312,"288":-0.17106004059314728,"289":0.6038335561752319,"290":0.39612457156181335,"291":0.027691522613167763,"292":-0.3513648808002472,"293":0.8907039165496826,"294":0.6259543299674988,"295":0.37621966004371643,"296":-0.17658956348896027,"297":-0.7097386121749878,"298":0.5748203992843628,"299":-0.039546459913253784,"300":-0.23110756278038025,"301":0.3339669406414032,"302":-0.21846140921115875,"303":-0.1760345697402954,"304":-0.28253886103630066,"305":0.6114369630813599,"306":-0.2370261698961258,"307":0.18356497585773468,"308":-0.3079940378665924,"309":0.32284557819366455,"310":0.12360421568155289,"311":0.3669087290763855,"312":-0.08418162912130356,"313":0.6022678017616272,"314":0.2261464148759842,"315":0.16960829496383667,"316":-0.3703996241092682,"317":-0.42136240005493164,"318":0.27960264682769775,"319":-0.24674277007579803,"320":-0.30589407682418823,"321":0.22229334712028503,"322":-0.314570814371109,"323":-0.2835323214530945,"324":-0.26083940267562866,"325":0.32580870389938354,"326":-0.22035446763038635,"327":0.32812532782554626,"328":-0.24329672753810883,"329":0.2869751751422882,"330":0.29609042406082153,"331":0.2694741189479828,"332":-0.25472959876060486,"333":0.23632104694843292,"334":0.26543328166007996,"335":0.2548680901527405,"336":-0.33403152227401733,"337":-0.3517906665802002,"338":0.30356258153915405,"339":-0.2829521596431732,"340":-0.5041436553001404,"341":0.06557182222604752,"342":-0.40923845767974854,"343":-0.7045712471008301,"344":-0.061726462095975876,"345":0.6992893218994141,"346":-0.24257399141788483,"347":0.47795888781547546,"348":-0.33614060282707214,"349":0.580081045627594,"350":0.48889780044555664,"351":0.3590957820415497,"352":-0.6479930877685547,"353":0.6229272484779358,"354":0.7764018177986145,"355":0.4263582229614258,"356":-0.2434927523136139,"357":-0.6880115866661072,"358":0.570800244808197,"359":-0.3021574318408966,"360":0.14824983477592468,"361":-0.0038751091342419386,"362":0.17899544537067413,"363":0.1354457587003708,"364":-0.06459993869066238,"365":-0.20482906699180603,"366":-0.15535210072994232,"367":0.2703477144241333,"368":0.2209026962518692,"369":-0.13891805708408356,"370":-0.33651289343833923,"371":-0.3178160786628723,"372":0.29397428035736084,"373":-0.21153663098812103,"374":0.03833956643939018,"375":-0.1432136744260788,"376":-0.06936241686344147,"377":-0.6962200999259949,"378":-0.15764497220516205,"379":-0.061496034264564514,"380":-0.2926829755306244,"381":0.2580699324607849,"382":-0.22769895195960999,"383":-0.36089184880256653,"384":-0.31789106130599976,"385":0.3503042161464691,"386":-0.22009265422821045,"387":0.29596126079559326,"388":-0.24381376802921295,"389":0.30968761444091797,"390":0.28503912687301636,"391":0.29467079043388367,"392":-0.33777710795402527,"393":0.4031880497932434,"394":0.2810620069503784,"395":0.270844966173172,"396":-0.3379853367805481,"397":-0.33119601011276245,"398":0.2779463231563568,"399":-0.30016830563545227}},"forgetBias":{"rows":20,"columns":1,"weights":{"0":0,"1":0,"2":0,"3":0,"4":0,"5":0,"6":0,"7":0,"8":0,"9":0,"10":0,"11":0,"12":0,"13":0,"14":0,"15":0,"16":0,"17":0,"18":0,"19":0}},"outputMatrix":{"rows":20,"columns":1,"weights":{"0":-0.49313652515411377,"1":-0.6934823989868164,"2":-0.5363982319831848,"3":-0.34543055295944214,"4":-0.6102546453475952,"5":0.19216828048229218,"6":-0.5427143573760986,"7":-0.09968423843383789,"8":-0.35282081365585327,"9":0.3880852162837982,"10":-0.42356637120246887,"11":-0.40560272336006165,"12":-0.4187958836555481,"13":0.7156243324279785,"14":0.3158062696456909,"15":0.024530164897441864,"16":-0.5179011821746826,"17":-0.12960253655910492,"18":0.7960880398750305,"19":-0.5176939368247986}},"outputHidden":{"rows":20,"columns":20,"weights":{"0":-1.1299580335617065,"1":0.4679439067840576,"2":-0.8634762763977051,"3":-0.6812302470207214,"4":-0.503738284111023,"5":-0.43282341957092285,"6":-0.8114188313484192,"7":0.7475630044937134,"8":-0.9502357244491577,"9":-0.614694356918335,"10":1.1352877616882324,"11":1.0278455018997192,"12":-1.0233581066131592,"13":-1.1568244695663452,"14":0.3098333477973938,"15":2.5198569297790527,"16":-0.791271448135376,"17":-0.12577858567237854,"18":-0.940781831741333,"19":-0.9161088466644287,"20":-0.2790248394012451,"21":0.09100456535816193,"22":-0.1757926642894745,"23":-0.18937812745571136,"24":-0.15979890525341034,"25":0.3522907495498657,"26":-0.033775635063648224,"27":0.11179237067699432,"28":-0.12757372856140137,"29":0.2927914261817932,"30":0.25999942421913147,"31":0.17357149720191956,"32":-0.2184610813856125,"33":0.43338972330093384,"34":0.2833206355571747,"35":0.028700105845928192,"36":-0.10239201784133911,"37":-0.2817615866661072,"38":0.26718708872795105,"39":-0.1405617892742157,"40":-0.015844028443098068,"41":0.31631237268447876,"42":-0.1705474704504013,"43":0.0034836127888411283,"44":-0.23776225745677948,"45":-0.21267478168010712,"46":-0.14959153532981873,"47":0.00122077576816082,"48":-0.22387689352035522,"49":-0.2264939844608307,"50":0.07452691346406937,"51":0.14578837156295776,"52":-0.10748814046382904,"53":-0.6282512545585632,"54":0.048213277012109756,"55":0.08934718370437622,"56":-0.1913147121667862,"57":0.05107802152633667,"58":-0.14127564430236816,"59":-0.21233294904232025,"60":-0.7810852527618408,"61":0.4120439291000366,"62":-0.6753544807434082,"63":-0.5147553086280823,"64":-0.5256485342979431,"65":-0.14016620814800262,"66":-0.7036211490631104,"67":0.9072338938713074,"68":-0.8457637429237366,"69":-0.5344939827919006,"70":0.8023298382759094,"71":0.5246710181236267,"72":-0.8056942820549011,"73":-0.8304681181907654,"74":0.8503836989402771,"75":2.4659063816070557,"76":-0.7047101855278015,"77":-0.7575514912605286,"78":-0.775937557220459,"79":-0.7144915461540222,"80":-0.18943747878074646,"81":0.1098962053656578,"82":-0.28977352380752563,"83":-0.2597544193267822,"84":-0.1491927057504654,"85":0.22929196059703827,"86":-0.08853869140148163,"87":0.11460835486650467,"88":-0.18240009248256683,"89":0.3058798313140869,"90":0.17520369589328766,"91":0.08703028410673141,"92":-0.28139546513557434,"93":0.3128867745399475,"94":0.25100407004356384,"95":0.047459132969379425,"96":-0.06726189702749252,"97":-0.19623053073883057,"98":0.2986198663711548,"99":-0.02197411097586155,"100":-0.25881049036979675,"101":0.0859648659825325,"102":-0.6625889539718628,"103":-0.22144296765327454,"104":-0.2598637342453003,"105":0.05539603531360626,"106":-0.6692955493927002,"107":0.879737138748169,"108":-0.6345030069351196,"109":0.02814699150621891,"110":0.37734004855155945,"111":0.579177975654602,"112":-0.3188892900943756,"113":-0.43616822361946106,"114":1.0834760665893555,"115":2.9599318504333496,"116":-0.5885053873062134,"117":-1.3198312520980835,"118":-0.312485009431839,"119":-0.6668987274169922,"120":-0.0016031810082495213,"121":0.17037422955036163,"122":-0.2657119035720825,"123":-0.10245584696531296,"124":-0.22528770565986633,"125":-0.010471791960299015,"126":-0.18856370449066162,"127":0.04666000232100487,"128":-0.12717685103416443,"129":0.08660906553268433,"130":0.14451643824577332,"131":0.1765177696943283,"132":-0.10097528994083405,"133":0.051259733736515045,"134":0.003914914559572935,"135":0.04518529400229454,"136":-0.07942954450845718,"137":-0.02010144665837288,"138":0.09878591448068619,"139":-0.12423140555620193,"140":-0.5118058919906616,"141":0.3412986695766449,"142":-0.6232839822769165,"143":-0.5615649819374084,"144":-0.42380061745643616,"145":0.46255630254745483,"146":-0.5116440653800964,"147":0.40998217463493347,"148":-0.6256951689720154,"149":0.7254416942596436,"150":0.4045560359954834,"151":0.6042585372924805,"152":-0.4456358850002289,"153":0.36208322644233704,"154":0.5669243931770325,"155":0.2438707798719406,"156":-0.566821277141571,"157":-0.5168617367744446,"158":0.7440990209579468,"159":-0.5203327536582947,"160":0.01244658324867487,"161":0.22000384330749512,"162":-0.10468026250600815,"163":-0.05076279863715172,"164":-0.20084266364574432,"165":-0.17068958282470703,"166":-0.09866143018007278,"167":-0.009493507444858551,"168":-0.10518631339073181,"169":-0.17725631594657898,"170":0.0308388639241457,"171":0.0869022011756897,"172":-0.04327646270394325,"173":-0.35564887523651123,"174":-0.0893489271402359,"175":0.08452608436346054,"176":-0.11585061997175217,"177":0.015887664631009102,"178":-0.0188000425696373,"179":-0.21682272851467133,"180":0.07985411584377289,"181":0.22810696065425873,"182":-0.5109360218048096,"183":0.11943314969539642,"184":-0.3821750283241272,"185":-0.17596183717250824,"186":-0.6742114424705505,"187":0.3603329658508301,"188":-0.6904876232147217,"189":-0.19750948250293732,"190":-0.14256300032138824,"191":0.4686642587184906,"192":-0.011039428412914276,"193":-0.3294505178928375,"194":0.264752060174942,"195":1.0550329685211182,"196":-0.6238974332809448,"197":-0.659957766532898,"198":-0.33268269896507263,"199":-0.574272632598877,"200":-1.323212742805481,"201":0.41687050461769104,"202":-0.7432048916816711,"203":-0.7576771974563599,"204":-0.4837058484554291,"205":-0.3378683626651764,"206":-0.6679509282112122,"207":0.6875844597816467,"208":-0.8650609850883484,"209":-0.8971929550170898,"210":1.304004430770874,"211":1.0606249570846558,"212":-1.2020537853240967,"213":-1.457448959350586,"214":0.32003772258758545,"215":1.967349648475647,"216":-0.6740908622741699,"217":-0.15644852817058563,"218":-1.2609264850616455,"219":-0.7381900548934937,"220":-0.16940522193908691,"221":0.19320717453956604,"222":-0.20694418251514435,"223":-0.06796188652515411,"224":-0.1792597770690918,"225":-0.6208037734031677,"226":-0.20089448988437653,"227":0.3522518575191498,"228":-0.07542698085308075,"229":-0.4050368070602417,"230":0.18256285786628723,"231":0.23830564320087433,"232":-0.06142989173531532,"233":-1.2415491342544556,"234":0.11947010457515717,"235":0.5620560050010681,"236":-0.15081176161766052,"237":-0.11036866158246994,"238":-0.24371108412742615,"239":-0.12329665571451187,"240":-1.1359506845474243,"241":0.40938153862953186,"242":-0.8472660779953003,"243":-0.5831747651100159,"244":-0.4874352812767029,"245":-0.307401567697525,"246":-0.6700723767280579,"247":0.6554660201072693,"248":-0.8774513006210327,"249":-0.5773943066596985,"250":1.12485933303833,"251":1.047878623008728,"252":-1.0449334383010864,"253":-0.9514783024787903,"254":0.4434167444705963,"255":2.4010422229766846,"256":-0.8253819942474365,"257":-0.1936337947845459,"258":-0.9147619605064392,"259":-0.8705126047134399,"260":0.24252493679523468,"261":-0.02237147092819214,"262":0.28483787178993225,"263":0.19233253598213196,"264":0.056383952498435974,"265":-0.3179830312728882,"266":-0.18224775791168213,"267":0.2492106854915619,"268":0.26199230551719666,"269":-0.3812275826931,"270":-0.2948450446128845,"271":-0.8188888430595398,"272":0.2653138041496277,"273":-0.6129581928253174,"274":0.0549008846282959,"275":0.1427023857831955,"276":-0.1910780966281891,"277":-0.22851435840129852,"278":-0.481693297624588,"279":-0.09146659821271896,"280":-0.6921074986457825,"281":0.3109106421470642,"282":-0.6633245348930359,"283":-0.6981783509254456,"284":-0.27445024251937866,"285":0.020490797236561775,"286":-0.6015498638153076,"287":0.6306414008140564,"288":-0.5053271651268005,"289":0.2707720994949341,"290":0.655375599861145,"291":0.41593223810195923,"292":-0.6463753581047058,"293":0.22365103662014008,"294":0.7114096879959106,"295":1.4461373090744019,"296":-0.5726983547210693,"297":-0.7212791442871094,"298":0.17861680686473846,"299":-0.5202776789665222,"300":0.35777929425239563,"301":0.2994958758354187,"302":-0.05001165717840195,"303":0.24301818013191223,"304":-0.2670230269432068,"305":-0.8561029434204102,"306":-0.20614780485630035,"307":0.06496845185756683,"308":-0.05030328407883644,"309":-0.7855961322784424,"310":-0.37798887491226196,"311":-0.044693052768707275,"312":0.31607571244239807,"313":-1.4702990055084229,"314":-0.17470015585422516,"315":0.32949092984199524,"316":-0.2541273832321167,"317":-0.016971679404377937,"318":-0.5890432596206665,"319":-0.22735048830509186,"320":-0.107071653008461,"321":0.27700576186180115,"322":-0.19332681596279144,"323":-0.1257171928882599,"324":-0.1499965488910675,"325":0.0038808744866400957,"326":-0.1663692146539688,"327":-0.023259587585926056,"328":-0.13622894883155823,"329":0.035435449331998825,"330":0.0866001546382904,"331":0.23625627160072327,"332":-0.049293551594018936,"333":-0.08093197643756866,"334":0.07347620278596878,"335":0.08701369166374207,"336":-0.18603423237800598,"337":-0.0688585415482521,"338":0.023802611976861954,"339":-0.14445623755455017,"340":-0.6525178551673889,"341":0.30881795287132263,"342":-0.7173688411712646,"343":-0.8328550457954407,"344":-0.3906603455543518,"345":0.5935954451560974,"346":-0.5162398815155029,"347":0.6588001251220703,"348":-0.6496016383171082,"349":0.4044731855392456,"350":0.7163678407669067,"351":0.9327574372291565,"352":-0.7733540534973145,"353":0.06411858648061752,"354":0.8312432765960693,"355":0.2438659816980362,"356":-0.5374748110771179,"357":-0.860971212387085,"358":0.377453476190567,"359":-0.7060201168060303,"360":0.2933773994445801,"361":0.058357298374176025,"362":-0.15818238258361816,"363":0.2593347430229187,"364":-0.1704692840576172,"365":-0.23470403254032135,"366":-0.4816756546497345,"367":0.1498318612575531,"368":0.035992901772260666,"369":-0.21035249531269073,"370":-0.5916770696640015,"371":-0.030233528465032578,"372":0.4217241108417511,"373":-0.364187628030777,"374":-0.48274630308151245,"375":-0.035808589309453964,"376":-0.48489537835121155,"377":-0.30505916476249695,"378":-0.3403899073600769,"379":-0.3733920156955719,"380":0.012546252459287643,"381":0.20673434436321259,"382":-0.20917503535747528,"383":-0.053299371153116226,"384":-0.13306769728660583,"385":-0.14777016639709473,"386":-0.08255913853645325,"387":0.09084749966859818,"388":-0.10364709794521332,"389":-0.0218850988894701,"390":0.030355243012309074,"391":0.10492455214262009,"392":-0.11467037349939346,"393":-0.442608505487442,"394":0.07313559949398041,"395":0.1512976735830307,"396":-0.22366517782211304,"397":-0.08696842193603516,"398":-0.007516732905060053,"399":-0.2039981335401535}},"outputBias":{"rows":20,"columns":1,"weights":{"0":0.21925534307956696,"1":-0.6216115951538086,"2":-0.7051042318344116,"3":0.4738997220993042,"4":-0.6824203133583069,"5":0.8564946055412292,"6":-0.7803013324737549,"7":0.708518922328949,"8":-0.6988954544067383,"9":0.5627002120018005,"10":-0.08643203228712082,"11":-0.7724368572235107,"12":0.2927614748477936,"13":0.41453707218170166,"14":1.3051713705062866,"15":-1.239985704421997,"16":-0.7275160551071167,"17":1.6113981008529663,"18":0.20356515049934387,"19":-0.7394623756408691}},"cellActivationMatrix":{"rows":20,"columns":1,"weights":{"0":0.45804673433303833,"1":-0.1959919035434723,"2":0.11377082765102386,"3":0.7467795610427856,"4":0.13956104218959808,"5":-0.8049050569534302,"6":0.015400215052068233,"7":-0.435805082321167,"8":-0.15735650062561035,"9":-0.38653603196144104,"10":-0.500643789768219,"11":0.03307480365037918,"12":0.5027387142181396,"13":-1.2672266960144043,"14":-0.8712498545646667,"15":0.6876050233840942,"16":0.024310139939188957,"17":0.0990501418709755,"18":-0.26940199732780457,"19":-0.004823341500014067}},"cellActivationHidden":{"rows":20,"columns":20,"weights":{"0":0.35544437170028687,"1":0.32085299491882324,"2":-0.11545495688915253,"3":0.4666115343570709,"4":-0.2645338177680969,"5":-0.5890264511108398,"6":-0.2587655782699585,"7":-0.3872469663619995,"8":-0.17217080295085907,"9":-0.25870513916015625,"10":-0.4600408673286438,"11":0.15579009056091309,"12":0.5030636191368103,"13":-0.40474367141723633,"14":-0.6947727799415588,"15":0.23391972482204437,"16":-0.3434661328792572,"17":0.2550298869609833,"18":-0.24255304038524628,"19":-0.3372955322265625,"20":-0.0829196646809578,"21":-0.5256232023239136,"22":0.5561702847480774,"23":0.008168485015630722,"24":0.37801697850227356,"25":0.06002765893936157,"26":0.5236707329750061,"27":0.05347523093223572,"28":0.6465270519256592,"29":0.06986688822507858,"30":-0.018804386258125305,"31":-0.6124862432479858,"32":-0.04643695801496506,"33":0.1244475468993187,"34":0.05604501813650131,"35":-0.5812695026397705,"36":0.6099780797958374,"37":-0.10336750000715256,"38":0.1265476942062378,"39":0.550316572189331,"40":0.11488628387451172,"41":0.5014342665672302,"42":-0.5129802227020264,"43":0.14319893717765808,"44":-0.48910343647003174,"45":-0.30041712522506714,"46":-0.6100200414657593,"47":0.02243739739060402,"48":-0.5843486189842224,"49":-0.2158431112766266,"50":-0.07770515978336334,"51":0.6795039772987366,"52":0.005156002007424831,"53":-0.7221243381500244,"54":0.04089442640542984,"55":0.5961804389953613,"56":-0.5923190712928772,"57":-0.021369166672229767,"58":-0.1483183354139328,"59":-0.6060798764228821,"60":0.24604016542434692,"61":0.30577629804611206,"62":-0.4213061034679413,"63":0.43328142166137695,"64":-0.33594226837158203,"65":0.02117573469877243,"66":-0.2302282750606537,"67":-0.25406211614608765,"68":-0.27071940898895264,"69":0.5964871644973755,"70":-0.3617960810661316,"71":0.2797142267227173,"72":0.30315107107162476,"73":-0.056186776608228683,"74":-0.8114187717437744,"75":-0.5446463823318481,"76":-0.27645862102508545,"77":0.003837025025859475,"78":0.43326646089553833,"79":-0.37469419836997986,"80":-0.03177189081907272,"81":0.544046938419342,"82":-0.6403951048851013,"83":-0.0080921845510602,"84":-0.49191758036613464,"85":-0.06027579307556152,"86":-0.5359066724777222,"87":-0.046417396515607834,"88":-0.6819819808006287,"89":-0.028474239632487297,"90":-0.07966428995132446,"91":0.6153386831283569,"92":-0.004077400546520948,"93":-0.21216918528079987,"94":-0.0606355220079422,"95":0.5991508364677429,"96":-0.5273560881614685,"97":0.11596458405256271,"98":-0.0030428629834204912,"99":-0.5748561024665833,"100":-0.7378025054931641,"101":-0.15161649882793427,"102":-0.14769941568374634,"103":-0.35903313755989075,"104":0.3051518201828003,"105":-0.45168647170066833,"106":0.149295836687088,"107":-1.873284101486206,"108":-0.15567828714847565,"109":-0.9559736251831055,"110":0.826532244682312,"111":0.048610441386699677,"112":-0.4881335496902466,"113":-0.42457151412963867,"114":-0.6131834983825684,"115":0.5531407594680786,"116":0.1777862310409546,"117":1.6336548328399658,"118":-0.7744439840316772,"119":0.08152694255113602,"120":-0.02101236581802368,"121":0.5542709827423096,"122":-0.514614462852478,"123":0.038557276129722595,"124":-0.6369842290878296,"125":-0.19144539535045624,"126":-0.5728759765625,"127":0.036204397678375244,"128":-0.5713143348693848,"129":-0.1332283914089203,"130":-0.011383958160877228,"131":0.5467648506164551,"132":-0.037241823971271515,"133":-0.5773341655731201,"134":-0.03478190675377846,"135":0.6628272533416748,"136":-0.5458041429519653,"137":0.0688653364777565,"138":-0.15918812155723572,"139":-0.6832084059715271,"140":-0.08285067975521088,"141":-0.2882555425167084,"142":0.3691297173500061,"143":0.02920871041715145,"144":0.3299359977245331,"145":-0.1173480749130249,"146":0.4221861660480499,"147":-0.07853097468614578,"148":0.43464893102645874,"149":-0.3399565517902374,"150":-0.06913918256759644,"151":-0.36817988753318787,"152":-0.01744476705789566,"153":0.09445825219154358,"154":-0.03329402580857277,"155":-0.024469532072544098,"156":0.3657969534397125,"157":0.2893812954425812,"158":-0.12943010032176971,"159":0.44978204369544983,"160":0.025976497679948807,"161":0.49718889594078064,"162":-0.4962681829929352,"163":0.1535685956478119,"164":-0.6333597898483276,"165":-0.48203715682029724,"166":-0.6156636476516724,"167":0.43080955743789673,"168":-0.5129055976867676,"169":-0.035447344183921814,"170":0.04518765211105347,"171":0.6347896456718445,"172":-0.07555655390024185,"173":-0.6361444592475891,"174":0.16046103835105896,"175":0.6814140677452087,"176":-0.660701334476471,"177":-0.18016491830348969,"178":0.07412970066070557,"179":-0.6694011092185974,"180":-0.4846017360687256,"181":-0.25435447692871094,"182":0.07707659155130386,"183":-0.2586927115917206,"184":0.24548989534378052,"185":0.2112429291009903,"186":0.30954509973526,"187":0.15501156449317932,"188":0.06935960054397583,"189":-0.11278252303600311,"190":0.6135333180427551,"191":-0.016809290274977684,"192":-0.4766547679901123,"193":0.1628531664609909,"194":0.22356387972831726,"195":0.1609703153371811,"196":0.21065515279769897,"197":0.1682136505842209,"198":0.07957664877176285,"199":0.1851843297481537,"200":-0.22815021872520447,"201":-0.3133932948112488,"202":0.4679282307624817,"203":-0.4826779365539551,"204":0.3150317072868347,"205":0.448503702878952,"206":0.42608577013015747,"207":0.3221195936203003,"208":0.3926514685153961,"209":0.06619972735643387,"210":0.40315210819244385,"211":-0.2243129312992096,"212":-0.28456246852874756,"213":0.39509761333465576,"214":0.8519884347915649,"215":-0.1733809858560562,"216":0.2880959212779999,"217":-0.34709328413009644,"218":0.22915680706501007,"219":0.3214695155620575,"220":-0.11109674721956253,"221":-0.5232270359992981,"222":0.46465566754341125,"223":-0.20982582867145538,"224":0.609870970249176,"225":0.39885732531547546,"226":0.5544558763504028,"227":-0.9914252758026123,"228":0.5998945236206055,"229":0.10401605069637299,"230":0.17781826853752136,"231":-0.5023865699768066,"232":-0.22435714304447174,"233":0.986823320388794,"234":-0.2934732735157013,"235":-0.7381466031074524,"236":0.5603809952735901,"237":0.8330186009407043,"238":0.045526523143053055,"239":0.5749914050102234,"240":0.4729410707950592,"241":0.3240666389465332,"242":-0.1865379810333252,"243":0.5359401702880859,"244":-0.3511572778224945,"245":-0.46919819712638855,"246":-0.3160400986671448,"247":-0.250680536031723,"248":-0.2311152219772339,"249":-0.16684995591640472,"250":-0.5899568200111389,"251":0.07018860429525375,"252":0.44585293531417847,"253":-0.2847025692462921,"254":-0.7306423187255859,"255":0.1373520940542221,"256":-0.3285786211490631,"257":0.22132106125354767,"258":-0.21491920948028564,"259":-0.29443660378456116,"260":0.9603652358055115,"261":1.0409237146377563,"262":0.04649583622813225,"263":1.114740014076233,"264":-1.0078109502792358,"265":-1.4451074600219727,"266":-0.7899494767189026,"267":0.060661423951387405,"268":0.6997463703155518,"269":-1.112841248512268,"270":-0.8737704753875732,"271":-1.4127181768417358,"272":0.858719527721405,"273":-1.2120273113250732,"274":-0.6897207498550415,"275":0.6267658472061157,"276":-0.8835676312446594,"277":0.13018923997879028,"278":-0.9009473919868469,"279":-0.12303565442562103,"280":-0.18783490359783173,"281":-0.2573343515396118,"282":0.30010470747947693,"283":-0.2045551836490631,"284":0.24067111313343048,"285":-0.0728406235575676,"286":0.33789288997650146,"287":0.10218307375907898,"288":0.41750410199165344,"289":-0.5215125679969788,"290":0.16724762320518494,"291":-0.3388786017894745,"292":-0.3503577411174774,"293":-0.05004874989390373,"294":0.35676467418670654,"295":0.5168182849884033,"296":0.298872172832489,"297":0.19013573229312897,"298":-0.3295087218284607,"299":0.21536599099636078,"300":0.3940885066986084,"301":-0.4340227544307709,"302":1.4313292503356934,"303":-0.24602898955345154,"304":0.5464054346084595,"305":1.0872347354888916,"306":0.646368682384491,"307":0.7569211721420288,"308":0.7089144587516785,"309":0.4861624240875244,"310":-0.5406929850578308,"311":-1.375009298324585,"312":0.19358386099338531,"313":0.5308648347854614,"314":1.0675276517868042,"315":-1.333483338356018,"316":0.6775078773498535,"317":-1.1241329908370972,"318":0.02367803268134594,"319":1.0153616666793823,"320":-0.026218531653285027,"321":0.5613288283348083,"322":-0.5734497308731079,"323":0.15208150446414948,"324":-0.5566676259040833,"325":-0.3427608013153076,"326":-0.6306521892547607,"327":0.046884410083293915,"328":-0.5992423295974731,"329":-0.17091791331768036,"330":-0.037172213196754456,"331":0.5950080156326294,"332":-0.0035510763991624117,"333":-0.5228063464164734,"334":-0.07415648549795151,"335":0.5997106432914734,"336":-0.6179232001304626,"337":0.02723613753914833,"338":-0.13939937949180603,"339":-0.5635303854942322,"340":-0.9791920781135559,"341":0.33103084564208984,"342":-0.720788300037384,"343":-1.489560604095459,"344":-0.3222957253456116,"345":1.1110941171646118,"346":-0.4853001534938812,"347":0.945643961429596,"348":-0.6362524032592773,"349":1.2721000909805298,"350":0.951714813709259,"351":0.7038463950157166,"352":-1.0243127346038818,"353":0.6391544938087463,"354":1.2200175523757935,"355":-0.24331538379192352,"356":-0.6879258155822754,"357":-0.8841663002967834,"358":0.7429613471031189,"359":-0.7536249756813049,"360":-0.8052646517753601,"361":-0.2483331263065338,"362":0.04190828651189804,"363":-0.5493959188461304,"364":0.3290298581123352,"365":0.6375043392181396,"366":0.25740376114845276,"367":0.4474095404148102,"368":0.13355222344398499,"369":0.07124140113592148,"370":0.844512403011322,"371":-0.1799672693014145,"372":-0.8990628123283386,"373":0.6933228969573975,"374":0.8255453109741211,"375":0.17227014899253845,"376":0.17670413851737976,"377":-0.0918426364660263,"378":0.13281427323818207,"379":0.20938892662525177,"380":0.07288631051778793,"381":0.5077568292617798,"382":-0.43445178866386414,"383":0.01877692900598049,"384":-0.5931419134140015,"385":-0.31569230556488037,"386":-0.6812825202941895,"387":0.07523097097873688,"388":-0.564286470413208,"389":-0.1634228378534317,"390":-0.004594117868691683,"391":0.5615826845169067,"392":0.008495142683386803,"393":-0.7356442213058472,"394":0.06242774426937103,"395":0.5463203191757202,"396":-0.673288106918335,"397":-0.010555685497820377,"398":-0.1535768210887909,"399":-0.5471523404121399}},"cellActivationBias":{"rows":20,"columns":1,"weights":{"0":0.18936575949192047,"1":-0.2953084111213684,"2":0.22484849393367767,"3":0.4154258668422699,"4":0.2809179425239563,"5":-0.6713777780532837,"6":0.2215002179145813,"7":-0.7124686241149902,"8":-0.05036167427897453,"9":-0.13538025319576263,"10":-0.22591443359851837,"11":0.020906498655676842,"12":0.2258179485797882,"13":-0.642139196395874,"14":-0.7294777035713196,"15":0.17249400913715363,"16":0.23573456704616547,"17":1.7012494802474976,"18":0.3109531104564667,"19":0.20020683109760284}}}],"outputConnector":{"rows":1,"columns":20,"weights":{"0":0.7086360454559326,"1":0.01439458504319191,"2":-0.03188871219754219,"3":0.674857497215271,"4":-0.06800839304924011,"5":-0.5687409043312073,"6":-0.030607832595705986,"7":-0.2968016266822815,"8":-0.1846429705619812,"9":-0.4910357594490051,"10":-0.7876205444335938,"11":0.07046791911125183,"12":0.7437176704406738,"13":-1.1539982557296753,"14":-0.6038944125175476,"15":0.24484965205192566,"16":-0.03302309662103653,"17":0.06780029088258743,"18":-0.4827319085597992,"19":-0.04725740849971771}},"output":{"rows":1,"columns":1,"weights":{"0":0.2164975255727768}},"inputLookup":null,"inputLookupLength":null,"outputLookup":null,"outputLookupLength":null}