{"type":"n","options":{"inputSize":1,"hiddenLayers":[20],"outputSize":1,"decayRate":0.999,"smoothEps":1e-8,"regc":0.000001,"clipval":5},"hiddenLayers":[{"inputMatrix":{"rows":20,"columns":1,"weights":{"0":0.21187810599803925,"1":0.15860740840435028,"2":0.31214332580566406,"3":0.3628832697868347,"4":0.42940622568130493,"5":-0.3236280381679535,"6":-0.3509422540664673,"7":0.09526650607585907,"8":0.32674336433410645,"9":0.3383669853210449,"10":-0.4326511323451996,"11":0.28739655017852783,"12":-0.039260637015104294,"13":0.23107045888900757,"14":-0.1018974632024765,"15":0.13132868707180023,"16":0.2894153594970703,"17":0.044041480869054794,"18":-0.26850229501724243,"19":0.29832151532173157}},"inputHidden":{"rows":20,"columns":20,"weights":{"0":0.606704831123352,"1":-0.21677428483963013,"2":-1.460585594177246,"3":-0.3121250569820404,"4":0.2536950409412384,"5":-0.3212786912918091,"6":-0.3808033764362335,"7":0.45828741788864136,"8":-0.2179887443780899,"9":-0.5569271445274353,"10":0.3789365887641907,"11":0.1946207582950592,"12":0.7768677473068237,"13":-0.4583093822002411,"14":1.3396923542022705,"15":-0.41924095153808594,"16":0.43497684597969055,"17":-0.4477884769439697,"18":0.2754454016685486,"19":-0.35770684480667114,"20":0.6291431188583374,"21":0.48990511894226074,"22":-1.275854229927063,"23":0.7515522837638855,"24":-0.46621930599212646,"25":0.2653332054615021,"26":0.3330265283584595,"27":0.3689211308956146,"28":0.6820972561836243,"29":-0.26761338114738464,"30":-0.33164161443710327,"31":-0.9208081364631653,"32":0.5604131817817688,"33":-0.3790745735168457,"34":0.9766462445259094,"35":-0.26908865571022034,"36":0.15964341163635254,"37":-0.06795955449342728,"38":-0.38285431265830994,"39":0.02221783436834812,"40":0.16608911752700806,"41":-0.6534371376037598,"42":-0.32058489322662354,"43":6.363437175750732,"44":0.8163949251174927,"45":-0.9055690169334412,"46":-0.253434956073761,"47":0.25093621015548706,"48":-0.5768852829933167,"49":-2.211510181427002,"50":0.37712499499320984,"51":0.628292441368103,"52":2.471949338912964,"53":0.014921656809747219,"54":25.63716697692871,"55":0.08078136295080185,"56":0.21728169918060303,"57":-2.499880790710449,"58":0.20439007878303528,"59":-0.10320688039064407,"60":0.8494156002998352,"61":0.7670353651046753,"62":-1.224960207939148,"63":0.520158052444458,"64":-0.7594667673110962,"65":0.3029787540435791,"66":0.2994350492954254,"67":0.5465596318244934,"68":0.6749937534332275,"69":-0.48418912291526794,"70":-0.2510128319263458,"71":-0.7103676795959473,"72":0.4062490165233612,"73":-0.6648604869842529,"74":0.9052420258522034,"75":-0.3702560365200043,"76":0.2890912592411041,"77":-0.16016629338264465,"78":-0.35511818528175354,"79":0.026304129511117935,"80":0.5404518842697144,"81":0.88372403383255,"82":-1.350569486618042,"83":0.8995239734649658,"84":-0.5704440474510193,"85":0.267922967672348,"86":0.320059597492218,"87":0.4012810289859772,"88":0.6280912160873413,"89":-0.3060721158981323,"90":-0.3186929523944855,"91":-0.9132771492004395,"92":0.7119965553283691,"93":-0.38545748591423035,"94":1.124894142150879,"95":-0.15527382493019104,"96":0.23913931846618652,"97":-0.13749243319034576,"98":-0.22727900743484497,"99":0.17423932254314423,"100":-0.0567782036960125,"101":0.3573415279388428,"102":-0.1743009090423584,"103":-0.4136841893196106,"104":-0.3906063437461853,"105":0.3565291464328766,"106":0.2457084357738495,"107":-0.17305898666381836,"108":0.28649216890335083,"109":0.07175014168024063,"110":-0.014662143774330616,"111":-0.429728239774704,"112":-0.6069152355194092,"113":0.11929450184106827,"114":-0.30709654092788696,"115":0.27250635623931885,"116":-0.3468865752220154,"117":0.35030585527420044,"118":-0.12562258541584015,"119":0.4178008437156677,"120":-0.27603524923324585,"121":0.2631393074989319,"122":0.03921600431203842,"123":0.3725011646747589,"124":-0.3401867151260376,"125":0.3774237036705017,"126":0.36918115615844727,"127":-0.3284854590892792,"128":0.33472713828086853,"129":0.26350364089012146,"130":-0.3196563124656677,"131":-0.3499079942703247,"132":-0.35831525921821594,"133":0.23354117572307587,"134":-0.30102983117103577,"135":0.2987601161003113,"136":-0.3313441276550293,"137":0.26675012707710266,"138":-0.2511374056339264,"139":0.2665482461452484,"140":-0.18255111575126648,"141":-1.4847582578659058,"142":-0.5383591651916504,"143":0.8046956658363342,"144":1.168777346611023,"145":-0.30286553502082825,"146":-0.3643675148487091,"147":-0.07172507792711258,"148":-0.7662712931632996,"149":-5.468119144439697,"150":0.3848188817501068,"151":1.058785080909729,"152":2.1047439575195312,"153":0.16075919568538666,"154":0.6008560061454773,"155":-0.06718205660581589,"156":-0.0908319354057312,"157":-0.006681682541966438,"158":0.24061372876167297,"159":-0.07224267721176147,"160":0.47649291157722473,"161":0.7185386419296265,"162":-0.9500353932380676,"163":0.401029109954834,"164":-0.7363531589508057,"165":0.366365522146225,"166":0.3639978766441345,"167":0.42536452412605286,"168":0.6094285845756531,"169":-0.4647478759288788,"170":-0.347684383392334,"171":-0.7361885905265808,"172":0.23529642820358276,"173":-0.48939356207847595,"174":0.6845383644104004,"175":-0.309172660112381,"176":0.1804376244544983,"177":-0.18591704964637756,"178":-0.3500822186470032,"179":0.0018707695417106152,"180":0.6540650725364685,"181":-0.15868543088436127,"182":-1.2236988544464111,"183":-0.15306144952774048,"184":0.25111010670661926,"185":-0.3438839912414551,"186":-0.22837157547473907,"187":0.5511388778686523,"188":-0.23915629088878632,"189":-0.48462235927581787,"190":0.3065996468067169,"191":0.09902110695838928,"192":0.8109768629074097,"193":-0.5370942950248718,"194":1.1279346942901611,"195":-0.5030016899108887,"196":0.48408105969429016,"197":-0.4142841100692749,"198":0.23685532808303833,"199":-0.41163989901542664,"200":-0.18194182217121124,"201":0.5204635262489319,"202":0.38971495628356934,"203":0.26437661051750183,"204":-0.5455431938171387,"205":0.28462663292884827,"206":0.25242841243743896,"207":-0.16812217235565186,"208":0.2436470091342926,"209":0.11518365889787674,"210":-0.19959884881973267,"211":-0.4771672785282135,"212":-0.7805288434028625,"213":0.14100675284862518,"214":-0.15471415221691132,"215":0.3441249430179596,"216":-0.43766137957572937,"217":-0.03175038844347,"218":-0.29434406757354736,"219":0.07919463515281677,"220":0.3826836049556732,"221":0.4415804445743561,"222":-1.1566392183303833,"223":0.738131046295166,"224":-0.3721838891506195,"225":0.29687371850013733,"226":0.32359960675239563,"227":0.31059932708740234,"228":0.7213257551193237,"229":-0.2986776828765869,"230":-0.37233468890190125,"231":-0.7047834992408752,"232":0.4902234375476837,"233":-0.2436993569135666,"234":0.7786444425582886,"235":-0.21389080584049225,"236":0.22242863476276398,"237":-0.14425542950630188,"238":-0.2888849675655365,"239":-0.04675481840968132,"240":0.16372622549533844,"241":-0.4604932963848114,"242":-0.2945304214954376,"243":-0.11861202865839005,"244":0.6064789295196533,"245":-0.3881295621395111,"246":-0.22589489817619324,"247":0.15647299587726593,"248":-0.2071847766637802,"249":0.1807975471019745,"250":0.3292166590690613,"251":0.4594612121582031,"252":2.803089141845703,"253":-0.263645201921463,"254":0.194945827126503,"255":-0.48177021741867065,"256":0.45948755741119385,"257":-0.44601520895957947,"258":0.06512239575386047,"259":-0.07748007774353027,"260":0.6584585905075073,"261":-0.25404268503189087,"262":-0.7661043405532837,"263":-0.1359492838382721,"264":0.33589380979537964,"265":-0.35660284757614136,"266":-0.31048545241355896,"267":0.49222415685653687,"268":-0.2503086030483246,"269":-0.5890747308731079,"270":0.33620381355285645,"271":0.3390195071697235,"272":0.725395917892456,"273":-0.5603131651878357,"274":0.9299567341804504,"275":-0.44006654620170593,"276":0.37934887409210205,"277":-0.38834699988365173,"278":0.2877679169178009,"279":-0.3580113649368286,"280":0.9959933757781982,"281":0.1558026820421219,"282":-0.955936074256897,"283":18.71735382080078,"284":-0.05932911857962608,"285":-0.12665078043937683,"286":-0.30239376425743103,"287":0.8554174900054932,"288":0.2867940068244934,"289":-1.4996628761291504,"290":0.08554107695817947,"291":-0.2633901536464691,"292":2.221644878387451,"293":-0.8596457839012146,"294":1.9000335931777954,"295":-0.7150141596794128,"296":0.6516515612602234,"297":-1.7131015062332153,"298":0.22752568125724792,"299":-1.1274687051773071,"300":-0.11264082044363022,"301":-0.46504876017570496,"302":-0.37821921706199646,"303":4.411228656768799,"304":0.7180392742156982,"305":-0.39314860105514526,"306":-0.290483683347702,"307":0.23237206041812897,"308":0.0359790064394474,"309":-1.7204101085662842,"310":0.5929886698722839,"311":0.348002165555954,"312":2.300022602081299,"313":-0.053294867277145386,"314":33.001502990722656,"315":0.050438474863767624,"316":0.35678616166114807,"317":-3.3126728534698486,"318":0.27501580119132996,"319":-0.3561493456363678,"320":0.8045357465744019,"321":-0.15410754084587097,"322":-2.051914930343628,"323":-0.2664898931980133,"324":0.2083306610584259,"325":-0.3814833462238312,"326":-0.33641818165779114,"327":0.5373232364654541,"328":-0.28418511152267456,"329":-0.5609808564186096,"330":0.3036596179008484,"331":0.15234312415122986,"332":0.4701823890209198,"333":-0.6202819347381592,"334":1.544894814491272,"335":-0.4558834135532379,"336":0.4003036320209503,"337":-0.373506635427475,"338":0.36420634388923645,"339":-0.35770153999328613,"340":-1.8514913320541382,"341":-2.214968681335449,"342":0.7681182026863098,"343":14.88266372680664,"344":2.469860792160034,"345":-0.24737347662448883,"346":-0.2612379491329193,"347":-1.6590014696121216,"348":-3.3716800212860107,"349":0.791324257850647,"350":0.15264832973480225,"351":2.16684627532959,"352":9.183098793029785,"353":1.6556124687194824,"354":4.90714693069458,"355":2.8073859214782715,"356":-2.8783373832702637,"357":5.8416266441345215,"358":0.2720228135585785,"359":0.8628667593002319,"360":-0.22994472086429596,"361":0.3406730592250824,"362":0.003961872309446335,"363":0.2544367015361786,"364":-0.2925706207752228,"365":0.3627171516418457,"366":0.20544816553592682,"367":-0.2500993013381958,"368":0.2400871366262436,"369":0.35223597288131714,"370":-0.2541447579860687,"371":-0.26116353273391724,"372":-0.2346743494272232,"373":0.33460551500320435,"374":-0.06948605179786682,"375":0.32345345616340637,"376":-0.3589593172073364,"377":0.2603932321071625,"378":-0.09814074635505676,"379":0.3720070421695709,"380":-0.04052259400486946,"381":-0.5871804356575012,"382":-0.19999434053897858,"383":4.641012191772461,"384":0.685573160648346,"385":-0.40901705622673035,"386":-0.2596580982208252,"387":0.05494018271565437,"388":-0.21393100917339325,"389":-0.578227698802948,"390":0.5097467303276062,"391":0.5326241850852966,"392":2.3363852500915527,"393":0.14494280517101288,"394":43.06098556518555,"395":0.38688960671424866,"396":0.24402612447738647,"397":-2.5106117725372314,"398":0.22598958015441895,"399":-0.0785299614071846}},"inputBias":{"rows":20,"columns":1,"weights":{"0":1.4381357431411743,"1":0.5085015892982483,"2":-0.11260046064853668,"3":0.9294304251670837,"4":0.8120561838150024,"5":-0.28509092330932617,"6":-0.30569925904273987,"7":1.2015380859375,"8":0.7830466032028198,"9":0.6929027438163757,"10":-0.27174612879753113,"11":0.9706082344055176,"12":2.542746067047119,"13":0.9912598729133606,"14":-1.6444355249404907,"15":0.3110434412956238,"16":1.6727943420410156,"17":-2.3302364349365234,"18":-0.17709627747535706,"19":-1.2371456623077393}},"forgetMatrix":{"rows":20,"columns":1,"weights":{"0":0.44222432374954224,"1":-0.03882107138633728,"2":-0.3049006164073944,"3":0.1439075469970703,"4":0.18438386917114258,"5":-0.2918720245361328,"6":-0.31248828768730164,"7":0.1717311292886734,"8":-0.9704573750495911,"9":0.39040693640708923,"10":-0.2355409860610962,"11":0.24821892380714417,"12":0.15684382617473602,"13":0.23737584054470062,"14":0.46771305799484253,"15":-0.29395008087158203,"16":-0.5844517350196838,"17":0.2506413459777832,"18":-0.3218078017234802,"19":0.43047547340393066}},"forgetHidden":{"rows":20,"columns":20,"weights":{"0":0.6026816368103027,"1":-0.11756084114313126,"2":-0.49523723125457764,"3":0.016976915299892426,"4":0.2325044423341751,"5":-0.24685245752334595,"6":-0.13036006689071655,"7":0.627163290977478,"8":-0.25946834683418274,"9":-0.5794559121131897,"10":0.06690888106822968,"11":0.01139748003333807,"12":0.5512793660163879,"13":-0.6308370232582092,"14":0.6281965374946594,"15":-0.4894055426120758,"16":0.41561901569366455,"17":-0.522464394569397,"18":0.02458520419895649,"19":-0.3285532593727112,"20":1.0595401525497437,"21":2.16475772857666,"22":-1.5847655534744263,"23":1.3233596086502075,"24":1.1081606149673462,"25":0.29347309470176697,"26":0.26093363761901855,"27":0.8742156624794006,"28":1.0998731851577759,"29":-0.8848104476928711,"30":-0.2552315294742584,"31":-1.4083373546600342,"32":1.260509967803955,"33":-0.9267786741256714,"34":1.6814526319503784,"35":-0.5867147445678711,"36":0.5538669228553772,"37":-0.6180559396743774,"38":-0.1797461360692978,"39":-0.3651188015937805,"40":-0.4147525727748871,"41":-0.5797638893127441,"42":0.4715580344200134,"43":-0.6654132008552551,"44":0.5684548020362854,"45":-0.18292412161827087,"46":-0.07721596211194992,"47":-0.297800749540329,"48":-0.6878500580787659,"49":0.34727153182029724,"50":-0.01734156906604767,"51":0.451070636510849,"52":-0.8153930902481079,"53":0.3157486617565155,"54":-0.3727709949016571,"55":0.4795428216457367,"56":-0.3434508442878723,"57":0.39139389991760254,"58":0.03766193985939026,"59":0.3548564612865448,"60":0.9034865498542786,"61":1.187972903251648,"62":-1.6823433637619019,"63":1.7632582187652588,"64":-0.2630338668823242,"65":0.2633362114429474,"66":0.3766128718852997,"67":0.7240282893180847,"68":1.0965745449066162,"69":-0.6509051322937012,"70":-0.32770198583602905,"71":-1.2422993183135986,"72":0.9129409193992615,"73":-0.6732035279273987,"74":1.6099361181259155,"75":-0.6618067026138306,"76":0.49334946274757385,"77":-0.5545717477798462,"78":-0.17007936537265778,"79":-0.383746862411499,"80":0.7131137847900391,"81":1.2255438566207886,"82":-1.0216468572616577,"83":1.1224634647369385,"84":-1.272585153579712,"85":0.3302847743034363,"86":0.32409828901290894,"87":0.62718266248703,"88":1.0773078203201294,"89":-0.6199821829795837,"90":-0.2484939694404602,"91":-1.1992385387420654,"92":0.7201586365699768,"93":-0.6931261420249939,"94":1.1066218614578247,"95":-0.5081571340560913,"96":0.4427160322666168,"97":-0.176450714468956,"98":-0.25372016429901123,"99":-0.4015369415283203,"100":-0.2414606511592865,"101":0.26559019088745117,"102":-0.02817242033779621,"103":0.28198322653770447,"104":-0.2152024209499359,"105":0.3468226194381714,"106":0.219412699341774,"107":-0.22301307320594788,"108":0.29938000440597534,"109":0.3503778874874115,"110":-0.19946686923503876,"111":-0.3543660044670105,"112":-0.2209058701992035,"113":0.23533384501934052,"114":-0.050660621374845505,"115":0.23179976642131805,"116":-0.3785081207752228,"117":0.2584494352340698,"118":-0.04827231168746948,"119":0.246414914727211,"120":-0.13429276645183563,"121":0.23394709825515747,"122":0.027140473946928978,"123":0.26062554121017456,"124":-0.27807262539863586,"125":0.3039189875125885,"126":0.16918818652629852,"127":-0.22432687878608704,"128":0.22360555827617645,"129":0.17085391283035278,"130":-0.11257638037204742,"131":-0.2284885048866272,"132":-0.15511997044086456,"133":0.14920355379581451,"134":-0.0845947414636612,"135":0.19948577880859375,"136":-0.3339380919933319,"137":0.2582617700099945,"138":-0.020618170499801636,"139":0.28293800354003906,"140":-0.17414385080337524,"141":-0.5732855796813965,"142":-0.19215090572834015,"143":2.601283073425293,"144":0.7469897270202637,"145":-0.3306225836277008,"146":-0.25999730825424194,"147":0.13536053895950317,"148":-0.29267993569374084,"149":-3.328352928161621,"150":0.3140261471271515,"151":0.6275920271873474,"152":3.151285171508789,"153":0.045075662434101105,"154":5.766353130340576,"155":-0.15750208497047424,"156":0.1649530529975891,"157":-1.0022132396697998,"158":0.1777300238609314,"159":-0.3068709671497345,"160":1.0357705354690552,"161":0.2408595234155655,"162":-2.576871395111084,"163":4.522447109222412,"164":0.1694553941488266,"165":0.2764602601528168,"166":0.32939404249191284,"167":0.9989256858825684,"168":0.7361897230148315,"169":-0.8224458694458008,"170":-0.4375067949295044,"171":-0.2646431028842926,"172":20.59622573852539,"173":-0.930408239364624,"174":5.543912887573242,"175":0.16103589534759521,"176":-0.43584826588630676,"177":1.6560734510421753,"178":-0.3370305001735687,"179":-0.7308410406112671,"180":0.638850748538971,"181":0.02884724549949169,"182":-0.661994457244873,"183":0.015437117777764797,"184":0.10483197867870331,"185":-0.24119043350219727,"186":-0.2717949151992798,"187":0.6444085836410522,"188":-0.08504407852888107,"189":-0.5648152232170105,"190":0.09434513747692108,"191":0.012108786031603813,"192":0.6494895219802856,"193":-0.710442304611206,"194":0.6809021830558777,"195":-0.5838713645935059,"196":0.5140727758407593,"197":-0.5508686304092407,"198":0.09687918424606323,"199":-0.34608718752861023,"200":-0.34316664934158325,"201":0.3738378882408142,"202":0.0450182668864727,"203":0.2499183565378189,"204":-0.3666406571865082,"205":0.38584280014038086,"206":0.3168984055519104,"207":-0.3657228648662567,"208":0.3688379228115082,"209":0.2559587061405182,"210":-0.17449606955051422,"211":-0.32290971279144287,"212":-0.20817594230175018,"213":0.3407987058162689,"214":-0.22246649861335754,"215":0.3563166856765747,"216":-0.33345064520835876,"217":0.23359046876430511,"218":-0.24709026515483856,"219":0.2667636275291443,"220":0.6568673253059387,"221":1.6718618869781494,"222":-0.9701922535896301,"223":1.080757975578308,"224":-0.9957681894302368,"225":0.27091559767723083,"226":0.3339364230632782,"227":0.5119492411613464,"228":1.0410008430480957,"229":-0.5085467100143433,"230":-0.3177452087402344,"231":-1.1462287902832031,"232":0.6155416965484619,"233":-0.5652802586555481,"234":0.943861186504364,"235":-0.41387712955474854,"236":0.397225558757782,"237":-0.29669439792633057,"238":-0.298539400100708,"239":-0.35316431522369385,"240":-0.9206099510192871,"241":-0.6650404334068298,"242":0.12215343117713928,"243":-15.260058403015137,"244":1.0091712474822998,"245":-0.3978024125099182,"246":0.06698112189769745,"247":-1.0141888856887817,"248":-1.1954339742660522,"249":1.1304123401641846,"250":0.0717165544629097,"251":1.0225365161895752,"252":-1.7048295736312866,"253":0.926696240901947,"254":-1.2799094915390015,"255":0.7484235167503357,"256":-0.950463056564331,"257":1.4973725080490112,"258":-0.02597944810986519,"259":0.9326066970825195,"260":-0.11541420966386795,"261":-0.577029824256897,"262":-1.7254904508590698,"263":4.988122940063477,"264":0.6924371123313904,"265":-0.37538301944732666,"266":-0.25124475359916687,"267":0.22035373747348785,"268":-0.25363126397132874,"269":-1.4461793899536133,"270":0.4035002291202545,"271":0.5896663069725037,"272":3.5374958515167236,"273":-0.0685577541589737,"274":19.622905731201172,"275":0.06482253223657608,"276":0.27013739943504333,"277":-2.598689556121826,"278":0.36720868945121765,"279":-0.2740413546562195,"280":-0.952356219291687,"281":-0.9480412602424622,"282":0.8183988332748413,"283":4.49127197265625,"284":0.9975647926330566,"285":0.7472504377365112,"286":-0.054139748215675354,"287":-0.8479347825050354,"288":-0.8819899559020996,"289":0.7146006226539612,"290":-0.03814318776130676,"291":0.9681403636932373,"292":3.0488340854644775,"293":0.9375845789909363,"294":-0.0349876843392849,"295":0.8005746006965637,"296":-0.8315809965133667,"297":0.5502249598503113,"298":-0.07369104027748108,"299":0.8639520406723022,"300":-1.309838891029358,"301":-1.8962414264678955,"302":1.6437559127807617,"303":16.710285186767578,"304":2.089965581893921,"305":-0.2520332932472229,"306":-0.22727927565574646,"307":-1.2850240468978882,"308":-2.9604592323303223,"309":1.3137516975402832,"310":0.17859283089637756,"311":1.8628015518188477,"312":12.789502143859863,"313":1.3295433521270752,"314":4.121042728424072,"315":2.488586902618408,"316":-2.5844833850860596,"317":3.7217462062835693,"318":0.27136093378067017,"319":0.8588007688522339,"320":-0.4375897943973541,"321":-1.1283373832702637,"322":0.16642339527606964,"323":17.67075538635254,"324":1.2850650548934937,"325":-0.37238502502441406,"326":-0.2458215206861496,"327":-0.4269444942474365,"328":-2.9587321281433105,"329":-0.2573879063129425,"330":0.21660321950912476,"331":1.0421462059020996,"332":13.552681922912598,"333":0.48900070786476135,"334":4.164350986480713,"335":2.008875608444214,"336":-2.354269027709961,"337":4.233899116516113,"338":0.24632954597473145,"339":0.05423829331994057,"340":0.26765477657318115,"341":-0.3148038387298584,"342":-0.5947748422622681,"343":6.623599052429199,"344":0.592114269733429,"345":-0.639866828918457,"346":-0.20582620799541473,"347":0.4474963843822479,"348":-0.16601571440696716,"349":-2.2876901626586914,"350":0.4063337743282318,"351":0.3420102298259735,"352":3.9240846633911133,"353":-0.3072514533996582,"354":26.586915969848633,"355":-0.2633870244026184,"356":0.5251669883728027,"357":-2.9304659366607666,"358":0.2480209320783615,"359":-0.37335240840911865,"360":-0.13559845089912415,"361":0.06275727599859238,"362":0.04764474928379059,"363":0.21563203632831573,"364":-0.08862688392400742,"365":0.31894451379776,"366":0.03398754820227623,"367":-0.16718415915966034,"368":0.16196078062057495,"369":0.11200139671564102,"370":0.042818278074264526,"371":-0.16725227236747742,"372":0.023522045463323593,"373":0.0692361444234848,"374":-0.08882651478052139,"375":0.22552350163459778,"376":-0.1499624401330948,"377":0.10261856764554977,"378":-0.1022735983133316,"379":0.22442583739757538,"380":-0.5060257315635681,"381":-0.8650925755500793,"382":0.33566343784332275,"383":21.194425582885742,"384":1.0107767581939697,"385":-0.24019722640514374,"386":-0.2906704545021057,"387":-0.3427554666996002,"388":-0.1546914279460907,"389":-0.7318013906478882,"390":0.26681509613990784,"391":0.8703386783599854,"392":6.43510103225708,"393":0.3648303747177124,"394":1.191749095916748,"395":-0.062371544539928436,"396":0.1418963372707367,"397":-0.49407416582107544,"398":0.1835024207830429,"399":-0.41650357842445374}},"forgetBias":{"rows":20,"columns":1,"weights":{"0":0,"1":0,"2":0,"3":0,"4":0,"5":0,"6":0,"7":0,"8":0,"9":0,"10":0,"11":0,"12":0,"13":0,"14":0,"15":0,"16":0,"17":0,"18":0,"19":0}},"outputMatrix":{"rows":20,"columns":1,"weights":{"0":0.2300109565258026,"1":0.4037167727947235,"2":0.43678170442581177,"3":-0.12918254733085632,"4":0.30869802832603455,"5":-0.4193354547023773,"6":-0.32365623116493225,"7":0.2608259916305542,"8":0.2912684381008148,"9":-0.09763802587985992,"10":-0.28561049699783325,"11":0.29283595085144043,"12":0.35782942175865173,"13":0.295227974653244,"14":0.435683935880661,"15":0.27375075221061707,"16":0.2803138792514801,"17":0.28689372539520264,"18":-0.27348440885543823,"19":0.2993077337741852}},"outputHidden":{"rows":20,"columns":20,"weights":{"0":0.7012460231781006,"1":-0.027051938697695732,"2":-0.6975517272949219,"3":-0.17205703258514404,"4":0.1045314222574234,"5":-0.38531360030174255,"6":-0.38832899928092957,"7":0.6755782961845398,"8":-0.14063964784145355,"9":-0.7553935647010803,"10":0.25393417477607727,"11":-0.14517074823379517,"12":0.5909605026245117,"13":-0.7451520562171936,"14":0.7920583486557007,"15":-0.7399475574493408,"16":0.7230508327484131,"17":-0.6711216568946838,"18":0.3775143027305603,"19":-0.5559827089309692,"20":0.51347416639328,"21":0.7397255301475525,"22":-1.136954665184021,"23":0.8260061144828796,"24":-0.8193904757499695,"25":0.2719930410385132,"26":0.36407068371772766,"27":0.2863641083240509,"28":0.8466670513153076,"29":-0.24409213662147522,"30":-0.23316241800785065,"31":-1.011060357093811,"32":0.5483367443084717,"33":-0.4345182478427887,"34":0.7111016511917114,"35":-0.2259337455034256,"36":0.2937745153903961,"37":-0.12670660018920898,"38":-0.34263646602630615,"39":-0.07470063120126724,"40":0.970766007900238,"41":-0.15004445612430573,"42":-0.8413465619087219,"43":-0.17500634491443634,"44":0.2729208469390869,"45":-0.23715345561504364,"46":-0.20928442478179932,"47":0.8799459934234619,"48":-0.11437506228685379,"49":-0.7392566800117493,"50":0.18969613313674927,"51":-0.01979069411754608,"52":0.8954619765281677,"53":-0.8609674572944641,"54":0.9288544058799744,"55":-0.7184056639671326,"56":0.6861006021499634,"57":-0.6046366691589355,"58":0.12141227722167969,"59":-0.502939760684967,"60":1.2904036045074463,"61":1.8709535598754883,"62":-1.678478479385376,"63":0.7708969712257385,"64":-2.8630263805389404,"65":0.35684648156166077,"66":0.3836187720298767,"67":1.3085952997207642,"68":1.7135484218597412,"69":-0.5761513710021973,"70":-0.293574720621109,"71":-2.8592910766601562,"72":0.8091199994087219,"73":-1.224282145500183,"74":0.6365585923194885,"75":-1.1006333827972412,"76":1.202406644821167,"77":-0.201949343085289,"78":-0.3107750117778778,"79":-0.7412196397781372,"80":0.4850127398967743,"81":0.9601280689239502,"82":-1.147442102432251,"83":0.787371814250946,"84":-0.8985254764556885,"85":0.31077665090560913,"86":0.3920869529247284,"87":0.38184860348701477,"88":0.7459293007850647,"89":-0.268731951713562,"90":-0.34393295645713806,"91":-0.8915445804595947,"92":0.4680101275444031,"93":-0.4103432893753052,"94":0.7522624731063843,"95":-0.22278085350990295,"96":0.30083608627319336,"97":-0.1417340189218521,"98":-0.23364122211933136,"99":-0.18471850454807281,"100":-0.26173198223114014,"101":0.37458640336990356,"102":-0.04549219086766243,"103":-0.4049532115459442,"104":-0.3053097128868103,"105":0.32197535037994385,"106":0.29959040880203247,"107":-0.16695256531238556,"108":0.24810509383678436,"109":0.1867954134941101,"110":-0.20249120891094208,"111":-0.39695101976394653,"112":-0.7283331751823425,"113":0.30481401085853577,"114":-0.4783872961997986,"115":0.4935145974159241,"116":-0.45026201009750366,"117":0.5014851689338684,"118":-0.3042128384113312,"119":0.5252118706703186,"120":-0.24729900062084198,"121":0.23879069089889526,"122":0.08491519093513489,"123":0.37982016801834106,"124":-0.28655150532722473,"125":0.31787779927253723,"126":0.2775176763534546,"127":-0.3501741886138916,"128":0.28619372844696045,"129":0.3627798855304718,"130":-0.25630712509155273,"131":-0.24542205035686493,"132":-0.25436270236968994,"133":0.3433881103992462,"134":-0.19918741285800934,"135":0.38405850529670715,"136":-0.2556595206260681,"137":0.37697505950927734,"138":-0.30785882472991943,"139":0.3528831899166107,"140":0.7686704397201538,"141":0.0038440313655883074,"142":-0.7717944383621216,"143":-0.25252658128738403,"144":0.19947780668735504,"145":-0.3452278971672058,"146":-0.3682529032230377,"147":0.7453409433364868,"148":-0.2107410579919815,"149":-0.839302122592926,"150":0.3294770121574402,"151":0.07208919525146484,"152":0.6398412585258484,"153":-0.8107574582099915,"154":0.7967419624328613,"155":-0.7533631920814514,"156":0.6418405771255493,"157":-0.6510704159736633,"158":0.3101556599140167,"159":-0.4401816725730896,"160":0.42265865206718445,"161":0.857364296913147,"162":-0.800641655921936,"163":0.5228801369667053,"164":-0.7070547342300415,"165":0.37262845039367676,"166":0.3494890332221985,"167":0.38295090198516846,"168":0.6724804043769836,"169":-0.3419056236743927,"170":-0.2527792453765869,"171":-0.8911324143409729,"172":0.37409958243370056,"173":-0.4076831340789795,"174":0.6238899827003479,"175":-0.3313705325126648,"176":0.30894365906715393,"177":-0.28889918327331543,"178":-0.3913613259792328,"179":-0.11585625261068344,"180":0.5952448844909668,"181":-0.3281286954879761,"182":-0.28525668382644653,"183":3.9587597846984863,"184":0.4367446303367615,"185":-0.19582685828208923,"186":-0.31074613332748413,"187":0.6904697418212891,"188":-0.14139732718467712,"189":-1.6627856492996216,"190":0.41882115602493286,"191":0.12194827944040298,"192":2.464893341064453,"193":-0.43545326590538025,"194":13.927933692932129,"195":-0.06902217864990234,"196":0.4808250069618225,"197":-2.106626033782959,"198":0.17323267459869385,"199":-0.23166783154010773,"200":-0.2505708336830139,"201":0.35555991530418396,"202":0.45216649770736694,"203":0.306277334690094,"204":-0.4514929950237274,"205":0.3729294538497925,"206":0.38275718688964844,"207":-0.1622714400291443,"208":0.22021961212158203,"209":0.1739434003829956,"210":-0.29875656962394714,"211":-0.44075506925582886,"212":-0.6786493062973022,"213":0.2220219075679779,"214":-0.19619333744049072,"215":0.3069097399711609,"216":-0.3813510835170746,"217":-0.05724387243390083,"218":-0.36143654584884644,"219":0.2089482545852661,"220":0.6694187521934509,"221":0.7414226531982422,"222":-1.2797949314117432,"223":0.9860655069351196,"224":-0.7269549369812012,"225":0.31933489441871643,"226":0.27401968836784363,"227":0.49282538890838623,"228":0.7889852523803711,"229":-0.483562171459198,"230":-0.3208959996700287,"231":-0.9657242894172668,"232":0.5381275415420532,"233":-0.560004711151123,"234":0.9517005085945129,"235":-0.381052166223526,"236":0.28247395157814026,"237":-0.15571939945220947,"238":-0.37839949131011963,"239":-0.02350442484021187,"240":0.3128603398799896,"241":-0.6999896168708801,"242":-0.3380708694458008,"243":-0.25743424892425537,"244":0.7401109337806702,"245":-0.3398166596889496,"246":-0.2703675925731659,"247":0.17480190098285675,"248":-0.9006375074386597,"249":-0.36500340700149536,"250":0.08650647848844528,"251":0.6890979409217834,"252":0.5667905211448669,"253":-0.30858394503593445,"254":3.2030513286590576,"255":-1.0622522830963135,"256":0.3554888665676117,"257":0.40215158462524414,"258":0.11559005826711655,"259":-0.557147741317749,"260":0.9831868410110474,"261":-0.09129267185926437,"262":-1.109170913696289,"263":-0.1824670284986496,"264":0.10927088558673859,"265":-0.27547165751457214,"266":-0.27997809648513794,"267":0.7511027455329895,"268":-0.22918035089969635,"269":-0.829600989818573,"270":0.2897266447544098,"271":0.11315854638814926,"272":0.745414674282074,"273":-0.8358718752861023,"274":1.156477689743042,"275":-0.644501805305481,"276":0.6371451020240784,"277":-0.5850527882575989,"278":0.3070594370365143,"279":-0.46615734696388245,"280":0.9751360416412354,"281":-0.17442750930786133,"282":-0.9756942391395569,"283":-0.11569462716579437,"284":0.16986776888370514,"285":-0.29615288972854614,"286":-0.2815961241722107,"287":0.7799109816551208,"288":-0.18399079144001007,"289":-0.7013460397720337,"290":0.24203871190547943,"291":0.11941059678792953,"292":0.9709309339523315,"293":-0.8735024333000183,"294":1.058968186378479,"295":-0.613674521446228,"296":0.676151692867279,"297":-0.5328068733215332,"298":0.18856167793273926,"299":-0.3936586380004883,"300":0.9364023208618164,"301":-0.05500292032957077,"302":-0.8236614465713501,"303":-0.20539672672748566,"304":-0.019108107313513756,"305":-0.34884268045425415,"306":-0.39013248682022095,"307":0.8373585939407349,"308":-0.2213868945837021,"309":-0.8304993510246277,"310":0.38831955194473267,"311":0.036285124719142914,"312":0.6139934659004211,"313":-0.8215553760528564,"314":0.8850237131118774,"315":-0.7498650550842285,"316":0.6712369322776794,"317":-0.690855085849762,"318":0.2682541012763977,"319":-0.4988809823989868,"320":0.9267220497131348,"321":-0.11631899327039719,"322":-0.9500992894172668,"323":-0.19038023054599762,"324":0.03268015757203102,"325":-0.30735719203948975,"326":-0.3195221424102783,"327":0.8473045825958252,"328":-0.2656469941139221,"329":-0.7314678430557251,"330":0.24653923511505127,"331":0.04430651292204857,"332":0.6850992441177368,"333":-0.8195847868919373,"334":0.9205664396286011,"335":-0.7175420522689819,"336":0.6747806668281555,"337":-0.7055525183677673,"338":0.3099820613861084,"339":-0.4876032769680023,"340":1.1514105796813965,"341":-0.060598891228437424,"342":-1.2075283527374268,"343":-0.15320749580860138,"344":0.12202708423137665,"345":-0.2735864818096161,"346":-0.24960798025131226,"347":0.832226037979126,"348":-0.14813783764839172,"349":-0.7852091789245605,"350":0.24644090235233307,"351":-0.007197727914899588,"352":0.859468400478363,"353":-0.8081637024879456,"354":1.140728235244751,"355":-0.6264504790306091,"356":0.6435617208480835,"357":-0.5965058207511902,"358":0.31720802187919617,"359":-0.49482738971710205,"360":-0.2661101222038269,"361":0.2790137827396393,"362":0.20808100700378418,"363":0.39055323600769043,"364":-0.27706286311149597,"365":0.2594030201435089,"366":0.264498233795166,"367":-0.34115323424339294,"368":0.23774230480194092,"369":0.29981139302253723,"370":-0.3770272433757782,"371":-0.31251195073127747,"372":-0.2548843026161194,"373":0.295149564743042,"374":-0.35579222440719604,"375":0.27335262298583984,"376":-0.26307034492492676,"377":0.3888987898826599,"378":-0.3282843232154846,"379":0.37073078751564026,"380":1.0025099515914917,"381":-0.14532236754894257,"382":-2.2501306533813477,"383":-0.32725900411605835,"384":0.08562992513179779,"385":-0.3424697816371918,"386":-0.34323638677597046,"387":0.6313220262527466,"388":-0.21710710227489471,"389":-0.7030417919158936,"390":0.33685392141342163,"391":0.14245451986789703,"392":0.7051582932472229,"393":-0.6740366816520691,"394":1.8732367753982544,"395":-0.48584437370300293,"396":0.5490248799324036,"397":-0.5030396580696106,"398":0.34658917784690857,"399":-0.3606884181499481}},"outputBias":{"rows":20,"columns":1,"weights":{"0":0.9664514064788818,"1":0.8373041152954102,"2":0.5977288484573364,"3":0.17863938212394714,"4":0.6688887476921082,"5":-0.3108108639717102,"6":-0.29692333936691284,"7":1.0606038570404053,"8":1.0184557437896729,"9":-1.7774617671966553,"10":-0.3177691400051117,"11":1.27272629737854,"12":1.7798992395401,"13":1.5109249353408813,"14":0.6959964632987976,"15":1.4888672828674316,"16":1.2835100889205933,"17":1.0345535278320312,"18":-0.3095260262489319,"19":1.8321442604064941}},"cellActivationMatrix":{"rows":20,"columns":1,"weights":{"0":0.3791506886482239,"1":-0.03869624063372612,"2":-0.30489683151245117,"3":0.1264021098613739,"4":-0.1700553148984909,"5":0.24090875685214996,"6":0.24975436925888062,"7":0.15587829053401947,"8":0.13611197471618652,"9":-0.3487537205219269,"10":0.0004380704485811293,"11":-0.15455856919288635,"12":0.23744671046733856,"13":-0.2883712649345398,"14":0.3386346697807312,"15":-0.35372230410575867,"16":0.19444392621517181,"17":0.07734256237745285,"18":-0.061229899525642395,"19":-0.3812585771083832}},"cellActivationHidden":{"rows":20,"columns":20,"weights":{"0":0.22238843142986298,"1":-0.22909075021743774,"2":-0.05885864421725273,"3":-0.37513017654418945,"4":0.24244354665279388,"5":-0.2354874163866043,"6":-0.31302377581596375,"7":0.29941678047180176,"8":-0.3500901460647583,"9":-0.30331823229789734,"10":0.2029331475496292,"11":0.35960713028907776,"12":0.25020089745521545,"13":-0.330638587474823,"14":0.11399330943822861,"15":-0.2775416970252991,"16":0.25078099966049194,"17":-0.30972394347190857,"18":0.16732777655124664,"19":-0.371770977973938,"20":0.7658419013023376,"21":-0.6258968710899353,"22":-1.0295456647872925,"23":0.09664570540189743,"24":0.03753899037837982,"25":-0.2970254421234131,"26":-0.3177308440208435,"27":0.722173810005188,"28":0.02858227863907814,"29":-0.7234278321266174,"30":0.3866783678531647,"31":-0.004688311368227005,"32":0.6901569366455078,"33":-0.6708869338035583,"34":1.046578049659729,"35":-0.6221427321434021,"36":0.6675233244895935,"37":-0.10418015718460083,"38":0.38124939799308777,"39":-0.6712085604667664,"40":-0.24651262164115906,"41":0.2912690341472626,"42":0.21590575575828552,"43":0.3509390354156494,"44":-0.2939806878566742,"45":0.2850947678089142,"46":0.36757606267929077,"47":-0.4096834659576416,"48":0.2872573733329773,"49":0.32611507177352905,"50":-0.26310262084007263,"51":-0.3642467260360718,"52":-0.3171102702617645,"53":0.36219656467437744,"54":-0.2878640294075012,"55":0.3934456706047058,"56":-0.36254042387008667,"57":0.26414158940315247,"58":-0.23705916106700897,"59":0.38090741634368896,"60":-0.1745603084564209,"61":-0.6165879368782043,"62":0.3418985605239868,"63":1.3121848106384277,"64":0.5803496837615967,"65":-0.22330933809280396,"66":-0.2575783133506775,"67":-0.05268827825784683,"68":-0.43879422545433044,"69":-0.06406296044588089,"70":1.2133748531341553,"71":0.6341639757156372,"72":8.69417667388916,"73":-0.01127526443451643,"74":-0.2764144837856293,"75":-0.13750985264778137,"76":0.22331614792346954,"77":-0.5395113825798035,"78":0.3029559254646301,"79":-0.24950498342514038,"80":-0.5745372772216797,"81":0.23975834250450134,"82":0.8423709869384766,"83":0.29204243421554565,"84":-0.25600123405456543,"85":0.3435382843017578,"86":0.2634503245353699,"87":-0.49756962060928345,"88":0.21972733736038208,"89":0.38190022110939026,"90":-0.3587101995944977,"91":-0.1897718757390976,"92":-0.4353998005390167,"93":0.5006506443023682,"94":-0.7765087485313416,"95":0.29446133971214294,"96":-0.37064018845558167,"97":0.2932811379432678,"98":-0.33643418550491333,"99":0.2522904872894287,"100":0.13445737957954407,"101":-0.22934842109680176,"102":-0.07906369864940643,"103":-0.28962770104408264,"104":0.21009975671768188,"105":-0.33338481187820435,"106":-0.07142273336648941,"107":0.12038549780845642,"108":-0.2260289192199707,"109":-0.1608940064907074,"110":0.04783572629094124,"111":0.12718632817268372,"112":0.017830142751336098,"113":-0.09146513789892197,"114":-0.04474936053156853,"115":-0.2867186665534973,"116":0.29282137751579285,"117":-0.20089834928512573,"118":-0.002221018774434924,"119":-0.26858970522880554,"120":0.16498276591300964,"121":-0.22637589275836945,"122":-0.03368924558162689,"123":-0.266632616519928,"124":0.1789037138223648,"125":-0.3164885640144348,"126":-0.23497240245342255,"127":0.30343034863471985,"128":-0.24360746145248413,"129":-0.20708797872066498,"130":0.06453973054885864,"131":0.219665989279747,"132":0.1966298520565033,"133":-0.30475807189941406,"134":0.1131080836057663,"135":-0.2327578365802765,"136":0.33986279368400574,"137":-0.2565036416053772,"138":0.11337614804506302,"139":-0.2991925776004791,"140":0.306348979473114,"141":-0.26928117871284485,"142":-0.7507978081703186,"143":-0.36319151520729065,"144":0.2571246922016144,"145":-0.33845993876457214,"146":-0.3271823823451996,"147":0.42732569575309753,"148":-0.304330050945282,"149":-0.3630485534667969,"150":0.38070428371429443,"151":0.3321317732334137,"152":0.3618796467781067,"153":-0.40028122067451477,"154":0.6922048926353455,"155":-0.24568983912467957,"156":0.35518303513526917,"157":-0.2925369441509247,"158":0.2815834581851959,"159":-0.31277987360954285,"160":0.4996733069419861,"161":-0.270501971244812,"162":-0.9431433081626892,"163":-0.278196781873703,"164":0.24615882337093353,"165":-0.33594977855682373,"166":-0.38245120644569397,"167":0.4712717533111572,"168":-0.2702285051345825,"169":-0.41807934641838074,"170":0.36092936992645264,"171":0.17648828029632568,"172":0.15929904580116272,"173":-0.3982734978199005,"174":0.6804712414741516,"175":-0.2841429114341736,"176":0.34898659586906433,"177":-0.35879406332969666,"178":0.33215364813804626,"179":-0.40257102251052856,"180":-0.31065478920936584,"181":0.3661341071128845,"182":0.03221949189901352,"183":0.3574543297290802,"184":-0.35618874430656433,"185":0.3317713737487793,"186":0.2979552149772644,"187":-0.3754364550113678,"188":0.3212990164756775,"189":0.3099808096885681,"190":-0.24155031144618988,"191":-0.2973423898220062,"192":-0.25343167781829834,"193":0.23313802480697632,"194":-0.09567470848560333,"195":0.33009546995162964,"196":-0.2992969751358032,"197":0.2848818004131317,"198":-0.16626890003681183,"199":0.36741796135902405,"200":-0.38040781021118164,"201":0.2863917350769043,"202":0.2275644987821579,"203":0.26389357447624207,"204":-0.24425935745239258,"205":0.03698209300637245,"206":0.32519930601119995,"207":-0.2525368630886078,"208":0.1658574491739273,"209":0.30956849455833435,"210":-0.24711373448371887,"211":-0.37804803252220154,"212":-0.19735880196094513,"213":0.2836090326309204,"214":-0.4895380139350891,"215":0.37895891070365906,"216":-0.19122815132141113,"217":0.32190385460853577,"218":-0.3290007710456848,"219":0.1211433857679367,"220":-0.45672252774238586,"221":0.22456783056259155,"222":0.8921701312065125,"223":0.3331030607223511,"224":-0.2730013132095337,"225":0.3653339445590973,"226":0.2441333383321762,"227":-0.4707891643047333,"228":0.3601078987121582,"229":0.3813001811504364,"230":-0.34015092253685,"231":-0.20155222713947296,"232":-0.37385547161102295,"233":0.3403300344944,"234":-0.7327134013175964,"235":0.2784923315048218,"236":-0.3542419970035553,"237":0.28240489959716797,"238":-0.3600853979587555,"239":0.38138729333877563,"240":-0.6543257236480713,"241":-0.9854199290275574,"242":1.3356565237045288,"243":-0.8136124014854431,"244":1.0982494354248047,"245":0.14476358890533447,"246":-0.2994948625564575,"247":-0.5632122755050659,"248":-0.8919646739959717,"249":0.47040367126464844,"250":-0.34660205245018005,"251":1.0902637243270874,"252":1.8014299869537354,"253":0.432092547416687,"254":-1.052676796913147,"255":0.4638134241104126,"256":-0.464083731174469,"257":0.6181619167327881,"258":0.1675417274236679,"259":0.25420230627059937,"260":-0.13055646419525146,"261":0.4152137339115143,"262":0.6157336235046387,"263":0.31971967220306396,"264":-0.45545047521591187,"265":0.35278668999671936,"266":0.391971230506897,"267":-0.2355482280254364,"268":0.18189211189746857,"269":0.7091350555419922,"270":-0.24083365499973297,"271":-0.3113532066345215,"272":-0.5296257734298706,"273":0.22815251350402832,"274":-0.7086775898933411,"275":0.3317537009716034,"276":-0.4609484076499939,"277":0.5456358194351196,"278":-0.2472505271434784,"279":0.41717344522476196,"280":0.1987782120704651,"281":-0.2791028916835785,"282":-0.07138790190219879,"283":-0.28858470916748047,"284":0.2380940318107605,"285":-0.32158362865448,"286":-0.19874130189418793,"287":0.2837850749492645,"288":-0.3691944181919098,"289":-0.33745041489601135,"290":0.13869306445121765,"291":0.3709299862384796,"292":0.161857008934021,"293":-0.1967657208442688,"294":0.07070557028055191,"295":-0.26159796118736267,"296":0.2733517587184906,"297":-0.3308817148208618,"298":0.1599394679069519,"299":-0.30605602264404297,"300":-0.326028048992157,"301":0.2805255055427551,"302":0.1913730651140213,"303":0.3038615584373474,"304":-0.3184027671813965,"305":0.27280393242836,"306":0.385175883769989,"307":-0.31044965982437134,"308":0.2789217233657837,"309":0.29721587896347046,"310":-0.36607369780540466,"311":-0.25350886583328247,"312":-0.2717551290988922,"313":0.30152201652526855,"314":-0.30224478244781494,"315":0.2863515615463257,"316":-0.3565557897090912,"317":0.3693848252296448,"318":-0.2553069293498993,"319":0.26032888889312744,"320":0.4943011403083801,"321":-0.23997344076633453,"322":-0.8083861470222473,"323":-0.39325007796287537,"324":0.2174779772758484,"325":-0.3189493715763092,"326":-0.28305312991142273,"327":0.4706670045852661,"328":-0.29281485080718994,"329":-0.3968740403652191,"330":0.3528452515602112,"331":0.25799068808555603,"332":0.2767731547355652,"333":-0.3835811913013458,"334":0.7261979579925537,"335":-0.4131847023963928,"336":0.30430224537849426,"337":-0.3876241445541382,"338":0.2996985614299774,"339":-0.3711138069629669,"340":-0.9081106781959534,"341":-0.1517258882522583,"342":1.2540719509124756,"343":-0.12922541797161102,"344":0.16020983457565308,"345":0.34189391136169434,"346":0.2898547649383545,"347":-0.8517240881919861,"348":-0.2713048756122589,"349":0.6981788873672485,"350":-0.32920709252357483,"351":0.2059321105480194,"352":-1.1011306047439575,"353":0.8981502652168274,"354":-1.162583351135254,"355":0.8850210905075073,"356":-0.8271608352661133,"357":0.4244072735309601,"358":-0.3879554867744446,"359":0.7648505568504333,"360":-0.3138238787651062,"361":0.35262927412986755,"362":0.30117183923721313,"363":0.25739574432373047,"364":-0.3435966670513153,"365":0.25523826479911804,"366":0.28897055983543396,"367":-0.3681895434856415,"368":0.24771040678024292,"369":0.2602308690547943,"370":-0.3124088943004608,"371":-0.2936774790287018,"372":-0.31153804063796997,"373":0.26138487458229065,"374":-0.2900333106517792,"375":0.28301259875297546,"376":-0.35589611530303955,"377":0.29846295714378357,"378":-0.2364671379327774,"379":0.34666523337364197,"380":-0.31375280022621155,"381":0.28645116090774536,"382":0.08256351202726364,"383":0.34375470876693726,"384":-0.22815653681755066,"385":0.32864251732826233,"386":0.3453713655471802,"387":-0.24398016929626465,"388":0.3308287560939789,"389":0.30709388852119446,"390":-0.3042294383049011,"391":-0.24081914126873016,"392":-0.27604833245277405,"393":0.2572104334831238,"394":-0.24310509860515594,"395":0.3649043142795563,"396":-0.2757859230041504,"397":0.38018855452537537,"398":-0.16771924495697021,"399":0.3587442934513092}},"cellActivationBias":{"rows":20,"columns":1,"weights":{"0":0.12927648425102234,"1":0.5873522758483887,"2":-0.28590095043182373,"3":0.18040584027767181,"4":-0.9102783799171448,"5":0.1370237171649933,"6":0.04058130085468292,"7":0.6485937833786011,"8":1.5978857278823853,"9":-0.25110262632369995,"10":-0.28905004262924194,"11":-1.2974802255630493,"12":0.09475646167993546,"13":-0.9581049680709839,"14":0.15840113162994385,"15":-0.23652303218841553,"16":0.5427455902099609,"17":-0.3508090376853943,"18":-0.3124140202999115,"19":-0.3011093735694885}}}],"outputConnector":{"rows":1,"columns":20,"weights":{"0":0.17211806774139404,"1":0.1398325264453888,"2":-1.132910132408142,"3":-0.7759981155395508,"4":-0.040281858295202255,"5":0.01447990257292986,"6":-0.06698107719421387,"7":0.19559378921985626,"8":2.676164150238037,"9":0.1104215756058693,"10":-0.0639369860291481,"11":-0.1276911199092865,"12":5.022976398468018,"13":-0.22315679490566254,"14":3.3910155296325684,"15":-1.99125337600708,"16":1.5120790004730225,"17":-1.5735499858856201,"18":0.17239607870578766,"19":-1.6862406730651855}},"output":{"rows":1,"columns":1,"weights":{"0":17.036026000976562}},"inputLookup":null,"inputLookupLength":null,"outputLookup":null,"outputLookupLength":null}