{"type":"n","options":{"inputSize":1,"hiddenLayers":[20],"outputSize":1,"decayRate":0.999,"smoothEps":1e-8,"regc":0.000001,"clipval":5},"hiddenLayers":[{"inputMatrix":{"rows":20,"columns":1,"weights":{"0":-0.04510237276554108,"1":0.11880847811698914,"2":0.35086992383003235,"3":-0.2618027925491333,"4":-0.3524450659751892,"5":-0.4114123582839966,"6":-0.3229290544986725,"7":0.23197315633296967,"8":-0.05918371304869652,"9":-0.3018229901790619,"10":0.3604542315006256,"11":-0.332055002450943,"12":0.2711792290210724,"13":-0.05720307677984238,"14":0.1476806104183197,"15":0.17071300745010376,"16":-0.026783926412463188,"17":-0.22475029528141022,"18":-0.06971549987792969,"19":-0.31473487615585327}},"inputHidden":{"rows":20,"columns":20,"weights":{"0":-10.472382545471191,"1":-0.5775215029716492,"2":-6.81358003616333,"3":0.18439950048923492,"4":0.22595782577991486,"5":0.46776536107063293,"6":0.09251728653907776,"7":0.6692550778388977,"8":-7.306756496429443,"9":-0.3339081108570099,"10":1.1314165592193604,"11":0.013632345013320446,"12":-5.015617847442627,"13":1.446640133857727,"14":-7.231180191040039,"15":-2.2775871753692627,"16":-25.211318969726562,"17":-0.23052407801151276,"18":6.41050910949707,"19":-0.34421539306640625,"20":-0.9348301887512207,"21":-0.577851414680481,"22":-0.21995924413204193,"23":0.020926469936966896,"24":0.2854231297969818,"25":0.3806217610836029,"26":0.02814680151641369,"27":0.8392375707626343,"28":-0.6044520139694214,"29":-0.2743251919746399,"30":0.26968491077423096,"31":0.05864855647087097,"32":-0.6941405534744263,"33":0.8037495613098145,"34":-0.6217350959777832,"35":-0.8727967739105225,"36":-0.21666410565376282,"37":-0.23649320006370544,"38":0.811486005783081,"39":-0.15931187570095062,"40":0.10498160123825073,"41":0.04159899055957794,"42":-0.13810032606124878,"43":-0.033837344497442245,"44":0.18343117833137512,"45":0.07101067900657654,"46":0.07149592787027359,"47":-0.09066390991210938,"48":0.021522315219044685,"49":-0.1233772486448288,"50":0.0596032440662384,"51":-0.07128727436065674,"52":0.05224855616688728,"53":-0.01942327432334423,"54":0.031957074999809265,"55":0.04683797433972359,"56":-0.12713010609149933,"57":0.17054548859596252,"58":-0.10249864310026169,"59":-0.05508290231227875,"60":-0.06391583383083344,"61":0.07216869294643402,"62":0.13916480541229248,"63":-0.06493359804153442,"64":-0.17118163406848907,"65":-0.11443254351615906,"66":0.0019387450302019715,"67":0.2093563675880432,"68":-0.038839951157569885,"69":0.1198832094669342,"70":-0.013598358258605003,"71":-0.013438696973025799,"72":0.02498592808842659,"73":-0.011291250586509705,"74":-0.05003814026713371,"75":-0.08240699768066406,"76":0.16073083877563477,"77":-0.09119345247745514,"78":0.1769721359014511,"79":0.03885675221681595,"80":0.16048330068588257,"81":-0.18558959662914276,"82":-0.2998383939266205,"83":0.052069444209337234,"84":0.3666474521160126,"85":0.36345991492271423,"86":0.05727234482765198,"87":-0.3355727791786194,"88":-1.323789119720459,"89":-0.30311742424964905,"90":-0.3180229961872101,"91":-0.06895432621240616,"92":-1.5920507907867432,"93":1.614862084388733,"94":-1.3049941062927246,"95":0.24257905781269073,"96":-0.26491984724998474,"97":0.3193018138408661,"98":-0.2925145924091339,"99":0.14997558295726776,"100":0.2058483511209488,"101":-0.3307792544364929,"102":-0.33023005723953247,"103":-0.0474771186709404,"104":0.34243497252464294,"105":0.45488497614860535,"106":0.034635696560144424,"107":-0.2829272150993347,"108":-1.327201008796692,"109":-0.41252586245536804,"110":-0.21434132754802704,"111":-0.011311794631183147,"112":-1.205031394958496,"113":1.2932504415512085,"114":-1.881004810333252,"115":0.16474312543869019,"116":-0.2844204306602478,"117":0.2600475251674652,"118":-0.3026500344276428,"119":0.25955358147621155,"120":-0.10764672607183456,"121":0.012662024237215519,"122":0.18966896831989288,"123":-0.07004383206367493,"124":-0.2940780222415924,"125":-0.06684108823537827,"126":0.02465161867439747,"127":0.22201527655124664,"128":0.0742201879620552,"129":0.11227041482925415,"130":0.013121064752340317,"131":0.05994772911071777,"132":0.06473653018474579,"133":0.06911357492208481,"134":0.015556039288640022,"135":-0.14549121260643005,"136":0.20112629234790802,"137":-0.24863827228546143,"138":0.1438896358013153,"139":-0.0320403054356575,"140":-0.35571083426475525,"141":0.011883730068802834,"142":-0.1332324892282486,"143":0.035323988646268845,"144":0.08173847198486328,"145":0.179965540766716,"146":-0.022844303399324417,"147":0.09515445679426193,"148":-0.3273310363292694,"149":-0.26098886132240295,"150":-0.03573984280228615,"151":-0.017902961000800133,"152":-0.23041898012161255,"153":0.2852199971675873,"154":-0.3290311098098755,"155":-0.3217366337776184,"156":-0.18055464327335358,"157":-0.12265613675117493,"158":0.32446980476379395,"159":-0.034519243985414505,"160":-0.7800084948539734,"161":0.001730589778162539,"162":-3.414862871170044,"163":-0.05255302041769028,"164":0.4199689030647278,"165":0.4726065397262573,"166":-0.018469450995326042,"167":-3.240664005279541,"168":-12.931299209594727,"169":-0.43415188789367676,"170":-0.1959393322467804,"171":-0.001120211323723197,"172":-1.3396550416946411,"173":-1.2617782354354858,"174":-4.475782871246338,"175":0.4958115220069885,"176":-24.272756576538086,"177":0.26346975564956665,"178":5.255023002624512,"179":0.018509481102228165,"180":0.48009100556373596,"181":-0.5679565072059631,"182":-0.0044154818169772625,"183":-0.14960506558418274,"184":0.3322557210922241,"185":0.42515748739242554,"186":0.027256524190306664,"187":-0.619908332824707,"188":-0.8701349496841431,"189":-0.4101625382900238,"190":-0.2539409399032593,"191":0.05670815333724022,"192":-1.0443702936172485,"193":0.6744577884674072,"194":-1.7019248008728027,"195":0.1496172398328781,"196":0.03323174640536308,"197":0.2334170639514923,"198":-0.5091078281402588,"199":0.2570376694202423,"200":-0.3727028965950012,"201":0.215711772441864,"202":0.31146785616874695,"203":0.12297184020280838,"204":-0.23650792241096497,"205":-0.22603067755699158,"206":0.05905657634139061,"207":0.3232731223106384,"208":0.26442432403564453,"209":0.29517045617103577,"210":0.30490297079086304,"211":-0.060916051268577576,"212":0.004201636649668217,"213":0.06388954073190689,"214":0.212044358253479,"215":-0.27716201543807983,"216":0.2314777672290802,"217":-0.252739280462265,"218":0.29159316420555115,"219":-0.23523029685020447,"220":0.011091678403317928,"221":-0.05946262180805206,"222":-0.007712382823228836,"223":0.04961025342345238,"224":-0.09633411467075348,"225":0.03350841999053955,"226":-0.014569234102964401,"227":0.005032528657466173,"228":0.015605857595801353,"229":0.029087170958518982,"230":0.05642683431506157,"231":-0.048738665878772736,"232":0.023254945874214172,"233":-0.0644899308681488,"234":0.040365736931562424,"235":-0.047993216663599014,"236":0.05431358516216278,"237":0.01321481168270111,"238":0.054820213466882706,"239":-0.03556005656719208,"240":0.2930368185043335,"241":-0.04781781882047653,"242":-0.32348930835723877,"243":-0.025586213916540146,"244":0.34699538350105286,"245":0.2244555801153183,"246":0.06380549818277359,"247":-0.33891385793685913,"248":0.022120019420981407,"249":-0.20242492854595184,"250":-0.0017877790378406644,"251":0.044673264026641846,"252":-0.02651011385023594,"253":0.050787247717380524,"254":0.026870939880609512,"255":0.2499261498451233,"256":-0.3174215853214264,"257":0.32988476753234863,"258":-0.22263510525226593,"259":0.02911677211523056,"260":-0.8476765155792236,"261":-0.01801050268113613,"262":0.3568873107433319,"263":-0.07119261473417282,"264":0.08469615876674652,"265":0.08160492032766342,"266":0.06389057636260986,"267":0.8338721394538879,"268":0.24444733560085297,"269":-0.0794316977262497,"270":-0.47796911001205444,"271":0.04455214738845825,"272":1.2262821197509766,"273":0.5562179088592529,"274":0.47542282938957214,"275":0.03558441251516342,"276":0.6801639795303345,"277":0.0014495463110506535,"278":-0.1550883650779724,"279":-0.06171609088778496,"280":-0.85869961977005,"281":-0.14366140961647034,"282":-0.624290406703949,"283":-0.00532388873398304,"284":0.5873808860778809,"285":0.6550829410552979,"286":-0.006831637583673,"287":-0.31107068061828613,"288":-0.6132575869560242,"289":-0.6235345602035522,"290":-0.3264325261116028,"291":0.04268196225166321,"292":-0.2572181224822998,"293":0.3505760729312897,"294":-0.7122854590415955,"295":-1.0978118181228638,"296":-0.6214080452919006,"297":0.28667953610420227,"298":0.7562124133110046,"299":0.16725146770477295,"300":-0.9978019595146179,"301":-0.07205083221197128,"302":0.10549429804086685,"303":0.1675669550895691,"304":0.24951627850532532,"305":0.36848440766334534,"306":0.007052408065646887,"307":-0.026529276743531227,"308":-0.9174434542655945,"309":-0.3186470866203308,"310":0.07166522741317749,"311":0.07153375446796417,"312":-0.9922424554824829,"313":1.1280419826507568,"314":-0.40727466344833374,"315":-0.6460338234901428,"316":-0.5288988351821899,"317":-0.31816020607948303,"318":0.3738250732421875,"319":-0.21527667343616486,"320":-4.2404866218566895,"321":-0.6083465218544006,"322":-0.7365607619285583,"323":-0.12629804015159607,"324":-0.016899701207876205,"325":1.1987011432647705,"326":-0.04427531734108925,"327":-4.277113437652588,"328":-6.23018217086792,"329":-0.0636390969157219,"330":-0.21459469199180603,"331":-0.05024082213640213,"332":-0.7057417631149292,"333":-0.1914076954126358,"334":-2.187201738357544,"335":0.8266685009002686,"336":-14.128106117248535,"337":0.2799551486968994,"338":1.9034925699234009,"339":0.2939368486404419,"340":-0.27209216356277466,"341":-0.05794723331928253,"342":0.26468712091445923,"343":-0.04250272363424301,"344":-0.31673625111579895,"345":-0.14605464041233063,"346":-0.04087741672992706,"347":0.31686171889305115,"348":0.018052877858281136,"349":0.16061805188655853,"350":0.05089551955461502,"351":-0.02327173948287964,"352":0.028542472049593925,"353":-0.05550525337457657,"354":0.04140644520521164,"355":-0.13391031324863434,"356":0.26938992738723755,"357":-0.22579342126846313,"358":0.18169686198234558,"359":0.021607017144560814,"360":-1.1398541927337646,"361":-0.17158515751361847,"362":-3.5210280418395996,"363":0.15945754945278168,"364":0.170732781291008,"365":0.2885799705982208,"366":0.07968805730342865,"367":-3.5350735187530518,"368":-7.406733989715576,"369":-0.30722782015800476,"370":-0.3895959258079529,"371":-0.005085373762995005,"372":-1.2990847826004028,"373":0.05843357741832733,"374":-4.050263404846191,"375":-0.35842159390449524,"376":-21.16414451599121,"377":-0.2658478617668152,"378":9.606334686279297,"379":-0.20721924304962158,"380":-0.2928707003593445,"381":0.06164972856640816,"382":0.26662832498550415,"383":-0.054412201046943665,"384":-0.3509548008441925,"385":-0.24525174498558044,"386":-0.03087129443883896,"387":0.28974780440330505,"388":-0.019240103662014008,"389":0.3443971276283264,"390":0.10605397075414658,"391":-0.05975385010242462,"392":0.05974404513835907,"393":0.0697835236787796,"394":0.052497461438179016,"395":-0.31143805384635925,"396":0.32001715898513794,"397":-0.2288360297679901,"398":0.22719831764698029,"399":0.04882445186376572}},"inputBias":{"rows":20,"columns":1,"weights":{"0":-5.535465240478516,"1":0.19903084635734558,"2":0.0027230246923863888,"3":-0.00006780119292670861,"4":0.3476361334323883,"5":0.8134192824363708,"6":-0.000164380093337968,"7":0.007487201131880283,"8":-2.3659465312957764,"9":0.7070924639701843,"10":-0.28322288393974304,"11":-0.00000203010722543695,"12":0.0034953225404024124,"13":7.209193229675293,"14":4.9559645652771,"15":1.8486433029174805,"16":1.944458246231079,"17":-0.003807405475527048,"18":-1.8161689043045044,"19":-0.04622121527791023}},"forgetMatrix":{"rows":20,"columns":1,"weights":{"0":-0.0830528661608696,"1":0.10751307755708694,"2":0.335964173078537,"3":-0.05535952374339104,"4":-0.4783099591732025,"5":0.21919497847557068,"6":0.059790369123220444,"7":-0.35104212164878845,"8":0.22528311610221863,"9":0.17276954650878906,"10":0.23098020255565643,"11":-0.06682104617357254,"12":0.01865166425704956,"13":-0.17054632306098938,"14":0.35314640402793884,"15":-0.2959660589694977,"16":0.2686465382575989,"17":-0.3352847695350647,"18":-0.42560943961143494,"19":-0.13815763592720032}},"forgetHidden":{"rows":20,"columns":20,"weights":{"0":3.9486517906188965,"1":-0.2055176943540573,"2":0.8596068024635315,"3":-0.004714218899607658,"4":0.023055940866470337,"5":0.13078656792640686,"6":0.01789543591439724,"7":-2.038084030151367,"8":-0.28189876675605774,"9":-0.10093260556459427,"10":0.09447365999221802,"11":-0.06876276433467865,"12":3.147111654281616,"13":-1.983752965927124,"14":0.5487998127937317,"15":-0.9654831290245056,"16":-2.295095205307007,"17":-0.276716411113739,"18":-0.22153618931770325,"19":-0.032581448554992676,"20":-0.7209939360618591,"21":-0.6768978834152222,"22":-0.61236172914505,"23":0.03977038711309433,"24":0.6958461403846741,"25":0.609325110912323,"26":0.021981455385684967,"27":0.6186517477035522,"28":-0.7058947682380676,"29":-0.6333076357841492,"30":-0.01018389780074358,"31":0.05291701853275299,"32":-0.7146483063697815,"33":0.710114061832428,"34":-0.5978549718856812,"35":-0.5949278473854065,"36":-0.5877262353897095,"37":-0.008433669805526733,"38":0.7778621912002563,"39":-0.036289189010858536,"40":0.20524540543556213,"41":-0.0573277622461319,"42":-0.2355426847934723,"43":-0.06817832589149475,"44":0.28629958629608154,"45":0.1683109700679779,"46":-0.048673540353775024,"47":-0.24375969171524048,"48":-0.05161376670002937,"49":-0.22170335054397583,"50":-0.01497766561806202,"51":-0.02300889417529106,"52":0.04140188544988632,"53":-0.07172669470310211,"54":0.02626585215330124,"55":0.1802826225757599,"56":-0.23466622829437256,"57":0.3041893243789673,"58":-0.2299969494342804,"59":-0.06412501633167267,"60":-0.01400152500718832,"61":0.05238183215260506,"62":-0.06760109215974808,"63":-0.026986204087734222,"64":0.06238647922873497,"65":-0.0037636589258909225,"66":0.058327242732048035,"67":0.011655475944280624,"68":-0.029844015836715698,"69":0.07124458253383636,"70":-0.04071309044957161,"71":0.001684027723968029,"72":0.035311732441186905,"73":-0.005681286100298166,"74":0.03526943549513817,"75":0.015649575740098953,"76":0.06298044323921204,"77":-0.03633199632167816,"78":-0.044098954647779465,"79":-0.054141148924827576,"80":-0.23073674738407135,"81":-0.597212553024292,"82":-0.5970593690872192,"83":-0.1276882290840149,"84":0.6716751456260681,"85":0.8217477202415466,"86":0.009565494023263454,"87":-0.23606109619140625,"88":-0.7905235886573792,"89":-0.8118094205856323,"90":-0.30968084931373596,"91":0.0484330877661705,"92":-0.5088512301445007,"93":0.5874213576316833,"94":-1.1109588146209717,"95":-0.28629162907600403,"96":-0.6524972915649414,"97":0.252046138048172,"98":0.02875921130180359,"99":0.2985427677631378,"100":0.1250600963830948,"101":-0.002302145818248391,"102":-0.1946732997894287,"103":0.06748872250318527,"104":0.23624004423618317,"105":0.058587346225976944,"106":-0.06913115084171295,"107":-0.24482621252536774,"108":0.0651591345667839,"109":-0.11155536025762558,"110":-0.07675770670175552,"111":0.060063786804676056,"112":0.05515951290726662,"113":-0.008439167402684689,"114":-0.039743270725011826,"115":0.08539622277021408,"116":-0.22267399728298187,"117":0.1905144900083542,"118":-0.18327048420906067,"119":0.04475650563836098,"120":0.007980995811522007,"121":0.04499285668134689,"122":-0.03536219894886017,"123":-0.05273980274796486,"124":0.015247637405991554,"125":-0.040711499750614166,"126":0.030452046543359756,"127":0.06644055992364883,"128":0.057188790291547775,"129":0.037697359919548035,"130":-0.03795914351940155,"131":0.06298892199993134,"132":-0.063483327627182,"133":-0.017389992251992226,"134":-0.00043720583198592067,"135":-0.00045790220610797405,"136":-0.07166320830583572,"137":0.044775716960430145,"138":0.006124367006123066,"139":0.0025031291879713535,"140":-0.8280843496322632,"141":-2.0458059310913086,"142":-0.25028449296951294,"143":-0.0081024756655097,"144":0.17721176147460938,"145":0.3838113248348236,"146":0.04066779837012291,"147":0.7438948154449463,"148":-0.5879788398742676,"149":-0.2319970428943634,"150":0.16838523745536804,"151":-0.0630076602101326,"152":-0.6708299517631531,"153":0.6289296746253967,"154":-0.481195867061615,"155":-0.841886043548584,"156":-0.2913493514060974,"157":-0.3568708002567291,"158":0.7585871815681458,"159":-0.04782053083181381,"160":-0.03816325590014458,"161":-0.004663450177758932,"162":-0.09538114815950394,"163":0.06860771775245667,"164":0.008312724530696869,"165":0.062464479357004166,"166":0.06102956086397171,"167":0.054756682366132736,"168":0.07176967710256577,"169":-0.01641240157186985,"170":-0.005997687578201294,"171":0.013409598730504513,"172":-0.005640281364321709,"173":-0.02789292111992836,"174":-0.0039222403429448605,"175":-0.051521576941013336,"176":-0.013848495669662952,"177":-0.019324814900755882,"178":-0.03170306608080864,"179":0.009181337431073189,"180":0.23728059232234955,"181":-0.07610110938549042,"182":-0.3445112705230713,"183":-0.053770553320646286,"184":0.3237842321395874,"185":0.3928211033344269,"186":0.03253375366330147,"187":-0.24939130246639252,"188":-0.6647120118141174,"189":-0.41551804542541504,"190":-0.2745126783847809,"191":-0.02733186073601246,"192":-0.7015275955200195,"193":0.6440130472183228,"194":-0.7981030344963074,"195":0.17567330598831177,"196":-0.40602630376815796,"197":0.3521072566509247,"198":-0.24733151495456696,"199":0.044205617159605026,"200":-0.470515638589859,"201":0.08893716335296631,"202":0.05243748798966408,"203":0.05057355761528015,"204":-0.2557979226112366,"205":-0.23328480124473572,"206":-0.008774282410740852,"207":0.45464450120925903,"208":-0.072784423828125,"209":0.3376654386520386,"210":0.339328795671463,"211":0.024146337062120438,"212":-0.028957724571228027,"213":0.16757746040821075,"214":-0.09498745948076248,"215":-0.32831400632858276,"216":0.14769886434078217,"217":-0.26590192317962646,"218":0.3891693353652954,"219":-0.10652493685483932,"220":-0.009047480300068855,"221":0.06575663387775421,"222":0.0644373819231987,"223":0.02493933029472828,"224":0.02898736670613289,"225":0.05292622372508049,"226":-0.024411451071500778,"227":0.03689580410718918,"228":-0.04196619614958763,"229":-0.008129828609526157,"230":0.005637176334857941,"231":0.006582839880138636,"232":0.06886836141347885,"233":-0.01542728953063488,"234":-0.018556959927082062,"235":0.029828742146492004,"236":-0.03745057061314583,"237":-0.023040765896439552,"238":-0.030312463641166687,"239":-0.00875832699239254,"240":4.3172125816345215,"241":0.02942558005452156,"242":-1.2714656591415405,"243":-0.014379642903804779,"244":0.3087192475795746,"245":0.3365458548069,"246":-0.04544661566615105,"247":-5.359330654144287,"248":-0.7490880489349365,"249":-0.259485125541687,"250":0.8978402614593506,"251":0.07115597277879715,"252":-0.7309604287147522,"253":2.928727388381958,"254":-1.2645527124404907,"255":-1.511613368988037,"256":-3.6963653564453125,"257":0.07149345427751541,"258":1.799187421798706,"259":-0.02357313595712185,"260":-2.497511148452759,"261":-0.194850891828537,"262":3.677755355834961,"263":-0.06050655245780945,"264":-0.012223365716636181,"265":0.043977249413728714,"266":0.03204411640763283,"267":-3.259945869445801,"268":0.12113676965236664,"269":0.03875171020627022,"270":-0.8155406713485718,"271":-0.042978908866643906,"272":3.005697727203369,"273":16.930816650390625,"274":3.4109020233154297,"275":-1.027031421661377,"276":-17.170860290527344,"277":0.06597958505153656,"278":1.4382121562957764,"279":0.052652470767498016,"280":0.027700381353497505,"281":-0.0021869761403650045,"282":-0.15851588547229767,"283":0.015511494129896164,"284":0.17702767252922058,"285":0.05376372113823891,"286":0.0023981721606105566,"287":-0.11168427765369415,"288":0.039923157542943954,"289":-0.07489576935768127,"290":0.003506632521748543,"291":-0.03381941840052605,"292":-0.00867586862295866,"293":0.01457846537232399,"294":-0.033893100917339325,"295":0.09821201115846634,"296":-0.1990559995174408,"297":0.15937791764736176,"298":-0.13439877331256866,"299":-0.028378700837492943,"300":-1.1027472019195557,"301":-2.0533485412597656,"302":-0.387222558259964,"303":-0.04240206629037857,"304":0.4196379780769348,"305":0.5732563734054565,"306":0.059583865106105804,"307":4.581972122192383,"308":-0.797680675983429,"309":-0.4821988642215729,"310":0.25768283009529114,"311":0.013818169943988323,"312":-0.8376654386520386,"313":0.8072367310523987,"314":-0.8354715704917908,"315":-1.0205495357513428,"316":-0.3072475790977478,"317":-0.2557946741580963,"318":1.0904902219772339,"319":0.031291842460632324,"320":0.30193695425987244,"321":0.002096402458846569,"322":-0.24119555950164795,"323":0.0019133607856929302,"324":0.32008296251296997,"325":0.29386717081069946,"326":-0.05226512998342514,"327":-0.2814598083496094,"328":-0.14122335612773895,"329":-0.2648669183254242,"330":-0.12610474228858948,"331":-0.053983330726623535,"332":0.02680780552327633,"333":0.02686360478401184,"334":-0.15860377252101898,"335":0.29330751299858093,"336":-0.3320794701576233,"337":0.21496886014938354,"338":-0.32096320390701294,"339":0.03675948828458786,"340":-0.25161078572273254,"341":-0.028299910947680473,"342":0.3425626754760742,"343":-0.010936873964965343,"344":-0.28974324464797974,"345":-0.1961192935705185,"346":-0.024729447439312935,"347":0.29853755235671997,"348":0.06104297935962677,"349":0.2572811245918274,"350":-0.015447928570210934,"351":0.05045110359787941,"352":0.01410707738250494,"353":0.01067634392529726,"354":0.06261353939771652,"355":-0.19647547602653503,"356":0.26760199666023254,"357":-0.298390656709671,"358":0.2753097414970398,"359":-0.06137479096651077,"360":-0.06382646411657333,"361":-0.04539339989423752,"362":0.512270450592041,"363":0.05763695761561394,"364":-0.16182604432106018,"365":-0.0233979020267725,"366":0.04025299474596977,"367":0.13242961466312408,"368":0.2161235362291336,"369":0.06722357124090195,"370":0.06109653040766716,"371":0.04046127200126648,"372":-0.030932385474443436,"373":-0.2224763035774231,"374":0.22459056973457336,"375":-0.3218458592891693,"376":0.5003060698509216,"377":-0.21640218794345856,"378":0.10976231098175049,"379":-0.05317055806517601,"380":-0.006072697229683399,"381":0.0072006783448159695,"382":-0.006797614507377148,"383":0.008136684074997902,"384":0.018196692690253258,"385":0.012690631672739983,"386":0.06215497478842735,"387":-0.06529540568590164,"388":-0.025384962558746338,"389":-0.030828680843114853,"390":0.004269842058420181,"391":0.013296368531882763,"392":0.03907737135887146,"393":0.029701784253120422,"394":0.02063743770122528,"395":0.0581713542342186,"396":0.04982374981045723,"397":-0.004178896080702543,"398":0.0270683653652668,"399":-0.019520023837685585}},"forgetBias":{"rows":20,"columns":1,"weights":{"0":0,"1":0,"2":0,"3":0,"4":0,"5":0,"6":0,"7":0,"8":0,"9":0,"10":0,"11":0,"12":0,"13":0,"14":0,"15":0,"16":0,"17":0,"18":0,"19":0}},"outputMatrix":{"rows":20,"columns":1,"weights":{"0":-0.032069068402051926,"1":-0.27819883823394775,"2":0.22397327423095703,"3":-0.35659581422805786,"4":0.3086942136287689,"5":0.1959255039691925,"6":-0.3424656391143799,"7":-0.0030776923522353172,"8":0.3227587938308716,"9":0.15090955793857574,"10":0.23367822170257568,"11":-0.35176411271095276,"12":-0.014558251947164536,"13":0.2880306541919708,"14":0.35678574442863464,"15":0.15249285101890564,"16":0.0290649626404047,"17":-0.12108512222766876,"18":0.3305319547653198,"19":-0.29837608337402344}},"outputHidden":{"rows":20,"columns":20,"weights":{"0":-3.426920175552368,"1":0.12854093313217163,"2":-0.1286964863538742,"3":0.04434236139059067,"4":0.0935845747590065,"5":0.3686511814594269,"6":0.00615547364577651,"7":1.965759515762329,"8":-0.8438590168952942,"9":-0.24788245558738708,"10":0.34444013237953186,"11":-0.0024108164943754673,"12":-1.8582738637924194,"13":0.4614538848400116,"14":-0.6889644265174866,"15":-1.2209259271621704,"16":-0.35270288586616516,"17":-0.3323237895965576,"18":0.6601488590240479,"19":-0.23624691367149353,"20":-0.6957547664642334,"21":-0.5162601470947266,"22":-0.17650291323661804,"23":-0.034108903259038925,"24":0.23014134168624878,"25":0.29161959886550903,"26":0.03893996775150299,"27":0.6795159578323364,"28":-0.4589846432209015,"29":-0.3517765402793884,"30":0.2505359649658203,"31":0.06182083860039711,"32":-0.6496908664703369,"33":0.6001219749450684,"34":-0.4609062969684601,"35":-0.918001651763916,"36":-0.07067950814962387,"37":-0.22856011986732483,"38":0.7942206263542175,"39":-0.14626504480838776,"40":0.22749751806259155,"41":-0.10479338467121124,"42":-0.37844163179397583,"43":-0.04771805182099342,"44":0.36906886100769043,"45":0.3724466860294342,"46":-0.0346606969833374,"47":-0.32557401061058044,"48":-1.664231538772583,"49":-0.294872909784317,"50":-0.3083946704864502,"51":0.06907069683074951,"52":-1.7484279870986938,"53":1.9202877283096313,"54":-1.647950530052185,"55":0.18868984282016754,"56":-0.3671652674674988,"57":0.29211893677711487,"58":-0.3101699948310852,"59":0.2541355788707733,"60":-0.22629348933696747,"61":0.03773678094148636,"62":0.2500988841056824,"63":0.04863501340150833,"64":-0.21198225021362305,"65":-0.2992697060108185,"66":-0.06908709555864334,"67":0.2609812617301941,"68":-0.039647188037633896,"69":0.2994544506072998,"70":0.11364967375993729,"71":0.0037927960511296988,"72":0.06323271989822388,"73":0.05551472306251526,"74":-0.01764061115682125,"75":-0.3194689452648163,"76":0.2135891616344452,"77":-0.2881808280944824,"78":0.3213864266872406,"79":-0.03090214729309082,"80":0.3289467692375183,"81":-0.009715845808386803,"82":-0.3565397262573242,"83":-0.06846555322408676,"84":0.3501683175563812,"85":0.25226593017578125,"86":0.04861479252576828,"87":-0.22964873909950256,"88":-0.0736062228679657,"89":-0.2514817416667938,"90":-0.19472326338291168,"91":0.06760714203119278,"92":-0.024723216891288757,"93":-0.05712803825736046,"94":-0.0759449452161789,"95":0.23408523201942444,"96":-0.23348432779312134,"97":0.2718079090118408,"98":-0.35103273391723633,"99":-0.017915775999426842,"100":-0.35218971967697144,"101":-1.3380175828933716,"102":-0.5393456220626831,"103":-0.25991564989089966,"104":0.5284215211868286,"105":0.8133454322814941,"106":-0.1290581077337265,"107":-0.1726713925600052,"108":-0.6870341300964355,"109":-0.6247614026069641,"110":-0.3226003348827362,"111":-0.061681266874074936,"112":-0.5475506782531738,"113":0.45239847898483276,"114":-0.9219329357147217,"115":-0.3551968038082123,"116":-0.5427383780479431,"117":0.2903466522693634,"118":-0.0014820386422798038,"119":0.21373483538627625,"120":-0.14241516590118408,"121":0.047293104231357574,"122":0.2965613305568695,"123":0.010357888415455818,"124":-0.305801123380661,"125":-0.07740452140569687,"126":0.05632738023996353,"127":0.2235565185546875,"128":-0.003271589521318674,"129":0.19027839601039886,"130":-0.04853663221001625,"131":-0.0692816749215126,"132":-0.061527859419584274,"133":0.015605276450514793,"134":-0.007016157731413841,"135":-0.17648564279079437,"136":0.2988743185997009,"137":-0.29344168305397034,"138":0.15690213441848755,"139":-0.0021658409386873245,"140":7.270246505737305,"141":-1.7095836400985718,"142":0.6635529398918152,"143":0.12467455863952637,"144":0.10300567001104355,"145":0.24866293370723724,"146":0.017341643571853638,"147":-3.282243251800537,"148":-2.0750999450683594,"149":-0.1992868334054947,"150":-0.5519983768463135,"151":-0.05064321309328079,"152":-0.49764499068260193,"153":-5.700437068939209,"154":0.393243670463562,"155":1.2400339841842651,"156":-4.057907581329346,"157":-0.24521638453006744,"158":3.013993740081787,"159":-0.30961838364601135,"160":0.11393316090106964,"161":-0.0308082178235054,"162":-0.18562065064907074,"163":0.06976217776536942,"164":0.2922443449497223,"165":0.06007178872823715,"166":-0.01861291565001011,"167":-0.16385431587696075,"168":0.04426011070609093,"169":-0.22553583979606628,"170":-0.06723696738481522,"171":0.036812931299209595,"172":0.06905099749565125,"173":-0.04726913571357727,"174":0.06356797367334366,"175":0.08412046730518341,"176":-0.2263135462999344,"177":0.27661147713661194,"178":-0.17607179284095764,"179":0.04566975310444832,"180":0.12314661592245102,"181":-0.21014367043972015,"182":-0.5150930285453796,"183":-0.05295518413186073,"184":0.5393941402435303,"185":0.7988970279693604,"186":-0.003000701544806361,"187":-0.2502884864807129,"188":-0.9396520853042603,"189":-0.5994991064071655,"190":-0.2651064097881317,"191":0.024844950065016747,"192":-0.7411856651306152,"193":0.8039439916610718,"194":-1.5841970443725586,"195":0.03791486471891403,"196":-0.42649218440055847,"197":0.33062514662742615,"198":-0.08028934895992279,"199":0.31442901492118835,"200":-0.42737099528312683,"201":0.04245438054203987,"202":-0.06439531594514847,"203":0.055073875933885574,"204":-0.20159102976322174,"205":-0.029340572655200958,"206":0.030061207711696625,"207":0.4659551680088043,"208":-0.3620181977748871,"209":0.08141742646694183,"210":0.052237872034311295,"211":0.0014106550952419639,"212":-0.020596632733941078,"213":0.2932194769382477,"214":-0.3002417981624603,"215":-0.03457234427332878,"216":-0.12025554478168488,"217":-0.2367391437292099,"218":0.4063993990421295,"219":0.008574663661420345,"220":-0.06858931481838226,"221":-0.018942607566714287,"222":0.03308454155921936,"223":-0.03382515534758568,"224":0.0011912200134247541,"225":-0.01754113659262657,"226":0.0457155741751194,"227":-0.008263668045401573,"228":-0.009708124212920666,"229":0.0052549163810908794,"230":-0.03858575597405434,"231":-0.015419102273881435,"232":0.060063622891902924,"233":-0.01400507427752018,"234":-0.003108291421085596,"235":-0.025808656588196754,"236":0.09905724227428436,"237":-0.053649239242076874,"238":-0.019906088709831238,"239":0.05406085029244423,"240":6.945348739624023,"241":0.03757205232977867,"242":2.181942939758301,"243":-0.029255792498588562,"244":-0.04924662411212921,"245":-0.15378090739250183,"246":-0.03667879477143288,"247":-1.0203076601028442,"248":3.573986530303955,"249":-0.20335379242897034,"250":-1.6838867664337158,"251":0.05486905202269554,"252":-3.4311630725860596,"253":-3.6789748668670654,"254":2.3850157260894775,"255":2.8946471214294434,"256":-3.409787893295288,"257":0.2555451989173889,"258":-3.432440757751465,"259":-0.011236093938350677,"260":-0.03212997317314148,"261":0.02166811190545559,"262":0.009070080704987049,"263":-0.04231645539402962,"264":0.013889565132558346,"265":0.027611229568719864,"266":0.0022499223705381155,"267":-0.015069954097270966,"268":-0.029051367193460464,"269":-0.045310091227293015,"270":-0.026463311165571213,"271":0.06392980366945267,"272":-0.027153361588716507,"273":-0.06080591678619385,"274":0.04828846454620361,"275":0.04140206798911095,"276":0.02117086574435234,"277":0.09770345687866211,"278":-0.050105828791856766,"279":-0.019294358789920807,"280":0.11944901198148727,"281":0.03017224743962288,"282":-0.15446870028972626,"283":0.018516631796956062,"284":0.1617640107870102,"285":0.05352708324790001,"286":-0.027965174987912178,"287":-0.14801852405071259,"288":0.017129551619291306,"289":-0.1798291802406311,"290":0.018856175243854523,"291":-0.03364565968513489,"292":0.05388372018933296,"293":0.05745859816670418,"294":-0.02803763933479786,"295":0.09385289996862411,"296":-0.14770765602588654,"297":0.19909252226352692,"298":-0.10273494571447372,"299":-0.03697850927710533,"300":-0.9895376563072205,"301":-0.034943729639053345,"302":-0.2682591378688812,"303":0.1476469337940216,"304":0.010198285803198814,"305":0.2988724410533905,"306":0.020284345373511314,"307":0.656438946723938,"308":-1.0570162534713745,"309":-0.18731504678726196,"310":0.6512102484703064,"311":0.06862451136112213,"312":-1.1162046194076538,"313":1.6187725067138672,"314":-1.0851413011550903,"315":-0.6383423805236816,"316":-0.3009350597858429,"317":-0.3126339018344879,"318":0.7720551490783691,"319":-0.23062510788440704,"320":4.146246433258057,"321":-0.10770722478628159,"322":-2.26608943939209,"323":-0.03357911482453346,"324":0.36479291319847107,"325":1.5896897315979004,"326":-0.02666746824979782,"327":2.8607852458953857,"328":1.9869438409805298,"329":-0.34948158264160156,"330":0.5486791729927063,"331":-0.016724228858947754,"332":-4.816286563873291,"333":10.803808212280273,"334":-3.1129090785980225,"335":-0.3234986364841461,"336":8.298050880432129,"337":0.31247514486312866,"338":-2.1532907485961914,"339":0.14879097044467926,"340":-0.31280598044395447,"341":-0.03748542442917824,"342":0.21722649037837982,"343":-0.03781304880976677,"344":-0.22903120517730713,"345":-0.22879917919635773,"346":-0.042007654905319214,"347":0.30521294474601746,"348":0.03558117523789406,"349":0.24052239954471588,"350":0.16993089020252228,"351":0.016961917281150818,"352":-0.04391986131668091,"353":0.05730890855193138,"354":0.10656008869409561,"355":-0.3184881806373596,"356":0.24264197051525116,"357":-0.3046400547027588,"358":0.35250237584114075,"359":-0.037289053201675415,"360":-0.849321186542511,"361":0.08187594264745712,"362":-0.185623437166214,"363":-0.005102535709738731,"364":0.20798024535179138,"365":0.32925015687942505,"366":0.05690455436706543,"367":0.29163575172424316,"368":-0.25301676988601685,"369":-0.13741856813430786,"370":0.2537844777107239,"371":-0.014743037521839142,"372":-0.5358000993728638,"373":0.4748618006706238,"374":-0.864456295967102,"375":-0.8899234533309937,"376":-0.16885878145694733,"377":-0.2569332718849182,"378":0.7923044562339783,"379":-0.20812200009822845,"380":-0.3391585350036621,"381":0.06447471678256989,"382":0.3254201114177704,"383":0.055676743388175964,"384":-0.23800253868103027,"385":-0.23406249284744263,"386":0.017715323716402054,"387":0.25010547041893005,"388":0.025737490504980087,"389":0.2967369556427002,"390":0.058940060436725616,"391":0.008664742112159729,"392":0.0010263200383633375,"393":0.030334047973155975,"394":-0.034772809594869614,"395":-0.2975769340991974,"396":0.23406654596328735,"397":-0.336952269077301,"398":0.3194725513458252,"399":-0.00669702235609293}},"outputBias":{"rows":20,"columns":1,"weights":{"0":0.6935994029045105,"1":-0.12268871814012527,"2":0.5916733145713806,"3":-0.0049963113851845264,"4":0.017045164480805397,"5":2.0406334400177,"6":-0.00016472520655952394,"7":0.3883151710033417,"8":0.00041542568942531943,"9":0.5003261566162109,"10":-0.0006191664724610746,"11":-0.0000020309271349105984,"12":11.964052200317383,"13":0.000004443580564839067,"14":0.000006809035767219029,"15":0.6158233284950256,"16":-5.338594436645508,"17":-0.14234782755374908,"18":0.2727855145931244,"19":-0.04178939387202263}},"cellActivationMatrix":{"rows":20,"columns":1,"weights":{"0":0.046800993382930756,"1":-0.27616429328918457,"2":-0.20975928008556366,"3":0.26659515500068665,"4":0.3413095474243164,"5":0.3207670748233795,"6":-0.0494210347533226,"7":0.2956058382987976,"8":-0.1344669908285141,"9":-0.3158208131790161,"10":0.2268645167350769,"11":-0.003198545426130295,"12":-0.12411138415336609,"13":0.3411523699760437,"14":-0.18031266331672668,"15":-0.22226426005363464,"16":-0.32869264483451843,"17":-0.2572089433670044,"18":0.21280907094478607,"19":-0.25472667813301086}},"cellActivationHidden":{"rows":20,"columns":20,"weights":{"0":-0.46397534012794495,"1":0.015111667104065418,"2":0.504189133644104,"3":-0.03362305834889412,"4":-0.3321808874607086,"5":-0.3916477560997009,"6":-0.018086334690451622,"7":-3.4900243282318115,"8":0.7103397846221924,"9":0.36801886558532715,"10":0.02321670949459076,"11":-0.031254373490810394,"12":2.0577144622802734,"13":0.7798067331314087,"14":0.9454825520515442,"15":0.0031352066434919834,"16":0.47638750076293945,"17":-0.23029838502407074,"18":-0.1902293711900711,"19":-0.12353985756635666,"20":-0.0055618202313780785,"21":0.06968536227941513,"22":-0.01833333820104599,"23":-0.022347867488861084,"24":-0.059794314205646515,"25":0.03794172406196594,"26":0.05698045343160629,"27":0.02700725942850113,"28":-0.027977891266345978,"29":0.06913018971681595,"30":-0.06545857340097427,"31":0.045325204730033875,"32":-0.05369723588228226,"33":0.025078460574150085,"34":0.06894046068191528,"35":0.0242935623973608,"36":-0.04266905412077904,"37":0.04185839742422104,"38":-0.0032071052119135857,"39":-0.009990314021706581,"40":-0.022850124165415764,"41":-0.06602959334850311,"42":-0.04330474138259888,"43":0.025850633159279823,"44":0.046512309461832047,"45":0.007814852520823479,"46":0.05107006058096886,"47":0.005764523986726999,"48":0.014449464157223701,"49":-0.010064618661999702,"50":-0.026038862764835358,"51":-0.05343152955174446,"52":0.040742773562669754,"53":0.07045334577560425,"54":0.05645117163658142,"55":0.02360956184566021,"56":-0.015804141759872437,"57":-0.01732938177883625,"58":-0.019790276885032654,"59":-0.04045092314481735,"60":0.06679922342300415,"61":-0.013450440019369125,"62":-0.13729584217071533,"63":-0.001239068922586739,"64":0.19401726126670837,"65":0.038623981177806854,"66":-0.0335623063147068,"67":-0.21307873725891113,"68":-0.020235981792211533,"69":-0.09724351018667221,"70":0.044389717280864716,"71":0.03131343796849251,"72":-0.02008945867419243,"73":0.026941025629639626,"74":0.05276906490325928,"75":0.038729891180992126,"76":-0.18452467024326324,"77":0.18777471780776978,"78":-0.12030184268951416,"79":0.067257359623909,"80":0.0963435024023056,"81":-0.021026846021413803,"82":-0.1402546614408493,"83":0.06163598597049713,"84":0.16539032757282257,"85":0.10369796305894852,"86":-0.05706241354346275,"87":-0.15042951703071594,"88":-0.03050391748547554,"89":-0.11976701021194458,"90":-0.002465996192768216,"91":0.06791580468416214,"92":0.027779316529631615,"93":0.026529669761657715,"94":0.03545291721820831,"95":0.051673565059900284,"96":-0.14605052769184113,"97":0.09010467678308487,"98":-0.047792479395866394,"99":0.032407671213150024,"100":0.3287663161754608,"101":-0.06204763054847717,"102":-0.33415457606315613,"103":-0.060844071209430695,"104":0.3145914375782013,"105":0.18490928411483765,"106":-0.03866376355290413,"107":-0.31862056255340576,"108":-0.01310587115585804,"109":-0.23207443952560425,"110":-0.036286067217588425,"111":0.06379528343677521,"112":-0.06064089387655258,"113":0.03870903700590134,"114":-0.04674606770277023,"115":0.3100709617137909,"116":-0.25400876998901367,"117":0.3357240855693817,"118":-0.23987792432308197,"119":-0.05450857803225517,"120":-0.06133274734020233,"121":-0.026470445096492767,"122":-0.03920773044228554,"123":0.015547337010502815,"124":-0.03040476143360138,"125":0.0020118055399507284,"126":0.06261497735977173,"127":-0.04046311601996422,"128":-0.03579402714967728,"129":0.014086578041315079,"130":0.017680544406175613,"131":0.003485621651634574,"132":0.012879747897386551,"133":-0.000721955846529454,"134":0.008097491227090359,"135":-0.022532090544700623,"136":0.06356930732727051,"137":0.01325252279639244,"138":0.016164353117346764,"139":0.02235262840986252,"140":0.053570110350847244,"141":0.03643457219004631,"142":-0.01387154683470726,"143":0.03379128500819206,"144":0.03302505239844322,"145":0.029472259804606438,"146":0.009002771228551865,"147":-0.06013273820281029,"148":0.02141605317592621,"149":-0.03142601251602173,"150":-0.03185630962252617,"151":-0.06526213884353638,"152":0.03500429168343544,"153":0.022593028843402863,"154":0.042715419083833694,"155":0.032647404819726944,"156":0.03630336374044418,"157":0.03915075212717056,"158":-0.022820178419351578,"159":-0.049933742731809616,"160":-0.025766542181372643,"161":-0.04176611453294754,"162":-0.0017409110441803932,"163":-0.050382159650325775,"164":0.055601272732019424,"165":-0.019359612837433815,"166":-0.054015446454286575,"167":-0.04099174216389656,"168":-0.0603802390396595,"169":0.05208253115415573,"170":0.05126352235674858,"171":0.006128483917564154,"172":0.07153972238302231,"173":0.04747292771935463,"174":0.00844795536249876,"175":0.04203437268733978,"176":-0.017860757187008858,"177":-0.01059781014919281,"178":0.016966186463832855,"179":0.0644061416387558,"180":-0.24779905378818512,"181":0.020800510421395302,"182":0.3382088243961334,"183":-0.050615839660167694,"184":-0.3275204002857208,"185":-0.2810225784778595,"186":0.05177241191267967,"187":0.3299334943294525,"188":0.047536078840494156,"189":0.24316738545894623,"190":0.06047043949365616,"191":-0.0011693673441186547,"192":-0.012486464343965054,"193":-0.017572768032550812,"194":0.04645182937383652,"195":-0.3252652883529663,"196":0.33503514528274536,"197":-0.3016353249549866,"198":0.2844017744064331,"199":-0.09111977368593216,"200":-0.03956575319170952,"201":0.025513319298624992,"202":0.037060875445604324,"203":-0.003956375643610954,"204":0.013848007656633854,"205":-0.018681949004530907,"206":0.043814048171043396,"207":0.0034546188544481993,"208":0.031087271869182587,"209":0.025780649855732918,"210":0.060322657227516174,"211":-0.0658387839794159,"212":-0.0068578170612454414,"213":0.06925193220376968,"214":0.019433772191405296,"215":-0.010428691282868385,"216":-0.08364415168762207,"217":0.06779350340366364,"218":-0.0235210619866848,"219":-0.004155635368078947,"220":0.04144096001982689,"221":-0.047754328697919846,"222":-0.01875036023557186,"223":-0.02787908911705017,"224":0.015972310677170753,"225":-0.0035768174566328526,"226":-0.020589368417859077,"227":0.0013726019533351064,"228":-0.0029143018182367086,"229":0.04421737417578697,"230":-0.007048328872770071,"231":0.03738079220056534,"232":0.06045132502913475,"233":0.05208943784236908,"234":0.0645780861377716,"235":0.022833503782749176,"236":-0.0682743489742279,"237":-0.0031040688045322895,"238":-0.03270715847611427,"239":0.018517449498176575,"240":-0.017226461321115494,"241":0.06313174962997437,"242":0.007419375702738762,"243":-0.05990850552916527,"244":-0.06297560781240463,"245":0.06326571106910706,"246":-0.047466833144426346,"247":-0.011052240617573261,"248":0.025173982605338097,"249":-0.016047904267907143,"250":0.018317824229598045,"251":0.00475490465760231,"252":-0.05380804091691971,"253":-0.07114715874195099,"254":0.05314372107386589,"255":0.056136034429073334,"256":0.041355423629283905,"257":0.016858790069818497,"258":-0.007916714064776897,"259":0.021259672939777374,"260":0.04987684264779091,"261":-0.0445052869617939,"262":-0.25739020109176636,"263":-0.06704023480415344,"264":0.2140868455171585,"265":0.31776556372642517,"266":0.011126434430480003,"267":0.009275618940591812,"268":-0.2491416186094284,"269":-0.2137916088104248,"270":-0.035290274769067764,"271":-0.06102815270423889,"272":-0.27906981110572815,"273":0.24102018773555756,"274":-0.2683851718902588,"275":0.06423695385456085,"276":-0.29225337505340576,"277":-0.04028049856424332,"278":0.06640294939279556,"279":-0.0073202308267354965,"280":-0.2533855736255646,"281":-0.008421718142926693,"282":0.2598932385444641,"283":0.002614811295643449,"284":-0.32998549938201904,"285":-0.2753862142562866,"286":0.01631380245089531,"287":0.3069879710674286,"288":0.14535874128341675,"289":0.3359401524066925,"290":0.21129058301448822,"291":-0.02589399553835392,"292":0.023355918005108833,"293":-0.05231453478336334,"294":0.12231363356113434,"295":-0.24299585819244385,"296":0.30404573678970337,"297":-0.3417671322822571,"298":0.27397242188453674,"299":-0.11426588147878647,"300":-0.08289752900600433,"301":0.04456212744116783,"302":0.0919376015663147,"303":0.03247518837451935,"304":0.011215463280677795,"305":-0.06381925195455551,"306":-0.024377619847655296,"307":-0.03973487392067909,"308":-0.06622147560119629,"309":0.020171640440821648,"310":0.015367970801889896,"311":-0.05843555927276611,"312":0.04560012370347977,"313":0.00014337898755911738,"314":-0.031590789556503296,"315":0.008984887972474098,"316":0.0529601089656353,"317":-0.04544195905327797,"318":-0.021222880110144615,"319":-0.017284352332353592,"320":-0.17695429921150208,"321":0.045546505600214005,"322":0.2586577534675598,"323":-0.03962566703557968,"324":-0.2698025703430176,"325":-0.06159995123744011,"326":0.05817052721977234,"327":0.2581983208656311,"328":0.00915622990578413,"329":0.1409827321767807,"330":0.05780415236949921,"331":0.055404093116521835,"332":0.032608505338430405,"333":-0.05669894069433212,"334":-0.062262170016765594,"335":-0.1896527260541916,"336":0.20222532749176025,"337":-0.30827733874320984,"338":0.22005987167358398,"339":-0.005311444401741028,"340":-0.3122337758541107,"341":-0.04764996096491814,"342":0.34325850009918213,"343":-0.05790571868419647,"344":-0.22330625355243683,"345":-0.29346442222595215,"346":-0.03546065464615822,"347":0.3087320625782013,"348":-0.0023295055143535137,"349":0.3259970545768738,"350":0.08607249706983566,"351":-0.05785929784178734,"352":0.06561559438705444,"353":-0.01992728002369404,"354":0.0444214791059494,"355":-0.307877779006958,"356":0.28714340925216675,"357":-0.26791033148765564,"358":0.21693411469459534,"359":0.006906281691044569,"360":0.26993608474731445,"361":-0.1363474577665329,"362":-0.2283293902873993,"363":-0.0722436010837555,"364":0.3313399851322174,"365":0.2742467224597931,"366":0.00514786085113883,"367":-0.23483958840370178,"368":-0.7850160598754883,"369":-0.34320497512817383,"370":-0.2237357795238495,"371":0.020318301394581795,"372":-0.9101586937904358,"373":0.8322504162788391,"374":-0.717526376247406,"375":0.25929054617881775,"376":-0.34490376710891724,"377":0.2662889063358307,"378":-0.24986101686954498,"379":0.28472045063972473,"380":0.03643341362476349,"381":-0.06324075162410736,"382":0.032546516507864,"383":0.018337184563279152,"384":-0.08442422747612,"385":0.012075568549335003,"386":-0.0039449334144592285,"387":0.042579423636198044,"388":0.00971556082367897,"389":0.09496002644300461,"390":0.01649775728583336,"391":0.05384393408894539,"392":0.04520241543650627,"393":-0.008824236690998077,"394":-0.05630673095583916,"395":0.048494692891836166,"396":0.054517146199941635,"397":-0.0656004473567009,"398":0.10182337462902069,"399":-0.012215672060847282}},"cellActivationBias":{"rows":20,"columns":1,"weights":{"0":-0.19842380285263062,"1":-4.7829043514375363e-14,"2":0,"3":0.00003135909355478361,"4":0,"5":0.0037888605147600174,"6":0,"7":0,"8":0,"9":-0.02503480575978756,"10":3.107614361397282e-7,"11":9.008889467754244e-11,"12":-4.616508286758858e-10,"13":0.00020047646830789745,"14":-0.009306438267230988,"15":0,"16":-0.0013198400847613811,"17":-0.0269596166908741,"18":0.85672926902771,"19":-0.000013719390153710265}}}],"outputConnector":{"rows":1,"columns":20,"weights":{"0":15.499673843383789,"1":1.3137187957763672,"2":-3.0978000164031982,"3":-0.23717576265335083,"4":-2.050783157348633,"5":-2.967890977859497,"6":-0.2281116545200348,"7":-1.3019002676010132,"8":12.525334358215332,"9":1.788132905960083,"10":2.0953867435455322,"11":-0.25708144903182983,"12":-6.49729585647583,"13":50.300575256347656,"14":-3.2455499172210693,"15":-1.330881118774414,"16":23.076915740966797,"17":-0.007880189456045628,"18":-17.3272762298584,"19":0.19987386465072632}},"output":{"rows":1,"columns":1,"weights":{"0":101.83353424072266}},"inputLookup":null,"inputLookupLength":null,"outputLookup":null,"outputLookupLength":null}