{"type":"n","options":{"inputSize":1,"hiddenLayers":[20],"outputSize":1,"decayRate":0.999,"smoothEps":1e-8,"regc":0.000001,"clipval":5},"hiddenLayers":[{"inputMatrix":{"rows":20,"columns":1,"weights":{"0":-1.453234314918518,"1":-0.017093751579523087,"2":1.6010884046554565,"3":-2.2542848587036133,"4":2.1419312953948975,"5":-1.6161344051361084,"6":1.0269156694412231,"7":1.2564555406570435,"8":1.1026837825775146,"9":-0.5483617186546326,"10":-0.7928995490074158,"11":-0.23143303394317627,"12":0.885865330696106,"13":-1.6885689496994019,"14":-0.6999341249465942,"15":-0.7165977358818054,"16":-1.0985773801803589,"17":0.8047133684158325,"18":-1.731760025024414,"19":-0.7793428301811218}},"inputHidden":{"rows":20,"columns":20,"weights":{"0":0.9281052350997925,"1":-0.05942670628428459,"2":-0.9422637820243835,"3":1.0353533029556274,"4":-0.6991494297981262,"5":-0.02961674891412258,"6":-0.5593473315238953,"7":1.0836728811264038,"8":-0.023363027721643448,"9":1.5654257535934448,"10":0.41226035356521606,"11":-0.11527423560619354,"12":-0.06075674667954445,"13":0.5037038326263428,"14":0.1339842826128006,"15":0.674197793006897,"16":-0.39377811551094055,"17":-0.16730020940303802,"18":-0.5680497884750366,"19":0.6626556515693665,"20":-0.692297637462616,"21":1.4184035062789917,"22":-0.10782727599143982,"23":-0.651390016078949,"24":1.1907659769058228,"25":0.523804783821106,"26":-0.13571324944496155,"27":-0.9053511023521423,"28":-1.7762912511825562,"29":0.6307600140571594,"30":1.453946828842163,"31":0.15567031502723694,"32":0.23740620911121368,"33":-0.9407278895378113,"34":0.4182952642440796,"35":1.7271320819854736,"36":0.6183292865753174,"37":-0.9307542443275452,"38":-0.9425734281539917,"39":1.4234857559204102,"40":-1.6677011251449585,"41":1.022931694984436,"42":0.4642742872238159,"43":0.34608760476112366,"44":-0.580746591091156,"45":-0.5646755695343018,"46":2.3096187114715576,"47":0.6156860589981079,"48":-0.6449184417724609,"49":-0.2955026626586914,"50":0.20505103468894958,"51":-0.2745634615421295,"52":2.422585964202881,"53":0.7986961603164673,"54":-0.6024677157402039,"55":0.9549036622047424,"56":0.6990222334861755,"57":0.29751378297805786,"58":-0.49965909123420715,"59":-0.3446880578994751,"60":1.8902236223220825,"61":1.8560148477554321,"62":-1.718553066253662,"63":0.10685448348522186,"64":-0.8057029247283936,"65":2.831782817840576,"66":-1.065131664276123,"67":-0.14315183460712433,"68":-1.4217842817306519,"69":0.04394807666540146,"70":0.8770151734352112,"71":0.7149892449378967,"72":-0.992758572101593,"73":-1.5553209781646729,"74":0.6670950055122375,"75":-0.7001784443855286,"76":-2.786064386367798,"77":-2.492689609527588,"78":-3.064727544784546,"79":0.6731848120689392,"80":-0.32735341787338257,"81":1.9568077325820923,"82":0.25978702306747437,"83":0.3435156047344208,"84":1.246639609336853,"85":-0.9458549618721008,"86":-0.28569725155830383,"87":0.7159874439239502,"88":-1.244400978088379,"89":0.9628087282180786,"90":2.244600296020508,"91":1.0603729486465454,"92":-0.5650765895843506,"93":-0.2604224681854248,"94":-0.6127681732177734,"95":-1.2857310771942139,"96":0.4103333652019501,"97":-1.1192517280578613,"98":-0.4764300286769867,"99":-0.6132211089134216,"100":1.5927603244781494,"101":1.498988151550293,"102":-1.3883004188537598,"103":1.4658751487731934,"104":1.4505881071090698,"105":-0.0499211810529232,"106":-0.8318413496017456,"107":-0.029316449537873268,"108":-0.13530616462230682,"109":1.7707661390304565,"110":0.08780388534069061,"111":1.027074933052063,"112":-0.32144707441329956,"113":0.6969498991966248,"114":0.41412481665611267,"115":-1.0979982614517212,"116":-2.0045323371887207,"117":-0.9265336394309998,"118":-1.6351256370544434,"119":0.07232087850570679,"120":0.7565962672233582,"121":1.9238553047180176,"122":-1.053936243057251,"123":-1.063216209411621,"124":-1.2815639972686768,"125":0.9305772185325623,"126":-0.23012657463550568,"127":-1.4242945909500122,"128":-1.2843672037124634,"129":1.7021974325180054,"130":0.17472423613071442,"131":0.4503733813762665,"132":0.450418621301651,"133":-1.3738536834716797,"134":0.7975742220878601,"135":0.28070104122161865,"136":-0.2514832317829132,"137":-1.803912878036499,"138":-0.7701804637908936,"139":0.9268421530723572,"140":1.08467698097229,"141":2.290811538696289,"142":0.5577040314674377,"143":-2.039189577102661,"144":-1.206271767616272,"145":0.915412187576294,"146":0.7840914130210876,"147":0.7648990750312805,"148":-0.7863537073135376,"149":0.17160741984844208,"150":0.1337980180978775,"151":-0.5821397304534912,"152":1.3902781009674072,"153":-0.4734252989292145,"154":0.5402109622955322,"155":1.31831955909729,"156":-1.2455641031265259,"157":-1.2452377080917358,"158":-1.158767819404602,"159":0.6810473799705505,"160":-0.6903561353683472,"161":-0.35287022590637207,"162":-0.29870882630348206,"163":1.1578973531723022,"164":0.6177019476890564,"165":-0.7796168327331543,"166":1.4053019285202026,"167":-1.400382399559021,"168":-0.8709149956703186,"169":-0.3001941740512848,"170":-0.4926868677139282,"171":0.0701080858707428,"172":1.098469853401184,"173":1.1933833360671997,"174":-0.9018383622169495,"175":-0.35136330127716064,"176":0.23840594291687012,"177":-0.3208291530609131,"178":-0.21734581887722015,"179":-0.8409758806228638,"180":-1.159642219543457,"181":-1.2576394081115723,"182":0.6182897090911865,"183":0.7404975891113281,"184":0.12770242989063263,"185":-0.8204600214958191,"186":1.818698525428772,"187":-1.253411889076233,"188":-0.387144535779953,"189":0.6713305115699768,"190":-0.1641961634159088,"191":1.5860745906829834,"192":0.9134091138839722,"193":1.5836609601974487,"194":-0.20187605917453766,"195":0.5491312146186829,"196":1.2019505500793457,"197":0.28233733773231506,"198":2.5069637298583984,"199":-0.7022899985313416,"200":1.476709246635437,"201":0.5182295441627502,"202":0.00415296945720911,"203":0.3378162086009979,"204":1.8765889406204224,"205":0.8026347756385803,"206":-1.0580862760543823,"207":1.023064374923706,"208":0.1289452165365219,"209":0.5092200636863708,"210":-0.5793498754501343,"211":-0.09429177641868591,"212":-0.2168978452682495,"213":0.23313994705677032,"214":0.897785484790802,"215":0.4130556881427765,"216":-0.5176937580108643,"217":-0.6805693507194519,"218":-0.34489917755126953,"219":0.7650507688522339,"220":0.4513513445854187,"221":1.8288577795028687,"222":-0.4703707993030548,"223":-2.5396828651428223,"224":0.24433742463588715,"225":0.7310828566551208,"226":-0.2300729602575302,"227":0.13147594034671783,"228":-0.9957142472267151,"229":0.6825119256973267,"230":1.2559149265289307,"231":0.7202945351600647,"232":-0.2527686059474945,"233":-1.1658612489700317,"234":-0.06558679044246674,"235":0.4033002257347107,"236":-0.35233181715011597,"237":-1.488936424255371,"238":-1.405224323272705,"239":0.11021420359611511,"240":0.30372825264930725,"241":0.7462171316146851,"242":-0.8032509088516235,"243":1.0029449462890625,"244":2.1841049194335938,"245":-0.44428762793540955,"246":0.4435146152973175,"247":-0.5726826190948486,"248":-1.0481349229812622,"249":1.2172034978866577,"250":-1.1037925481796265,"251":1.4244415760040283,"252":-2.0736703872680664,"253":1.0745512247085571,"254":-0.5536722540855408,"255":-1.1830555200576782,"256":0.20998512208461761,"257":-1.5674877166748047,"258":-0.19977764785289764,"259":-1.0858197212219238,"260":2.857452392578125,"261":2.4760618209838867,"262":-0.913406491279602,"263":-0.12864969670772552,"264":0.27875789999961853,"265":1.5755715370178223,"266":-1.3015743494033813,"267":0.42584219574928284,"268":-0.13436946272850037,"269":1.2042834758758545,"270":1.3581318855285645,"271":0.2112986147403717,"272":0.11887743324041367,"273":-1.004326343536377,"274":1.898934006690979,"275":0.715250551700592,"276":-2.7572085857391357,"277":-1.7975949048995972,"278":-2.274623155593872,"279":1.6933997869491577,"280":1.1835023164749146,"281":0.12612608075141907,"282":-0.49206700921058655,"283":0.43889614939689636,"284":-0.6196246147155762,"285":0.1957988142967224,"286":-0.24906928837299347,"287":-0.06579553335905075,"288":0.34409528970718384,"289":-1.5989173650741577,"290":1.7985435724258423,"291":0.6681226491928101,"292":1.1314691305160522,"293":-0.15986326336860657,"294":1.5414214134216309,"295":-0.2894752621650696,"296":-1.1592044830322266,"297":-0.13453415036201477,"298":-1.0144098997116089,"299":1.7800745964050293,"300":-0.8267843723297119,"301":0.491597980260849,"302":0.4390062987804413,"303":1.222388744354248,"304":-0.9956634640693665,"305":-0.9960766434669495,"306":0.37507322430610657,"307":-1.0909860134124756,"308":0.6918486952781677,"309":-1.7963742017745972,"310":2.154395818710327,"311":0.10435046255588531,"312":2.1289548873901367,"313":1.4465292692184448,"314":0.4913012981414795,"315":-0.7802040576934814,"316":-1.0237295627593994,"317":1.0786553621292114,"318":-0.535185694694519,"319":-0.030776040628552437,"320":0.8701476454734802,"321":0.0686587244272232,"322":-0.650323212146759,"323":1.4405397176742554,"324":0.0010443313512951136,"325":-0.22150835394859314,"326":-0.17046694457530975,"327":0.2520655393600464,"328":0.2333788126707077,"329":-0.22348682582378387,"330":0.04829418659210205,"331":0.681281328201294,"332":0.13685397803783417,"333":0.7413729429244995,"334":1.134761095046997,"335":0.005243308376520872,"336":-0.8309465646743774,"337":-0.2287146896123886,"338":-0.6525932550430298,"339":1.4302581548690796,"340":-0.4457215666770935,"341":1.6992892026901245,"342":-2.840665340423584,"343":0.3208148181438446,"344":-0.2428295910358429,"345":0.04692046344280243,"346":-1.23824942111969,"347":-0.4294459819793701,"348":-2.515825033187866,"349":0.45238301157951355,"350":-1.0307929515838623,"351":2.2667579650878906,"352":-2.422776937484741,"353":0.8172276020050049,"354":0.4516981840133667,"355":-1.0108236074447632,"356":-0.8410600423812866,"357":-2.3727200031280518,"358":-0.9734447598457336,"359":0.0008216685964725912,"360":0.5838229060173035,"361":0.4619371294975281,"362":-0.9529672265052795,"363":-0.0869378075003624,"364":0.1765812784433365,"365":0.06003362685441971,"366":-0.49582624435424805,"367":0.3615487813949585,"368":-0.3136903643608093,"369":-0.19243963062763214,"370":2.240882158279419,"371":1.857293725013733,"372":-0.255327045917511,"373":0.08011796325445175,"374":0.6107887029647827,"375":1.2553845643997192,"376":-1.072471022605896,"377":-0.29496943950653076,"378":-0.5224395990371704,"379":1.5952816009521484,"380":0.7866410613059998,"381":0.17878150939941406,"382":-0.4594445824623108,"383":0.9917172789573669,"384":-0.8001479506492615,"385":-0.17032907903194427,"386":-0.023973479866981506,"387":-0.22600510716438293,"388":0.44665396213531494,"389":-1.501525640487671,"390":2.0170629024505615,"391":0.8379959464073181,"392":1.3976613283157349,"393":0.5163783431053162,"394":1.313006043434143,"395":-0.1158708706498146,"396":-1.3028031587600708,"397":0.11649802327156067,"398":-1.322285532951355,"399":1.2875926494598389}},"inputBias":{"rows":20,"columns":1,"weights":{"0":-0.47408658266067505,"1":-0.5461259484291077,"2":-1.1940804719924927,"3":-1.1215190887451172,"4":-1.1310985088348389,"5":-1.0400407314300537,"6":-0.9647625684738159,"7":-0.49243971705436707,"8":-0.8413307666778564,"9":-1.1551642417907715,"10":-0.4054495096206665,"11":-0.9474972486495972,"12":-1.191293478012085,"13":-1.1072022914886475,"14":-0.45327824354171753,"15":-0.9409133195877075,"16":-0.4414023160934448,"17":-0.7934533357620239,"18":-0.5249850153923035,"19":-0.5286528468132019}},"forgetMatrix":{"rows":20,"columns":1,"weights":{"0":-0.6826339364051819,"1":2.737574577331543,"2":2.274915933609009,"3":-2.2450759410858154,"4":3.9593541622161865,"5":-0.5700279474258423,"6":2.0318636894226074,"7":0.47423237562179565,"8":2.81585431098938,"9":3.0529987812042236,"10":-0.261454701423645,"11":0.09854675829410553,"12":1.7551454305648804,"13":-0.5496636033058167,"14":0.537174642086029,"15":0.9024415016174316,"16":-0.8776881694793701,"17":2.473315715789795,"18":-0.8435417413711548,"19":0.2686431109905243}},"forgetHidden":{"rows":20,"columns":20,"weights":{"0":-0.4307675063610077,"1":-0.6386615037918091,"2":-0.22090353071689606,"3":0.6733933091163635,"4":-1.1043634414672852,"5":-0.35081759095191956,"6":-0.8338380455970764,"7":0.6019084453582764,"8":-0.5986517667770386,"9":0.8747685551643372,"10":-0.394789457321167,"11":-0.4861280620098114,"12":-0.8411142230033875,"13":0.9462628364562988,"14":-0.3455999195575714,"15":-0.15672850608825684,"16":0.39599066972732544,"17":0.35965821146965027,"18":0.4408223628997803,"19":-0.3024817705154419,"20":-0.15923017263412476,"21":1.2088910341262817,"22":0.5971717238426208,"23":-0.9675160646438599,"24":0.7821070551872253,"25":0.40592360496520996,"26":-0.07654847949743271,"27":-0.7795482277870178,"28":-2.571765899658203,"29":-0.35098180174827576,"30":1.6442850828170776,"31":0.14121708273887634,"32":0.7401066422462463,"33":-0.9513077735900879,"34":0.9320399165153503,"35":1.5054973363876343,"36":0.24730485677719116,"37":-1.115232229232788,"38":-0.6294474005699158,"39":1.4675049781799316,"40":-1.2659862041473389,"41":0.33280467987060547,"42":-0.9473479986190796,"43":0.4674113094806671,"44":-2.0040698051452637,"45":-0.837100625038147,"46":2.051635980606079,"47":0.5926578640937805,"48":0.2611633241176605,"49":0.7088842391967773,"50":-0.6393515467643738,"51":-0.03857344388961792,"52":3.002760410308838,"53":1.0649046897888184,"54":-0.42999380826950073,"55":1.121105432510376,"56":0.9643538594245911,"57":1.069514274597168,"58":-0.05601318180561066,"59":-0.46365582942962646,"60":0.05649486929178238,"61":0.2839661240577698,"62":-0.5741596817970276,"63":1.0333515405654907,"64":1.1316566467285156,"65":0.23660798370838165,"66":-0.7667019367218018,"67":1.3915971517562866,"68":-1.1909829378128052,"69":-2.0966005325317383,"70":-0.3024752140045166,"71":3.660033702850342,"72":-1.4171442985534668,"73":0.5945409536361694,"74":-0.37590551376342773,"75":0.05168621987104416,"76":0.008153500966727734,"77":-1.2982902526855469,"78":-1.6260772943496704,"79":-0.25112390518188477,"80":-1.0175013542175293,"81":2.3656420707702637,"82":1.893257737159729,"83":1.336281657218933,"84":1.6074984073638916,"85":0.3842202126979828,"86":0.8767645955085754,"87":-0.8350598216056824,"88":-0.5596380233764648,"89":-3.302769660949707,"90":1.5031157732009888,"91":0.3656587302684784,"92":0.9286285042762756,"93":0.24390366673469543,"94":1.7678158283233643,"95":0.6574418544769287,"96":-0.04388510808348656,"97":-1.2494755983352661,"98":-1.4343905448913574,"99":1.7503126859664917,"100":-0.3077254295349121,"101":1.2348829507827759,"102":-2.8375539779663086,"103":0.7796738743782043,"104":-0.19711370766162872,"105":-0.5163803696632385,"106":-0.9679083824157715,"107":-0.3726602792739868,"108":-0.5642613172531128,"109":1.1439253091812134,"110":-0.510881781578064,"111":1.0250416994094849,"112":-1.495309591293335,"113":0.9496713876724243,"114":-0.3364253640174866,"115":-0.3247697353363037,"116":0.15133334696292877,"117":-0.7556304335594177,"118":-0.3700236976146698,"119":-0.4116736352443695,"120":0.7820312976837158,"121":1.6070586442947388,"122":-0.9627538919448853,"123":-0.9338492155075073,"124":-0.3578993082046509,"125":0.7368886470794678,"126":-0.22030024230480194,"127":-0.02174282632768154,"128":-1.2533198595046997,"129":1.394134521484375,"130":0.2732090353965759,"131":0.5140314698219299,"132":-0.20095805823802948,"133":-1.1956007480621338,"134":0.4361580014228821,"135":0.3071114122867584,"136":-0.3701297640800476,"137":-1.9961155652999878,"138":-1.1065154075622559,"139":0.41746801137924194,"140":1.0555139780044556,"141":1.9167815446853638,"142":0.7703231573104858,"143":-1.9083534479141235,"144":-1.2690104246139526,"145":0.9105246067047119,"146":0.4739755392074585,"147":-0.6513417959213257,"148":0.5047102570533752,"149":1.6103116273880005,"150":-0.763607382774353,"151":-0.619390070438385,"152":1.6901134252548218,"153":0.602357029914856,"154":-0.36664798855781555,"155":0.7999486923217773,"156":-0.9498515129089355,"157":-0.6909993290901184,"158":-1.095749020576477,"159":-1.0007333755493164,"160":0.1995842307806015,"161":1.036494255065918,"162":0.013262997381389141,"163":-0.23904778063297272,"164":-0.08781701326370239,"165":0.3162597715854645,"166":0.18097348511219025,"167":0.25324535369873047,"168":-2.3795969486236572,"169":-0.13751421868801117,"170":1.5481096506118774,"171":0.15043620765209198,"172":0.16672614216804504,"173":-0.7369859218597412,"174":-0.14869476854801178,"175":0.6957928538322449,"176":-0.01329228188842535,"177":-1.4735602140426636,"178":-1.0831390619277954,"179":0.3372373878955841,"180":1.2146400213241577,"181":1.436496615409851,"182":-0.04786306247115135,"183":-2.5784738063812256,"184":0.731777012348175,"185":2.1814355850219727,"186":-1.4328879117965698,"187":-0.37677526473999023,"188":-1.7846651077270508,"189":-0.016822686418890953,"190":-0.30936771631240845,"191":-0.712848424911499,"192":-2.3949453830718994,"193":-2.6177306175231934,"194":0.4818361699581146,"195":1.033171534538269,"196":-0.9756887555122375,"197":-1.6417210102081299,"198":-1.7381008863449097,"199":0.8839527368545532,"200":-0.8560971021652222,"201":0.07184428721666336,"202":-0.12334790080785751,"203":0.9090591669082642,"204":1.6243720054626465,"205":-0.36720845103263855,"206":-0.32623109221458435,"207":-0.10082226991653442,"208":0.9759753346443176,"209":-1.1027178764343262,"210":-2.244145154953003,"211":-0.36323168873786926,"212":-1.396758794784546,"213":0.6986950039863586,"214":-0.5588337182998657,"215":-0.24382981657981873,"216":0.521281898021698,"217":-0.07375992834568024,"218":0.39187556505203247,"219":-0.3959657847881317,"220":0.3390403687953949,"221":1.4545738697052002,"222":0.31134581565856934,"223":-1.8937146663665771,"224":1.4699617624282837,"225":1.019721269607544,"226":0.9790219664573669,"227":-0.4417884349822998,"228":-0.3470560908317566,"229":-1.8044683933258057,"230":0.2394244372844696,"231":0.6839826703071594,"232":1.5859214067459106,"233":-2.025813579559326,"234":-0.058910004794597626,"235":0.15651507675647736,"236":-0.689146101474762,"237":-0.7666462659835815,"238":-2.5189085006713867,"239":0.16030675172805786,"240":0.831843376159668,"241":3.3502020835876465,"242":-0.21072503924369812,"243":-0.9157735705375671,"244":1.9801303148269653,"245":1.6293591260910034,"246":0.2686391770839691,"247":0.8310755491256714,"248":-0.7044188976287842,"249":-1.3477168083190918,"250":-0.5158103108406067,"251":-0.06654512137174606,"252":0.311521977186203,"253":-1.433181881904602,"254":0.729358971118927,"255":0.27929970622062683,"256":-0.6647827625274658,"257":-2.6480300426483154,"258":-2.3222198486328125,"259":0.6696411371231079,"260":-0.3398166000843048,"261":0.8362948894500732,"262":-2.256693124771118,"263":0.45537418127059937,"264":-0.36704662442207336,"265":-0.26009321212768555,"266":-1.686097264289856,"267":-0.4322661757469177,"268":-1.1041529178619385,"269":1.500216007232666,"270":-0.7462521195411682,"271":0.008499810472130775,"272":-2.161841630935669,"273":0.9862613677978516,"274":-0.4184367060661316,"275":-0.10123647749423981,"276":0.21248964965343475,"277":-1.2742772102355957,"278":-0.536574125289917,"279":-0.3667711913585663,"280":-0.28602075576782227,"281":-0.0063201445154845715,"282":-2.123486280441284,"283":0.34972670674324036,"284":-0.8771976232528687,"285":-0.3822726607322693,"286":-1.3281642198562622,"287":0.03408370167016983,"288":0.5444065928459167,"289":0.606532096862793,"290":-0.22042369842529297,"291":-0.04138021916151047,"292":-1.9512513875961304,"293":0.4798295497894287,"294":-0.3207845389842987,"295":-0.41591885685920715,"296":0.1736321598291397,"297":-0.22106070816516876,"298":0.0707545280456543,"299":-0.3036380112171173,"300":-0.5118237137794495,"301":0.21721157431602478,"302":-2.4186604022979736,"303":0.2656584084033966,"304":1.0121190547943115,"305":-0.3659289479255676,"306":-0.7010484933853149,"307":1.532065987586975,"308":0.976139485836029,"309":1.7150518894195557,"310":-0.08193597197532654,"311":0.18114519119262695,"312":-0.3562221825122833,"313":0.3306772708892822,"314":-0.33306872844696045,"315":-0.13356608152389526,"316":0.34747806191444397,"317":0.39411723613739014,"318":0.03898882120847702,"319":-0.3105909824371338,"320":-0.5727848410606384,"321":-0.5881398320198059,"322":-0.06310641765594482,"323":1.0795643329620361,"324":-0.46497851610183716,"325":-0.46489429473876953,"326":-0.2627623677253723,"327":-0.7821670174598694,"328":0.6962822079658508,"329":-0.7661625146865845,"330":-0.8153572678565979,"331":0.3637251555919647,"332":-0.8034641146659851,"333":0.8467583060264587,"334":-0.4191513955593109,"335":-0.3961050510406494,"336":0.35131731629371643,"337":0.5244739651679993,"338":0.3739612102508545,"339":-0.2750062346458435,"340":-0.020803017541766167,"341":1.7429109811782837,"342":-1.4492968320846558,"343":-0.3040802776813507,"344":0.23021478950977325,"345":0.46752825379371643,"346":-0.5628869533538818,"347":-0.0756228044629097,"348":-2.234475612640381,"349":0.14631783962249756,"350":-0.611084520816803,"351":1.4510986804962158,"352":-1.5403894186019897,"353":0.056532617658376694,"354":0.42651164531707764,"355":0.17373405396938324,"356":-0.5873796939849854,"357":-2.4798085689544678,"358":-1.1476855278015137,"359":0.3629819452762604,"360":-0.4657302498817444,"361":-0.5556497573852539,"362":1.2382688522338867,"363":0.26569414138793945,"364":-0.9519976377487183,"365":-0.19475625455379486,"366":-0.011655387468636036,"367":0.18111498653888702,"368":0.7968710660934448,"369":-2.3742239475250244,"370":0.1963946670293808,"371":0.8588583469390869,"372":0.5262828469276428,"373":0.15251441299915314,"374":-0.10126957297325134,"375":0.5682162642478943,"376":0.3305656313896179,"377":1.100122094154358,"378":-1.1742370128631592,"379":0.217522993683815,"380":-0.19869767129421234,"381":-0.08496899157762527,"382":-3.5173356533050537,"383":0.39839866757392883,"384":-0.12446565181016922,"385":-0.33706745505332947,"386":-0.4367743134498596,"387":0.13679464161396027,"388":0.7566561102867126,"389":1.2268445491790771,"390":-0.12175401300191879,"391":0.326697438955307,"392":-0.6457979679107666,"393":0.5303561687469482,"394":-0.3566805124282837,"395":-0.3416791558265686,"396":0.10477254539728165,"397":0.008182596415281296,"398":0.011081450618803501,"399":-0.2856890857219696}},"forgetBias":{"rows":20,"columns":1,"weights":{"0":0,"1":0,"2":0,"3":0,"4":0,"5":0,"6":0,"7":0,"8":0,"9":0,"10":0,"11":0,"12":0,"13":0,"14":0,"15":0,"16":0,"17":0,"18":0,"19":0}},"outputMatrix":{"rows":20,"columns":1,"weights":{"0":-1.7621209621429443,"1":-1.2734326124191284,"2":2.7321624755859375,"3":-2.9936599731445312,"4":3.6506881713867188,"5":-2.059333324432373,"6":-1.0007914304733276,"7":0.11294358968734741,"8":2.119070529937744,"9":2.1391327381134033,"10":-1.0315780639648438,"11":-1.277519941329956,"12":0.2835398018360138,"13":-2.5977396965026855,"14":-0.8442103862762451,"15":-0.6684316396713257,"16":-1.1746240854263306,"17":-0.25253790616989136,"18":-2.1751511096954346,"19":-0.8087661862373352}},"outputHidden":{"rows":20,"columns":20,"weights":{"0":1.0370973348617554,"1":-0.1475798487663269,"2":-1.0851833820343018,"3":0.9708861708641052,"4":-0.7689366936683655,"5":-0.12803338468074799,"6":-0.5499403476715088,"7":1.1763674020767212,"8":-0.10947646200656891,"9":1.6643624305725098,"10":0.6276271939277649,"11":-0.23440594971179962,"12":-0.12970374524593353,"13":0.670102596282959,"14":0.11451997607946396,"15":0.6452884078025818,"16":-0.4789339601993561,"17":-0.01304945070296526,"18":-0.413817822933197,"19":0.2309037744998932,"20":-1.0341928005218506,"21":0.4393325746059418,"22":-0.5919435024261475,"23":-0.15616053342819214,"24":0.2862984836101532,"25":-0.4631785452365875,"26":1.160170078277588,"27":-1.4360870122909546,"28":-0.6259536743164062,"29":0.7982287406921387,"30":0.6133679151535034,"31":0.8254548907279968,"32":1.7292075157165527,"33":0.15321548283100128,"34":0.04276485741138458,"35":1.833599328994751,"36":0.9650446772575378,"37":0.04885544627904892,"38":-0.6467238664627075,"39":0.9358306527137756,"40":-1.2654235363006592,"41":0.9828608632087708,"42":0.6522440910339355,"43":0.6380517482757568,"44":-0.376774400472641,"45":-0.7362033724784851,"46":2.082943916320801,"47":1.44608736038208,"48":-0.4272206723690033,"49":0.43384823203086853,"50":-0.17657390236854553,"51":-0.42677387595176697,"52":2.450573444366455,"53":0.7592393159866333,"54":-0.7560313940048218,"55":0.8832191228866577,"56":0.8550037145614624,"57":0.5147325992584229,"58":-0.3672165870666504,"59":-0.5558329224586487,"60":2.366734743118286,"61":1.7722702026367188,"62":-1.550564169883728,"63":1.3265372514724731,"64":-0.13752306997776031,"65":2.318134069442749,"66":-0.5851728916168213,"67":-0.17957448959350586,"68":-1.6209239959716797,"69":-0.6486055850982666,"70":2.8450756072998047,"71":2.009934186935425,"72":-0.9144445061683655,"73":-0.8483736515045166,"74":1.492529034614563,"75":0.08851195871829987,"76":-3.4873952865600586,"77":-2.6724257469177246,"78":-2.8840842247009277,"79":1.3097232580184937,"80":-0.26961788535118103,"81":3.091123342514038,"82":1.0408570766448975,"83":0.8227648735046387,"84":0.6210002899169922,"85":-0.08156035840511322,"86":-0.20002146065235138,"87":1.031686544418335,"88":-1.7435119152069092,"89":-0.9992769360542297,"90":2.4348011016845703,"91":0.10801703482866287,"92":0.25816109776496887,"93":-0.19222596287727356,"94":0.5878737568855286,"95":-0.7460035681724548,"96":-0.11590899527072906,"97":-1.8988343477249146,"98":-1.2952888011932373,"99":0.39740124344825745,"100":1.4403042793273926,"101":1.088252305984497,"102":-1.0860743522644043,"103":1.9086247682571411,"104":1.6246976852416992,"105":-0.536180853843689,"106":-0.34563133120536804,"107":0.136433407664299,"108":-0.19615808129310608,"109":1.7506736516952515,"110":1.1908963918685913,"111":1.2659555673599243,"112":0.1365758627653122,"113":0.9926118850708008,"114":0.6303068399429321,"115":-0.6186478734016418,"116":-2.0375723838806152,"117":-0.5782449245452881,"118":-1.1711183786392212,"119":-0.24751125276088715,"120":0.8181321024894714,"121":1.0788110494613647,"122":0.246609166264534,"123":1.2166060209274292,"124":-1.4003722667694092,"125":0.266471803188324,"126":1.252384901046753,"127":0.1595088392496109,"128":-0.9515195488929749,"129":0.5653307437896729,"130":-0.09083189070224762,"131":0.7400203943252563,"132":0.7613739967346191,"133":-0.5108392834663391,"134":0.10785415023565292,"135":0.29838788509368896,"136":-0.04465222731232643,"137":-1.1463098526000977,"138":-0.8310717940330505,"139":0.22593708336353302,"140":0.040620915591716766,"141":1.8522148132324219,"142":1.4204248189926147,"143":-1.1624538898468018,"144":-0.7833083868026733,"145":-0.17766515910625458,"146":1.3300317525863647,"147":-0.7179444432258606,"148":-0.873195469379425,"149":-0.22903472185134888,"150":0.9703488349914551,"151":-0.5684529542922974,"152":1.250413179397583,"153":1.8679401874542236,"154":1.765760898590088,"155":1.8300821781158447,"156":-1.6672978401184082,"157":-0.722710132598877,"158":-0.40287813544273376,"159":1.3959943056106567,"160":-0.23063816130161285,"161":0.750638484954834,"162":-0.34086477756500244,"163":0.6484326720237732,"164":0.17410561442375183,"165":-0.3940213918685913,"166":0.41191565990448,"167":-0.8504208326339722,"168":-2.01961088180542,"169":-0.48920729756355286,"170":0.37782514095306396,"171":0.018136225640773773,"172":0.4078962802886963,"173":0.4087147116661072,"174":-0.5123863220214844,"175":-0.09454020857810974,"176":-0.0015402912395074964,"177":-1.399446964263916,"178":-0.5599736571311951,"179":-0.28866562247276306,"180":0.09001430124044418,"181":0.8096989989280701,"182":-0.16181306540966034,"183":-1.1092299222946167,"184":-0.4189792573451996,"185":0.9559518694877625,"186":-0.29469600319862366,"187":0.20049156248569489,"188":-1.7004214525222778,"189":0.418465793132782,"190":-0.3128320574760437,"191":-0.20249933004379272,"192":-1.488863468170166,"193":-1.407108187675476,"194":0.07144064456224442,"195":0.9782254695892334,"196":0.22032031416893005,"197":-1.3921754360198975,"198":-0.10973721742630005,"199":0.6237226724624634,"200":1.4272433519363403,"201":0.7044234871864319,"202":-0.14623655378818512,"203":0.15201231837272644,"204":2.5352940559387207,"205":0.5731287002563477,"206":-1.0263034105300903,"207":0.27919837832450867,"208":0.2726289927959442,"209":0.5724468231201172,"210":-1.5335413217544556,"211":-0.9291954636573792,"212":-0.060503825545310974,"213":0.4829629063606262,"214":0.6401193141937256,"215":-0.08346883207559586,"216":-0.5063445568084717,"217":-0.6485316753387451,"218":-0.2369425892829895,"219":0.459721177816391,"220":0.2360694408416748,"221":1.096657395362854,"222":-0.3843545615673065,"223":-2.232269763946533,"224":-0.5333504676818848,"225":0.6398048996925354,"226":0.5654110908508301,"227":-0.34820279479026794,"228":-0.20907358825206757,"229":0.11448438465595245,"230":0.9291051030158997,"231":1.1367677450180054,"232":0.7590060234069824,"233":-1.3992061614990234,"234":-0.4272104799747467,"235":0.4853615164756775,"236":-0.3037980794906616,"237":-0.6667648553848267,"238":-2.0232338905334473,"239":-0.263455867767334,"240":0.3460913896560669,"241":2.3094723224639893,"242":-0.46552178263664246,"243":0.6940497756004333,"244":2.1892499923706055,"245":0.004629390314221382,"246":0.1802712231874466,"247":-1.0559386014938354,"248":-1.2511703968048096,"249":0.08608533442020416,"250":-1.0292634963989258,"251":0.6025843024253845,"252":-0.6742974519729614,"253":0.4966496527194977,"254":0.09877118468284607,"255":-0.318230003118515,"256":-0.10986868292093277,"257":-2.2394330501556396,"258":-0.392353892326355,"259":-0.28621020913124084,"260":2.5395240783691406,"261":2.141446352005005,"262":-0.7121680378913879,"263":0.8768121600151062,"264":0.9653732180595398,"265":0.8203548789024353,"266":-0.8011124730110168,"267":1.1329445838928223,"268":-0.29823800921440125,"269":1.9139033555984497,"270":3.0288515090942383,"271":1.1507453918457031,"272":0.7846047878265381,"273":-0.18595336377620697,"274":1.639573574066162,"275":0.8036242127418518,"276":-3.8521902561187744,"277":-1.512884497642517,"278":-1.9165608882904053,"279":1.3409940004348755,"280":1.264887809753418,"281":0.1408696472644806,"282":-0.5897020101547241,"283":0.38447192311286926,"284":-0.5192097425460815,"285":0.14517992734909058,"286":-0.32218867540359497,"287":-0.3415703773498535,"288":0.5877458453178406,"289":-1.518204927444458,"290":1.6555722951889038,"291":0.8861613273620605,"292":1.0836070775985718,"293":-0.08217860013246536,"294":1.531309723854065,"295":-0.2521151304244995,"296":-1.4021949768066406,"297":-0.025512058287858963,"298":-0.9164077639579773,"299":1.6412545442581177,"300":-1.1824429035186768,"301":0.5879249572753906,"302":0.34050148725509644,"303":0.9647310972213745,"304":-0.780758261680603,"305":-0.8321397304534912,"306":0.2518380582332611,"307":-0.9484103918075562,"308":0.5846233367919922,"309":-1.5502827167510986,"310":2.4961657524108887,"311":0.16725601255893707,"312":1.8652058839797974,"313":1.1544770002365112,"314":0.35896214842796326,"315":-0.5588303804397583,"316":-1.2010400295257568,"317":1.0097005367279053,"318":-0.5505688786506653,"319":-0.44792425632476807,"320":0.6957821846008301,"321":-0.06607870757579803,"322":-0.7504138946533203,"323":1.419126272201538,"324":0.12321504950523376,"325":-0.2910294234752655,"326":-0.20347483456134796,"327":0.109242282807827,"328":0.4911234974861145,"329":-0.30682864785194397,"330":-0.08472715318202972,"331":0.8209216594696045,"332":0.2056652456521988,"333":0.7797457575798035,"334":1.1806648969650269,"335":-0.43457478284835815,"336":-0.817406415939331,"337":-0.14854468405246735,"338":-0.4620542824268341,"339":1.3777598142623901,"340":-0.22078290581703186,"341":0.9585747718811035,"342":-1.1946579217910767,"343":1.1855374574661255,"344":1.7177492380142212,"345":-0.669329822063446,"346":0.6151453256607056,"347":-0.8849594593048096,"348":-0.762844443321228,"349":1.1760261058807373,"350":-0.20459279417991638,"351":1.328926682472229,"352":0.7114133834838867,"353":1.3114570379257202,"354":0.5981971621513367,"355":-0.8424312472343445,"356":-0.28266093134880066,"357":-1.0127043724060059,"358":-0.7521628737449646,"359":-0.041237130761146545,"360":0.017358414828777313,"361":0.33651110529899597,"362":-0.6616950035095215,"363":0.10189691931009293,"364":0.10645148903131485,"365":-0.2217705398797989,"366":-0.16361117362976074,"367":0.6018062829971313,"368":-0.2528653144836426,"369":-0.3834099769592285,"370":1.4100220203399658,"371":2.083399534225464,"372":0.01917508989572525,"373":0.3181779682636261,"374":0.4501265287399292,"375":1.321974277496338,"376":-0.45565760135650635,"377":-0.0829261764883995,"378":-0.3910338580608368,"379":1.4711709022521973,"380":0.7590618133544922,"381":0.167791947722435,"382":-0.5225300788879395,"383":0.8616968393325806,"384":-0.7147507667541504,"385":-0.08913755416870117,"386":-0.04347961023449898,"387":-0.16730688512325287,"388":0.48277735710144043,"389":-1.4067655801773071,"390":2.037928342819214,"391":0.9601309299468994,"392":1.2250663042068481,"393":0.5479066967964172,"394":1.3077707290649414,"395":-0.5351434946060181,"396":-1.640698790550232,"397":0.014775458723306656,"398":-1.1011762619018555,"399":1.049444317817688}},"outputBias":{"rows":20,"columns":1,"weights":{"0":-0.47279611229896545,"1":-0.5556347370147705,"2":-1.2097201347351074,"3":-1.1238492727279663,"4":-1.1339919567108154,"5":-1.0346698760986328,"6":-0.9721612930297852,"7":-0.5012130737304688,"8":-0.8387631773948669,"9":-1.158323884010315,"10":-0.4021654427051544,"11":-0.9611271619796753,"12":-1.197181224822998,"13":-1.106371521949768,"14":-0.4495258033275604,"15":-0.9361268281936646,"16":-0.43762511014938354,"17":-0.8049817085266113,"18":-0.5307783484458923,"19":-0.5250489115715027}},"cellActivationMatrix":{"rows":20,"columns":1,"weights":{"0":-0.9584149122238159,"1":1.7443127632141113,"2":1.6468250751495361,"3":-1.2785284519195557,"4":-0.7229217290878296,"5":2.462531089782715,"6":-0.04003254324197769,"7":0.09757783263921738,"8":-2.76292085647583,"9":-1.2506334781646729,"10":1.0169963836669922,"11":0.17206846177577972,"12":0.41190314292907715,"13":-2.1539244651794434,"14":1.1254512071609497,"15":2.9744534492492676,"16":-0.3823297321796417,"17":-3.3782591819763184,"18":-0.5484825968742371,"19":1.4985830783843994}},"cellActivationHidden":{"rows":20,"columns":20,"weights":{"0":1.035307765007019,"1":0.4589225947856903,"2":-0.623566210269928,"3":-0.5718366503715515,"4":-1.0708699226379395,"5":0.02289821393787861,"6":-0.8669895529747009,"7":-0.0623987540602684,"8":0.4736555814743042,"9":1.4947116374969482,"10":-0.9586151838302612,"11":-0.49074786901474,"12":-1.6620601415634155,"13":0.28484153747558594,"14":-1.5639889240264893,"15":-2.0600860118865967,"16":-0.7928085327148438,"17":-0.39924073219299316,"18":-1.3804329633712769,"19":-2.050232172012329,"20":-0.019170990213751793,"21":2.5070078372955322,"22":0.509929358959198,"23":1.2415086030960083,"24":2.5102145671844482,"25":-0.5955828428268433,"26":-2.307802677154541,"27":-0.827751636505127,"28":-2.9011752605438232,"29":-0.12476152926683426,"30":0.5004853010177612,"31":0.8577587008476257,"32":-2.722745180130005,"33":0.890903890132904,"34":-0.3030242919921875,"35":-1.2449759244918823,"36":-0.8419415354728699,"37":-1.8570435047149658,"38":-0.9114704728126526,"39":-0.4127368628978729,"40":-1.6670140027999878,"41":0.014618554152548313,"42":2.181633949279785,"43":1.0416743755340576,"44":0.8018914461135864,"45":-0.07266082614660263,"46":1.388832926750183,"47":-1.6944345235824585,"48":0.7138549089431763,"49":1.179067850112915,"50":-1.2694504261016846,"51":0.5724307894706726,"52":1.6456472873687744,"53":0.7881477475166321,"54":-0.8720402121543884,"55":0.605911135673523,"56":0.6110327243804932,"57":0.441675066947937,"58":-0.010635255835950375,"59":-0.6707753539085388,"60":-0.11119136959314346,"61":0.27870190143585205,"62":-0.20776034891605377,"63":3.8165438175201416,"64":1.3846436738967896,"65":-3.6681056022644043,"66":1.0385262966156006,"67":-0.40812402963638306,"68":0.858200192451477,"69":0.14551448822021484,"70":0.40273407101631165,"71":1.6163212060928345,"72":0.33376646041870117,"73":3.8281514644622803,"74":1.1414661407470703,"75":-0.5254764556884766,"76":0.12103652954101562,"77":0.3343814015388489,"78":0.576907217502594,"79":0.5144635438919067,"80":0.7744902968406677,"81":1.8111491203308105,"82":2.084695816040039,"83":-0.8147478699684143,"84":-0.6559028625488281,"85":0.10338003933429718,"86":-0.627328634262085,"87":1.1219227313995361,"88":-0.5013538002967834,"89":0.43836233019828796,"90":-0.1785230189561844,"91":-1.6501202583312988,"92":0.5983075499534607,"93":-0.46805134415626526,"94":-0.5654910802841187,"95":-0.6241921186447144,"96":0.5654289722442627,"97":0.15419569611549377,"98":-0.03830069676041603,"99":-0.476340115070343,"100":-0.45992547273635864,"101":-0.29103177785873413,"102":0.531654953956604,"103":-1.336450457572937,"104":-0.295718789100647,"105":0.5189676880836487,"106":-0.8155554533004761,"107":1.1852930784225464,"108":-0.8989903330802917,"109":-0.8780283331871033,"110":-0.9293839335441589,"111":-1.7408509254455566,"112":-1.4972422122955322,"113":-1.4783828258514404,"114":-0.9057185649871826,"115":0.15862774848937988,"116":0.9612728953361511,"117":-0.41192686557769775,"118":-0.1211279034614563,"119":-0.5793607234954834,"120":-0.15648716688156128,"121":-2.2112388610839844,"122":1.2233856916427612,"123":-0.1261460781097412,"124":0.1267017424106598,"125":0.32060351967811584,"126":0.8548434972763062,"127":1.5866612195968628,"128":0.8492322564125061,"129":-1.114431381225586,"130":-1.627539873123169,"131":-0.9335548877716064,"132":0.12400656938552856,"133":-0.47757917642593384,"134":-0.6197926998138428,"135":0.6666929721832275,"136":0.1672464907169342,"137":1.6576569080352783,"138":-0.30786368250846863,"139":-0.49612221121788025,"140":1.4480700492858887,"141":1.4782944917678833,"142":-1.0415709018707275,"143":-1.2053308486938477,"144":1.616652250289917,"145":1.1723525524139404,"146":0.9423221349716187,"147":0.15752260386943817,"148":1.7347500324249268,"149":2.3954691886901855,"150":-0.3159269690513611,"151":-0.07085352391004562,"152":0.4324336051940918,"153":-1.0432137250900269,"154":-2.081033229827881,"155":-1.8674129247665405,"156":-0.7481232285499573,"157":-0.6509358882904053,"158":-1.6268048286437988,"159":-2.3352038860321045,"160":0.8381153345108032,"161":0.9058305025100708,"162":-0.49942922592163086,"163":-1.5530015230178833,"164":0.3930836617946625,"165":0.7322152853012085,"166":-0.6282691955566406,"167":-0.16853676736354828,"168":0.9472287893295288,"169":0.7257665395736694,"170":-0.02688491903245449,"171":-0.07361707091331482,"172":-0.5229417085647583,"173":-0.9472303986549377,"174":-0.013348727487027645,"175":0.05471283197402954,"176":-0.17610220611095428,"177":-0.3509785234928131,"178":-2.8343615531921387,"179":0.135328471660614,"180":0.7435560822486877,"181":0.37879717350006104,"182":0.24984519183635712,"183":-1.4931002855300903,"184":-1.0904451608657837,"185":0.596825361251831,"186":-1.132973074913025,"187":-0.03017885982990265,"188":-0.19567790627479553,"189":0.3250714838504791,"190":-0.014335466548800468,"191":-0.7783776521682739,"192":-1.4559699296951294,"193":-0.8858872652053833,"194":0.01842147670686245,"195":-0.48117849230766296,"196":-0.39893829822540283,"197":-0.33575505018234253,"198":-0.1627541184425354,"199":0.1916920691728592,"200":-0.10508522391319275,"201":-0.3132660686969757,"202":-0.24698996543884277,"203":0.3484691083431244,"204":-2.275290012359619,"205":-0.7967520356178284,"206":0.27863943576812744,"207":0.18427933752536774,"208":-0.26069962978363037,"209":0.5902135372161865,"210":-0.4454863369464874,"211":0.03190659359097481,"212":0.32083994150161743,"213":0.8663168549537659,"214":-0.9262897372245789,"215":-0.8908263444900513,"216":-0.0388127900660038,"217":0.21387048065662384,"218":-0.6822673678398132,"219":-0.9743802547454834,"220":0.2730935215950012,"221":-2.215489387512207,"222":-0.46748098731040955,"223":0.3157345652580261,"224":0.6779012084007263,"225":0.05614226683974266,"226":-0.26638808846473694,"227":1.7923699617385864,"228":-0.2717515230178833,"229":0.4660363793373108,"230":0.96319180727005,"231":1.1853662729263306,"232":-1.2752373218536377,"233":0.5987382531166077,"234":0.7433575391769409,"235":0.2759271264076233,"236":0.025542907416820526,"237":0.23489639163017273,"238":0.2614971101284027,"239":0.9721047878265381,"240":-0.826840877532959,"241":-2.442613124847412,"242":1.1497504711151123,"243":0.39083772897720337,"244":-1.7757219076156616,"245":-0.32310229539871216,"246":0.8160883784294128,"247":1.9510142803192139,"248":0.4629935026168823,"249":-1.1274104118347168,"250":-0.048972830176353455,"251":-0.015602672472596169,"252":-0.44396549463272095,"253":-0.019515126943588257,"254":0.02343953400850296,"255":1.0328046083450317,"256":0.1200115755200386,"257":1.9139471054077148,"258":0.41123420000076294,"259":0.1705332249403,"260":0.0732499435544014,"261":-0.08034371584653854,"262":-0.4396659731864929,"263":2.0055532455444336,"264":0.40298089385032654,"265":-0.8329119086265564,"266":0.9666529893875122,"267":-1.2325986623764038,"268":0.8278179168701172,"269":0.38617658615112305,"270":0.6267319917678833,"271":1.671832799911499,"272":0.9559433460235596,"273":2.4144859313964844,"274":0.9198492765426636,"275":0.021811798214912415,"276":-0.5954840779304504,"277":0.5528943538665771,"278":0.6900091171264648,"279":0.6092674136161804,"280":-0.5851629972457886,"281":-1.0851490497589111,"282":0.09072885662317276,"283":0.7016058564186096,"284":-2.1175575256347656,"285":-0.8045045733451843,"286":0.13715974986553192,"287":-0.6175873279571533,"288":-0.2617603838443756,"289":-0.19055059552192688,"290":-0.8286188244819641,"291":0.03076089546084404,"292":-0.8402957320213318,"293":1.8165764808654785,"294":-0.288703054189682,"295":-0.4507036507129669,"296":0.43194669485092163,"297":0.1473970264196396,"298":0.7930840253829956,"299":-0.7018055319786072,"300":-1.6921123266220093,"301":-1.5406906604766846,"302":1.3692569732666016,"303":-1.0675971508026123,"304":-0.5996940732002258,"305":0.1162307932972908,"306":-0.0856020450592041,"307":1.223034143447876,"308":-0.6574777960777283,"309":-1.725500464439392,"310":-0.3095390200614929,"311":-1.738354206085205,"312":0.3642672300338745,"313":-0.4759651720523834,"314":-0.3744830787181854,"315":0.6111138463020325,"316":1.5494049787521362,"317":1.090775728225708,"318":2.108834981918335,"319":-0.26807689666748047,"320":0.8227719664573669,"321":-0.13569729030132294,"322":0.6443547010421753,"323":-0.25669267773628235,"324":1.2949966192245483,"325":0.37066054344177246,"326":0.4890397787094116,"327":0.30025723576545715,"328":0.6946632266044617,"329":-0.04233136773109436,"330":2.288239002227783,"331":0.2624835968017578,"332":1.4953691959381104,"333":-0.2720993161201477,"334":1.5826621055603027,"335":1.0537327527999878,"336":-1.031792402267456,"337":0.3538444936275482,"338":1.0712088346481323,"339":1.2942156791687012,"340":1.2328661680221558,"341":-0.9265371561050415,"342":-1.1399403810501099,"343":-0.0019564509857445955,"344":-0.3876825273036957,"345":-0.08361934125423431,"346":1.6633220911026,"347":-0.12430929392576218,"348":1.9238920211791992,"349":2.016969919204712,"350":0.2704404294490814,"351":1.049359679222107,"352":2.2395191192626953,"353":-0.1194184273481369,"354":0.1510731428861618,"355":-0.4554804563522339,"356":-0.651593029499054,"357":1.2150139808654785,"358":0.028126245364546776,"359":-0.19813363254070282,"360":-0.36315861344337463,"361":-0.8079506754875183,"362":-0.037090979516506195,"363":3.527435302734375,"364":0.36034271121025085,"365":-1.3582900762557983,"366":1.0590344667434692,"367":0.1455935835838318,"368":0.5825074315071106,"369":-0.19029320776462555,"370":1.2930282354354858,"371":1.4579144716262817,"372":0.7779631614685059,"373":3.904357433319092,"374":1.9579507112503052,"375":1.2806645631790161,"376":-0.12337253242731094,"377":0.6491329669952393,"378":1.753477931022644,"379":1.2825971841812134,"380":-0.6671883463859558,"381":-1.0127934217453003,"382":0.24878691136837006,"383":0.2519502341747284,"384":-2.2328898906707764,"385":-0.7260844111442566,"386":-0.0396231934428215,"387":-0.5189776420593262,"388":-0.6282408833503723,"389":-0.3701557517051697,"390":-0.2111751139163971,"391":-0.3594975471496582,"392":-0.16048403084278107,"393":1.2483413219451904,"394":-0.17740069329738617,"395":-0.2075709104537964,"396":0.47581952810287476,"397":0.4106302559375763,"398":1.4325181245803833,"399":-0.2708258032798767}},"cellActivationBias":{"rows":20,"columns":1,"weights":{"0":0.31310713291168213,"1":-0.24346520006656647,"2":0.08298130333423615,"3":-0.06507182866334915,"4":0.10549251735210419,"5":-0.20997844636440277,"6":-0.2150244116783142,"7":0.540814995765686,"8":0.3403885066509247,"9":-0.27731287479400635,"10":0.009404942393302917,"11":-0.2873547077178955,"12":-0.050353020429611206,"13":-0.009646311402320862,"14":-0.06959018856287003,"15":-0.2473931908607483,"16":0.022753113880753517,"17":0.5139961242675781,"18":0.10508446395397186,"19":-0.09225430339574814}}}],"outputConnector":{"rows":1,"columns":20,"weights":{"0":0.49686866998672485,"1":-0.21442371606826782,"2":1.0259287357330322,"3":-0.9956275224685669,"4":-0.5931993722915649,"5":0.8454712629318237,"6":-0.4447668194770813,"7":0.5850620865821838,"8":-0.28212201595306396,"9":-0.5892669558525085,"10":0.2099485993385315,"11":-0.667712390422821,"12":-0.4860995411872864,"13":-0.881623387336731,"14":0.36929643154144287,"15":1.050411343574524,"16":-0.1469043791294098,"17":-0.6425142288208008,"18":-0.004874080885201693,"19":0.40997248888015747}},"output":{"rows":1,"columns":1,"weights":{"0":-0.02505086176097393}},"inputLookup":null,"inputLookupLength":null,"outputLookup":null,"outputLookupLength":null}