{"type":"n","options":{"inputSize":3,"hiddenLayers":[20],"outputSize":3,"decayRate":0.999,"smoothEps":1e-8,"regc":0.000001,"clipval":5},"hiddenLayers":[{"inputMatrix":{"rows":20,"columns":3,"weights":{"0":-0.15607893466949463,"1":-0.2272215634584427,"2":-0.25680577754974365,"3":-0.2493285834789276,"4":-0.2143355906009674,"5":-0.18226172029972076,"6":-0.21580100059509277,"7":-0.21376241743564606,"8":-0.23212681710720062,"9":-0.17658452689647675,"10":-0.1779497116804123,"11":-0.16928637027740479,"12":-0.1693791151046753,"13":-0.3885783851146698,"14":-0.31506380438804626,"15":-0.03667173907160759,"16":-0.16545087099075317,"17":-0.1213328167796135,"18":0.18230417370796204,"19":0.02733072265982628,"20":0.19929128885269165,"21":-0.12107785791158676,"22":-0.2757059931755066,"23":-0.18996575474739075,"24":-0.05820978432893753,"25":-0.16519010066986084,"26":-0.005061253905296326,"27":-0.4018213152885437,"28":-0.4533824920654297,"29":-0.42617279291152954,"30":-0.25111690163612366,"31":-0.27291831374168396,"32":-0.3059929311275482,"33":-0.23096905648708344,"34":-0.22928950190544128,"35":-0.3025723993778229,"36":-0.11180610954761505,"37":-0.3430141508579254,"38":-0.21369053423404694,"39":-0.35338184237480164,"40":-0.4803411364555359,"41":-0.4544902741909027,"42":0.0031658196821808815,"43":-0.16490332782268524,"44":-0.04569290205836296,"45":-0.3091565668582916,"46":-0.19782625138759613,"47":-0.2527752220630646,"48":-0.1712445467710495,"49":-0.3340502679347992,"50":-0.22855356335639954,"51":-0.23651543259620667,"52":-0.28136879205703735,"53":-0.29845941066741943,"54":-0.21073201298713684,"55":-0.40961217880249023,"56":-0.2712816596031189,"57":-0.04842197522521019,"58":-0.27813026309013367,"59":-0.2674401104450226}},"inputHidden":{"rows":20,"columns":20,"weights":{"0":-0.581911563873291,"1":0.018859021365642548,"2":-0.029330380260944366,"3":0.4479680061340332,"4":0.18334171175956726,"5":-0.01982164941728115,"6":-0.3333752155303955,"7":0.13384239375591278,"8":0.0621180385351181,"9":0.08049944788217545,"10":0.3272281289100647,"11":-0.20525072515010834,"12":0.15613672137260437,"13":-0.1462521106004715,"14":0.03823915496468544,"15":-0.0028240710962563753,"16":0.16013818979263306,"17":-0.06934228539466858,"18":-0.3509555160999298,"19":0.13542531430721283,"20":0.37916406989097595,"21":-0.24344821274280548,"22":0.5803267359733582,"23":-0.1539878249168396,"24":-0.3398756682872772,"25":0.647370457649231,"26":0.32331016659736633,"27":-0.3078598976135254,"28":0.5582494735717773,"29":0.580334484577179,"30":-0.21900296211242676,"31":0.3183300495147705,"32":-0.261330246925354,"33":0.3464851379394531,"34":0.5092999935150146,"35":0.6837594509124756,"36":-0.2513045072555542,"37":-0.6633102297782898,"38":0.16325673460960388,"39":-0.2721474766731262,"40":-0.3027799725532532,"41":0.1172967180609703,"42":-0.10855156928300858,"43":0.39935728907585144,"44":0.020154422149062157,"45":-0.014009124599397182,"46":-0.3588227927684784,"47":0.10520747303962708,"48":0.0005721832858398557,"49":-0.07247580587863922,"50":0.3497079014778137,"51":-0.15456035733222961,"52":0.2767602801322937,"53":-0.27415186166763306,"54":0.05695699527859688,"55":0.008946620859205723,"56":-0.021115319803357124,"57":-0.0654473528265953,"58":-0.2798784673213959,"59":0.07390925288200378,"60":0.5888530015945435,"61":-0.19969278573989868,"62":0.6454189419746399,"63":-0.2556719481945038,"64":-0.2446998804807663,"65":0.6153724193572998,"66":0.19770774245262146,"67":-0.2615933120250702,"68":0.48856812715530396,"69":0.09542014449834824,"70":-0.30392226576805115,"71":0.2351101189851761,"72":-0.21263158321380615,"73":0.19391489028930664,"74":0.4980134963989258,"75":0.595228910446167,"76":-0.15962761640548706,"77":-0.5160172581672668,"78":0.2880266308784485,"79":-0.23662139475345612,"80":0.4064364731311798,"81":-0.29023125767707825,"82":0.5424396991729736,"83":-0.13732218742370605,"84":-0.3413885533809662,"85":0.6584672331809998,"86":0.22160768508911133,"87":-0.29263776540756226,"88":0.6457129120826721,"89":0.5072702169418335,"90":-0.2574387192726135,"91":0.2685618996620178,"92":-0.24781350791454315,"93":0.3590909242630005,"94":0.6042079329490662,"95":0.6856757402420044,"96":-0.42524728178977966,"97":-0.5662881731987,"98":0.3354560434818268,"99":-0.35201558470726013,"100":-0.060143325477838516,"101":0.008469616062939167,"102":0.021512338891625404,"103":0.4738522469997406,"104":0.00861678458750248,"105":0.0462629571557045,"106":-0.48777496814727783,"107":0.06747717410326004,"108":0.0542377270758152,"109":-0.04861956089735031,"110":0.3191174566745758,"111":-0.12669070065021515,"112":0.24197322130203247,"113":-0.2668324112892151,"114":-0.03269224613904953,"115":-0.005363105796277523,"116":0.004362013190984726,"117":-0.061551980674266815,"118":-0.18983319401741028,"119":-0.04573074355721474,"120":0.4071721136569977,"121":-0.46829837560653687,"122":0.6910130381584167,"123":-0.25183814764022827,"124":-0.40408775210380554,"125":0.6869324445724487,"126":-0.11765751987695694,"127":-0.4474460482597351,"128":0.7275756001472473,"129":0.5636390447616577,"130":-0.2358243465423584,"131":0.31168803572654724,"132":-0.22200769186019897,"133":0.24773655831813812,"134":0.7425663471221924,"135":0.683157205581665,"136":-0.37609824538230896,"137":-0.5235386490821838,"138":0.2841467559337616,"139":-0.4925680458545685,"140":0.48240604996681213,"141":-0.3069000542163849,"142":0.6091942191123962,"143":-0.1686098873615265,"144":-0.3829476237297058,"145":0.6624971628189087,"146":0.1960335522890091,"147":-0.3709716498851776,"148":0.6985458731651306,"149":0.5560195446014404,"150":-0.21248859167099,"151":0.34374329447746277,"152":-0.2771747410297394,"153":0.40444496273994446,"154":0.5855171084403992,"155":0.60965895652771,"156":-0.3183843195438385,"157":-0.6916092038154602,"158":0.24063172936439514,"159":-0.43004462122917175,"160":0.25856950879096985,"161":0.02982107363641262,"162":0.14790941774845123,"163":0.4161777198314667,"164":-0.06407374143600464,"165":0.2739453613758087,"166":-0.34243276715278625,"167":-0.06717035919427872,"168":0.2917948365211487,"169":0.09003278613090515,"170":0.37289780378341675,"171":0.0698847845196724,"172":0.2082684487104416,"173":0.1196126714348793,"174":0.1957913190126419,"175":0.33351945877075195,"176":-0.1062164232134819,"177":-0.23829925060272217,"178":-0.06144335865974426,"179":-0.04559091851115227,"180":0.3695497214794159,"181":-0.34564530849456787,"182":0.3314947187900543,"183":-0.29076650738716125,"184":-0.442751407623291,"185":0.3847000002861023,"186":0.4656422734260559,"187":-0.3606817424297333,"188":0.4954700469970703,"189":0.5937118530273438,"190":-0.373626708984375,"191":0.37476998567581177,"192":-0.3802676498889923,"193":0.41255003213882446,"194":0.31434881687164307,"195":0.381667822599411,"196":-0.34484636783599854,"197":-0.5293875932693481,"198":0.41256746649742126,"199":-0.3833906352519989,"200":0.4999468922615051,"201":-0.2900923788547516,"202":0.5489041805267334,"203":-0.2734520733356476,"204":-0.28288841247558594,"205":0.6744429469108582,"206":0.12794820964336395,"207":-0.2611641585826874,"208":0.6556296944618225,"209":0.3326534628868103,"210":-0.28802934288978577,"211":0.34670451283454895,"212":-0.27568796277046204,"213":0.3610931932926178,"214":0.5502995252609253,"215":0.6452508568763733,"216":-0.311604768037796,"217":-0.5967873334884644,"218":0.21333809196949005,"219":-0.3724825978279114,"220":0.5716502666473389,"221":-0.22413304448127747,"222":0.6072879433631897,"223":-0.1740715056657791,"224":-0.37444543838500977,"225":0.5887360572814941,"226":0.2552012503147125,"227":-0.27370357513427734,"228":0.6247439384460449,"229":0.5219096541404724,"230":-0.2583506107330322,"231":0.26256152987480164,"232":-0.30798786878585815,"233":0.2869167923927307,"234":0.611943781375885,"235":0.5846646428108215,"236":-0.326314777135849,"237":-0.6431519389152527,"238":0.2888600528240204,"239":-0.4628518521785736,"240":0.45853856205940247,"241":-0.3325948715209961,"242":0.5727087259292603,"243":-0.20588314533233643,"244":-0.37449175119400024,"245":0.6916612386703491,"246":0.05819496884942055,"247":-0.39064839482307434,"248":0.6967448592185974,"249":0.45145753026008606,"250":-0.273306280374527,"251":0.27537980675697327,"252":-0.1775953769683838,"253":0.2455485314130783,"254":0.6822245121002197,"255":0.5563773512840271,"256":-0.3082500994205475,"257":-0.6140913963317871,"258":0.3078305423259735,"259":-0.4723726511001587,"260":0.5515363812446594,"261":-0.2947833240032196,"262":0.5375660061836243,"263":-0.22214339673519135,"264":-0.275692343711853,"265":0.5950037240982056,"266":0.23846535384655,"267":-0.34281888604164124,"268":0.6639196276664734,"269":0.372332364320755,"270":-0.27761533856391907,"271":0.2744680941104889,"272":-0.2817234694957733,"273":0.2968745529651642,"274":0.5008516311645508,"275":0.6218772530555725,"276":-0.28426986932754517,"277":-0.5842125415802002,"278":0.2601615786552429,"279":-0.3052705228328705,"280":-0.3053722679615021,"281":0.012388910166919231,"282":-0.042786624282598495,"283":0.4906098544597626,"284":0.03542708232998848,"285":0.050842247903347015,"286":-0.4447018504142761,"287":-0.03841003403067589,"288":0.06781421601772308,"289":-0.0010504553792998195,"290":0.3938847780227661,"291":-0.05272069573402405,"292":0.24714341759681702,"293":-0.14476943016052246,"294":0.06735534220933914,"295":0.09785982966423035,"296":-0.004501056391745806,"297":-0.05193290114402771,"298":-0.09376121312379837,"299":-0.045444611459970474,"300":0.03532949090003967,"301":0.1307712197303772,"302":0.003204041626304388,"303":0.4309597909450531,"304":0.04567481577396393,"305":0.022508617490530014,"306":-0.1423279196023941,"307":0.09297449886798859,"308":0.20612645149230957,"309":0.1398853063583374,"310":0.33575066924095154,"311":-0.07859059423208237,"312":0.052893076092004776,"313":-0.019297653809189796,"314":-0.012050087563693523,"315":0.07425976544618607,"316":0.04936569929122925,"317":-0.22010286152362823,"318":-0.1294921636581421,"319":-0.0029401048086583614,"320":0.39355719089508057,"321":-0.3281337022781372,"322":0.5228677988052368,"323":-0.2326119840145111,"324":-0.3315141499042511,"325":0.541903018951416,"326":0.274088978767395,"327":-0.27880868315696716,"328":0.5813518762588501,"329":0.5178089141845703,"330":-0.221842959523201,"331":0.33610278367996216,"332":-0.23204748332500458,"333":0.2968994975090027,"334":0.6273046135902405,"335":0.603108286857605,"336":-0.3194904327392578,"337":-0.6695003509521484,"338":0.2857603132724762,"339":-0.41538384556770325,"340":0.07348329573869705,"341":0.18862710893154144,"342":0.09183661639690399,"343":0.40301620960235596,"344":0.20221611857414246,"345":0.12520448863506317,"346":0.023532459512352943,"347":0.12178966403007507,"348":0.1706797033548355,"349":0.19118165969848633,"350":0.22665421664714813,"351":-0.0530584342777729,"352":-0.019111651927232742,"353":-0.056514061987400055,"354":0.046522047370672226,"355":0.15289835631847382,"356":0.07144667953252792,"357":-0.18240931630134583,"358":-0.1231929212808609,"359":0.088649220764637,"360":0.5571861267089844,"361":-0.2090536653995514,"362":0.6168503761291504,"363":-0.12585331499576569,"364":-0.36504241824150085,"365":0.6439415812492371,"366":0.3105034828186035,"367":-0.304762601852417,"368":0.6193263530731201,"369":0.46687817573547363,"370":-0.17535343766212463,"371":0.3192988932132721,"372":-0.2544039785861969,"373":0.3227984309196472,"374":0.6365255117416382,"375":0.6109142303466797,"376":-0.32588404417037964,"377":-0.5816610455513,"378":0.22101245820522308,"379":-0.43522655963897705,"380":0.23838013410568237,"381":-0.375351220369339,"382":0.5169568657875061,"383":-0.11358239501714706,"384":-0.32037076354026794,"385":0.5451561808586121,"386":0.2741035521030426,"387":-0.3210664391517639,"388":0.703920304775238,"389":0.45041143894195557,"390":-0.17796003818511963,"391":0.33730942010879517,"392":-0.2227005809545517,"393":0.4008941650390625,"394":0.5594642162322998,"395":0.6145530343055725,"396":-0.4513217508792877,"397":-0.5769163966178894,"398":0.23246927559375763,"399":-0.44519633054733276}},"inputBias":{"rows":20,"columns":1,"weights":{"0":-0.2640903890132904,"1":-0.1383509337902069,"2":-0.5596519112586975,"3":-0.6365722417831421,"4":-0.07497521489858627,"5":-0.48480427265167236,"6":0.032621052116155624,"7":-0.17370805144309998,"8":-0.4339875280857086,"9":0.13738569617271423,"10":-0.26031211018562317,"11":-0.17896391451358795,"12":-0.009724871255457401,"13":-0.35782086849212646,"14":-0.6264457106590271,"15":-0.5632956624031067,"16":-0.03615317493677139,"17":-0.46246999502182007,"18":0.013282546773552895,"19":-0.1292199194431305}},"forgetMatrix":{"rows":20,"columns":3,"weights":{"0":-0.2117326855659485,"1":-0.0862855538725853,"2":-0.25721701979637146,"3":-0.04423841834068298,"4":-0.08177721500396729,"5":-0.08563614636659622,"6":-0.2041502296924591,"7":-0.2240818738937378,"8":-0.1461428552865982,"9":-0.2062351405620575,"10":-0.2312435805797577,"11":-0.19867028295993805,"12":-0.1414911299943924,"13":-0.2438722550868988,"14":-0.25360289216041565,"15":0.049721911549568176,"16":0.1280052363872528,"17":0.07094868272542953,"18":0.5024114847183228,"19":0.22970618307590485,"20":0.32315099239349365,"21":-0.160447359085083,"22":-0.23485121130943298,"23":-0.18865050375461578,"24":0.5480496287345886,"25":0.44957560300827026,"26":0.5173296332359314,"27":-0.497029185295105,"28":-0.5247493982315063,"29":-0.4658478796482086,"30":-0.25237685441970825,"31":-0.3160620331764221,"32":-0.20381273329257965,"33":-0.18964599072933197,"34":-0.2362293004989624,"35":-0.14694665372371674,"36":0.049611497670412064,"37":-0.200879767537117,"38":-0.1758589744567871,"39":-0.4102040231227875,"40":-0.3109190762042999,"41":-0.28667691349983215,"42":-0.11215244233608246,"43":0.059438932687044144,"44":0.0036077084951102734,"45":-0.2141386717557907,"46":-0.12200711667537689,"47":-0.1490592509508133,"48":-0.16789045929908752,"49":-0.21238532662391663,"50":-0.2674312889575958,"51":-0.09003198146820068,"52":-0.026346417143940926,"53":-0.07248704135417938,"54":-0.1470337212085724,"55":-0.3528173565864563,"56":-0.2969514727592468,"57":-0.27415695786476135,"58":-0.3234442174434662,"59":-0.28005409240722656}},"forgetHidden":{"rows":20,"columns":20,"weights":{"0":0.013123670592904091,"1":0.28559425473213196,"2":-0.0686521902680397,"3":0.43028005957603455,"4":0.5098671913146973,"5":0.024021681398153305,"6":-0.5313234329223633,"7":0.46072903275489807,"8":0.11026030778884888,"9":-0.33722567558288574,"10":0.5239115953445435,"11":-0.4409147799015045,"12":0.37397515773773193,"13":-0.49275481700897217,"14":0.00159438606351614,"15":0.08819642663002014,"16":0.5596784949302673,"17":-0.09988951683044434,"18":-0.566741406917572,"19":0.5219882130622864,"20":0.3889273405075073,"21":-0.3021204173564911,"22":0.35333356261253357,"23":-0.3038294315338135,"24":-0.3777186870574951,"25":0.36860892176628113,"26":0.358049213886261,"27":-0.41276952624320984,"28":0.45999497175216675,"29":0.5126362442970276,"30":-0.3483361601829529,"31":0.44293659925460815,"32":-0.41078054904937744,"33":0.35468026995658875,"34":0.35231533646583557,"35":0.40463143587112427,"36":-0.3353557884693146,"37":-0.378051221370697,"38":0.3980381488800049,"39":-0.4248799681663513,"40":0.056950587779283524,"41":0.12864385545253754,"42":-0.035679303109645844,"43":0.3937114477157593,"44":0.14121904969215393,"45":0.002193574793636799,"46":-0.2723850607872009,"47":0.17120113968849182,"48":0.01873924769461155,"49":-0.22012221813201904,"50":0.40988993644714355,"51":-0.1590971201658249,"52":0.262503445148468,"53":-0.49326491355895996,"54":-0.024334605783224106,"55":0.00467318668961525,"56":0.20479179918766022,"57":0.05404866486787796,"58":-0.26200732588768005,"59":0.11065676063299179,"60":0.4418262541294098,"61":-0.3658423125743866,"62":0.42095404863357544,"63":-0.25265368819236755,"64":-0.2770008146762848,"65":0.475579172372818,"66":0.2122446894645691,"67":-0.3901931941509247,"68":0.5237470865249634,"69":0.14132140576839447,"70":-0.2952282130718231,"71":0.2724974453449249,"72":-0.21663253009319305,"73":0.20361261069774628,"74":0.3808063566684723,"75":0.370775043964386,"76":-0.23147393763065338,"77":-0.4203953146934509,"78":0.2807212769985199,"79":-0.2964858114719391,"80":0.2843669652938843,"81":-0.38109248876571655,"82":0.4572935998439789,"83":-0.3555324673652649,"84":-0.4222773611545563,"85":0.35843077301979065,"86":0.4118759036064148,"87":-0.3153834640979767,"88":0.5900687575340271,"89":0.5131931304931641,"90":-0.41169464588165283,"91":0.369221955537796,"92":-0.3496711850166321,"93":0.4301990568637848,"94":0.4669557809829712,"95":0.41747480630874634,"96":-0.37773770093917847,"97":-0.3837744891643524,"98":0.3205147683620453,"99":-0.46176859736442566,"100":0.031964462250471115,"101":0.1522165834903717,"102":0.02755645290017128,"103":0.215056911110878,"104":0.145856112241745,"105":0.05115902051329613,"106":-0.27423378825187683,"107":0.08951696753501892,"108":0.13122399151325226,"109":-0.25792476534843445,"110":0.20164869725704193,"111":-0.05850190296769142,"112":0.23227918148040771,"113":-0.2627180516719818,"114":-0.014560380019247532,"115":0.045859865844249725,"116":0.07040834426879883,"117":-0.03333014249801636,"118":-0.17349912226200104,"119":0.0807424783706665,"120":0.2221090942621231,"121":-0.4094678461551666,"122":0.5793713331222534,"123":-0.39611074328422546,"124":-0.43984851241111755,"125":0.6053735613822937,"126":-0.22375665605068207,"127":-0.47028711438179016,"128":0.8889917135238647,"129":0.49093806743621826,"130":-0.22179658710956573,"131":0.434710294008255,"132":-0.13287915289402008,"133":0.36003556847572327,"134":0.6234951615333557,"135":0.5209229588508606,"136":-0.4529607892036438,"137":-0.4638393521308899,"138":0.37242284417152405,"139":-0.41685983538627625,"140":0.3737430274486542,"141":-0.2962525188922882,"142":0.3447078466415405,"143":-0.3760645091533661,"144":-0.32327309250831604,"145":0.4651574492454529,"146":0.3999350368976593,"147":-0.37726521492004395,"148":0.5069563388824463,"149":0.5044533610343933,"150":-0.27647751569747925,"151":0.37981319427490234,"152":-0.39650997519493103,"153":0.46035873889923096,"154":0.377692848443985,"155":0.3806760311126709,"156":-0.4020422399044037,"157":-0.35770905017852783,"158":0.30305150151252747,"159":-0.40331897139549255,"160":0.04009222984313965,"161":0.09156554937362671,"162":-0.08846250921487808,"163":-0.00046666033449582756,"164":-0.04609934613108635,"165":-0.38536307215690613,"166":-0.13361205160617828,"167":-0.022831860929727554,"168":-0.3466612994670868,"169":0.2248345911502838,"170":0.11949669569730759,"171":-0.05788426846265793,"172":-0.025045275688171387,"173":0.056008126586675644,"174":0.013615024276077747,"175":-0.3026163876056671,"176":0.010800674557685852,"177":0.39617061614990234,"178":-0.0013136666966602206,"179":-0.0494932159781456,"180":0.062317878007888794,"181":-0.47582781314849854,"182":0.2669724225997925,"183":-0.2749762535095215,"184":-0.5159119963645935,"185":0.30300024151802063,"186":0.5069842338562012,"187":-0.3994443118572235,"188":0.6417326331138611,"189":0.70073401927948,"190":-0.3010697662830353,"191":0.37100619077682495,"192":-0.532939076423645,"193":0.5630318522453308,"194":0.2751809060573578,"195":0.35352733731269836,"196":-0.49936485290527344,"197":-0.5881194472312927,"198":0.46147552132606506,"199":-0.5200469493865967,"200":0.4524364769458771,"201":-0.32875439524650574,"202":0.44014567136764526,"203":-0.3191990256309509,"204":-0.29041802883148193,"205":0.39931049942970276,"206":0.25433793663978577,"207":-0.3226606249809265,"208":0.4419018626213074,"209":0.3903701603412628,"210":-0.30233052372932434,"211":0.34733712673187256,"212":-0.24766604602336884,"213":0.315847247838974,"214":0.3474220931529999,"215":0.3616708219051361,"216":-0.3088341951370239,"217":-0.35043469071388245,"218":0.2501411736011505,"219":-0.28016412258148193,"220":0.3404421806335449,"221":-0.3582799732685089,"222":0.46425166726112366,"223":-0.2456924170255661,"224":-0.43381112813949585,"225":0.43156304955482483,"226":0.3149121105670929,"227":-0.4168609082698822,"228":0.5063167214393616,"229":0.4230731725692749,"230":-0.3391388952732086,"231":0.3891178071498871,"232":-0.3882153034210205,"233":0.39544105529785156,"234":0.47749271988868713,"235":0.47838327288627625,"236":-0.35252097249031067,"237":-0.5202381610870361,"238":0.35063403844833374,"239":-0.4491819441318512,"240":0.34315380454063416,"241":-0.4107394516468048,"242":0.5212598443031311,"243":-0.337157666683197,"244":-0.35601338744163513,"245":0.4286717176437378,"246":0.1396566480398178,"247":-0.36003729701042175,"248":0.7031946778297424,"249":0.40947890281677246,"250":-0.29251331090927124,"251":0.3537226617336273,"252":-0.2798303961753845,"253":0.37226030230522156,"254":0.478475421667099,"255":0.457688570022583,"256":-0.3442111611366272,"257":-0.5086109042167664,"258":0.3391123414039612,"259":-0.36007872223854065,"260":0.1944676637649536,"261":-0.34353533387184143,"262":0.39582452178001404,"263":-0.2440396249294281,"264":-0.38073089718818665,"265":0.4705205261707306,"266":0.3039361536502838,"267":-0.37426379323005676,"268":0.5681579113006592,"269":0.48092523217201233,"270":-0.3650524914264679,"271":0.3737751841545105,"272":-0.2731461524963379,"273":0.3518955409526825,"274":0.3342811167240143,"275":0.4742233157157898,"276":-0.4478929340839386,"277":-0.44515037536621094,"278":0.2930675148963928,"279":-0.4871826171875,"280":-0.03241856023669243,"281":0.01704966276884079,"282":0.03589670732617378,"283":0.24504947662353516,"284":0.01773873344063759,"285":0.04591482877731323,"286":-0.33880338072776794,"287":0.10453527420759201,"288":0.07669008523225784,"289":-0.32837143540382385,"290":0.4013980031013489,"291":-0.16665427386760712,"292":0.2881961464881897,"293":-0.3843347430229187,"294":0.036942142993211746,"295":0.04463887959718704,"296":0.0929938405752182,"297":-0.05159733071923256,"298":-0.13644061982631683,"299":0.09621783345937729,"300":0.04163802042603493,"301":0.0732804536819458,"302":-0.014637886546552181,"303":0.3054971992969513,"304":0.11573800444602966,"305":0.10470011830329895,"306":-0.07522013038396835,"307":0.17087841033935547,"308":0.28673484921455383,"309":0.028835345059633255,"310":0.1831861287355423,"311":-0.030317800119519234,"312":0.06869780272245407,"313":-0.10300804674625397,"314":-0.01286206766963005,"315":0.13483926653862,"316":0.12191970646381378,"317":-0.16174472868442535,"318":-0.14618968963623047,"319":0.17890246212482452,"320":0.2951633334159851,"321":-0.4264637231826782,"322":0.39695242047309875,"323":-0.3371657431125641,"324":-0.3361206650733948,"325":0.38420426845550537,"326":0.3525339365005493,"327":-0.3206026256084442,"328":0.5608680844306946,"329":0.5014916658401489,"330":-0.38839635252952576,"331":0.3627791106700897,"332":-0.40908077359199524,"333":0.4552701413631439,"334":0.35923948884010315,"335":0.4866253137588501,"336":-0.4491440951824188,"337":-0.43985655903816223,"338":0.43575724959373474,"339":-0.4177584946155548,"340":0.09752632677555084,"341":0.1701456904411316,"342":0.025105327367782593,"343":0.2167130410671234,"344":0.12053249031305313,"345":0.09798084199428558,"346":0.13810782134532928,"347":0.1675025373697281,"348":-0.3409329354763031,"349":0.10948336124420166,"350":0.10695839673280716,"351":-0.12362059950828552,"352":-0.12294461578130722,"353":0.08446422219276428,"354":-0.01872074231505394,"355":0.2427501529455185,"356":0.14190225303173065,"357":-0.2495700865983963,"358":-0.03777816519141197,"359":0.0929003581404686,"360":0.42803090810775757,"361":-0.38777831196784973,"362":0.4295932352542877,"363":-0.3398549258708954,"364":-0.37636324763298035,"365":0.48562586307525635,"366":0.39646434783935547,"367":-0.3919873833656311,"368":0.4635290801525116,"369":0.31386852264404297,"370":-0.2805612087249756,"371":0.3636368215084076,"372":-0.3759196102619171,"373":0.3467860519886017,"374":0.3681451976299286,"375":0.4407753050327301,"376":-0.30190378427505493,"377":-0.4720785617828369,"378":0.40159282088279724,"379":-0.41416656970977783,"380":0.2396790087223053,"381":-0.38946017622947693,"382":0.3305588364601135,"383":-0.22336657345294952,"384":-0.45162105560302734,"385":0.3116222023963928,"386":0.3815425634384155,"387":-0.3410828411579132,"388":0.49288100004196167,"389":0.45939964056015015,"390":-0.30868595838546753,"391":0.49174419045448303,"392":-0.31102052330970764,"393":0.39498966932296753,"394":0.2862151861190796,"395":0.35477834939956665,"396":-0.38206082582473755,"397":-0.5166086554527283,"398":0.3275478184223175,"399":-0.47396329045295715}},"forgetBias":{"rows":20,"columns":1,"weights":{"0":0,"1":0,"2":0,"3":0,"4":0,"5":0,"6":0,"7":0,"8":0,"9":0,"10":0,"11":0,"12":0,"13":0,"14":0,"15":0,"16":0,"17":0,"18":0,"19":0}},"outputMatrix":{"rows":20,"columns":3,"weights":{"0":-0.08982647210359573,"1":-0.24698902666568756,"2":-0.3027728796005249,"3":0.06499122083187103,"4":-0.22345799207687378,"5":-0.11142988502979279,"6":-0.07410530745983124,"7":-0.2641461193561554,"8":-0.2085418999195099,"9":-0.15463078022003174,"10":-0.11115435510873795,"11":-0.12156286090612411,"12":0.08132296055555344,"13":-0.23598551750183105,"14":-0.15748395025730133,"15":-0.004513222258538008,"16":-0.12766309082508087,"17":-0.13693252205848694,"18":0.47997599840164185,"19":0.13670200109481812,"20":0.34230753779411316,"21":0.021862976253032684,"22":-0.1770760715007782,"23":-0.2014269381761551,"24":0.10553092509508133,"25":-0.02527962066233158,"26":-0.0891871303319931,"27":-0.3783818185329437,"28":-0.47863179445266724,"29":-0.291226863861084,"30":-0.16279193758964539,"31":-0.236792653799057,"32":-0.08602169156074524,"33":0.02403797022998333,"34":-0.20863978564739227,"35":-0.17144854366779327,"36":0.08467146009206772,"37":-0.28409430384635925,"38":-0.1914016604423523,"39":-0.35512813925743103,"40":-0.4787582755088806,"41":-0.4403843581676483,"42":-0.02411402016878128,"43":-0.18871130049228668,"44":-0.2224685251712799,"45":-0.13274091482162476,"46":-0.20116102695465088,"47":-0.36972498893737793,"48":0.003861400531604886,"49":-0.30116185545921326,"50":-0.20707081258296967,"51":-0.19891925156116486,"52":-0.24158312380313873,"53":-0.3656674921512604,"54":-0.09107141196727753,"55":-0.18874964118003845,"56":-0.310576468706131,"57":0.101264588534832,"58":-0.22283805906772614,"59":-0.24146674573421478}},"outputHidden":{"rows":20,"columns":20,"weights":{"0":-0.092519611120224,"1":0.15118999779224396,"2":-0.09578659385442734,"3":0.47940337657928467,"4":0.20595429837703705,"5":-0.09663023799657822,"6":-0.30136680603027344,"7":0.0978914350271225,"8":0.0007837359444238245,"9":0.06398583948612213,"10":0.39982467889785767,"11":-0.1210966408252716,"12":0.1858501136302948,"13":-0.280497670173645,"14":-0.036390520632267,"15":0.08048617839813232,"16":0.242654487490654,"17":0.10900767892599106,"18":-0.3051050305366516,"19":0.07630490511655807,"20":0.41299039125442505,"21":-0.05713143199682236,"22":0.5948156118392944,"23":-0.21582941710948944,"24":-0.1592310518026352,"25":0.6442901492118835,"26":0.25219303369522095,"27":-0.13994617760181427,"28":0.6322359442710876,"29":0.41542017459869385,"30":-0.1600424200296402,"31":0.19279208779335022,"32":-0.33147743344306946,"33":0.28010615706443787,"34":0.558882474899292,"35":0.6546536087989807,"36":-0.16401737928390503,"37":-0.6736072301864624,"38":0.21719323098659515,"39":-0.14433158934116364,"40":-0.10783668607473373,"41":0.003952539060264826,"42":-0.12158194929361343,"43":0.441704660654068,"44":0.023698771372437477,"45":0.02071380242705345,"46":-0.23386287689208984,"47":0.037097275257110596,"48":0.04343517869710922,"49":-0.0018875290406867862,"50":0.30725419521331787,"51":-0.09486474841833115,"52":0.15515807271003723,"53":-0.16746339201927185,"54":0.022264163941144943,"55":0.0456138513982296,"56":0.026971839368343353,"57":0.08902566879987717,"58":-0.118258036673069,"59":0.04022650048136711,"60":0.5483133792877197,"61":-0.18839168548583984,"62":0.5331132411956787,"63":-0.20540733635425568,"64":-0.28415387868881226,"65":0.5369501113891602,"66":0.17334960401058197,"67":-0.2354193478822708,"68":0.4855978190898895,"69":0.15793344378471375,"70":-0.29660218954086304,"71":0.3060421943664551,"72":-0.2778298556804657,"73":0.18633915483951569,"74":0.5056596398353577,"75":0.5241826772689819,"76":-0.21235480904579163,"77":-0.5374089479446411,"78":0.23205333948135376,"79":-0.2386234998703003,"80":0.4028852880001068,"81":-0.22735963761806488,"82":0.6372352242469788,"83":-0.23500193655490875,"84":-0.38837650418281555,"85":0.5158002972602844,"86":0.2422993928194046,"87":-0.308047890663147,"88":0.6934665441513062,"89":0.5504422783851624,"90":-0.22964264452457428,"91":0.32851263880729675,"92":-0.23109391331672668,"93":0.42924991250038147,"94":0.4800012409687042,"95":0.6013476848602295,"96":-0.27707308530807495,"97":-0.6325096487998962,"98":0.36063647270202637,"99":-0.31500694155693054,"100":-0.07524139434099197,"101":0.12794798612594604,"102":-0.008241457864642143,"103":0.3825984597206116,"104":0.004794751293957233,"105":0.03640434145927429,"106":-0.3814276456832886,"107":0.06665519624948502,"108":0.0852007269859314,"109":-0.05847357586026192,"110":0.3514255881309509,"111":-0.1442302167415619,"112":0.2562296688556671,"113":-0.15385767817497253,"114":0.07160266488790512,"115":0.04362240061163902,"116":0.0813002958893776,"117":0.010829981416463852,"118":-0.14674775302410126,"119":0.08569937944412231,"120":0.43464088439941406,"121":-0.41093188524246216,"122":0.635237455368042,"123":-0.32631126046180725,"124":-0.36099162697792053,"125":0.7490411400794983,"126":-0.21009907126426697,"127":-0.4248969554901123,"128":0.7321474552154541,"129":0.41738420724868774,"130":-0.2201472967863083,"131":0.2947063446044922,"132":-0.15999706089496613,"133":0.27577343583106995,"134":0.6531936526298523,"135":0.65540611743927,"136":-0.4208272695541382,"137":-0.6394427418708801,"138":0.2974461317062378,"139":-0.4116436541080475,"140":0.45451587438583374,"141":-0.2249329686164856,"142":0.584542453289032,"143":-0.20201879739761353,"144":-0.28364694118499756,"145":0.6269760131835938,"146":0.21915608644485474,"147":-0.19239473342895508,"148":0.6947854161262512,"149":0.4086364507675171,"150":-0.2339281141757965,"151":0.22091366350650787,"152":-0.31212860345840454,"153":0.27736714482307434,"154":0.47040361166000366,"155":0.544582188129425,"156":-0.35609954595565796,"157":-0.5651813745498657,"158":0.22469355165958405,"159":-0.36941081285476685,"160":0.1268797218799591,"161":-0.030664125457406044,"162":0.28802046179771423,"163":0.27071523666381836,"164":-0.016700755804777145,"165":0.28067293763160706,"166":-0.21943901479244232,"167":-0.022342653945088387,"168":-0.2420140653848648,"169":0.20584000647068024,"170":0.17269888520240784,"171":0.05204305052757263,"172":0.12125763297080994,"173":0.12619854509830475,"174":0.2913091778755188,"175":0.35327211022377014,"176":0.019282430410385132,"177":-0.3615756928920746,"178":-0.0506630502641201,"179":-0.12078380584716797,"180":0.2828795909881592,"181":-0.3821345865726471,"182":0.3298327326774597,"183":-0.34257882833480835,"184":-0.3831113278865814,"185":0.3447956144809723,"186":0.4402189254760742,"187":-0.39843204617500305,"188":0.6463556885719299,"189":0.6233047246932983,"190":-0.3045465648174286,"191":0.43332868814468384,"192":-0.469597190618515,"193":0.4776759743690491,"194":0.2766575217247009,"195":0.35056039690971375,"196":-0.4585798680782318,"197":-0.3910168707370758,"198":0.40935268998146057,"199":-0.5077458024024963,"200":0.5803227424621582,"201":-0.29839974641799927,"202":0.5102630257606506,"203":-0.1989060938358307,"204":-0.31985706090927124,"205":0.5557113885879517,"206":0.19231374561786652,"207":-0.31379586458206177,"208":0.5515192747116089,"209":0.43320944905281067,"210":-0.24547702074050903,"211":0.2561176121234894,"212":-0.29057738184928894,"213":0.2480824589729309,"214":0.5591098070144653,"215":0.5312672257423401,"216":-0.22365476191043854,"217":-0.6038806438446045,"218":0.2382173389196396,"219":-0.2698896825313568,"220":0.540886640548706,"221":-0.1411990225315094,"222":0.6474125981330872,"223":-0.2508050203323364,"224":-0.2995738387107849,"225":0.6855068206787109,"226":0.33871838450431824,"227":-0.3077581226825714,"228":0.672801673412323,"229":0.44227054715156555,"230":-0.24656209349632263,"231":0.2752229571342468,"232":-0.36669790744781494,"233":0.42136701941490173,"234":0.48979613184928894,"235":0.5297434329986572,"236":-0.3157880902290344,"237":-0.6269102692604065,"238":0.20597346127033234,"239":-0.4045967161655426,"240":0.5440707206726074,"241":-0.36882108449935913,"242":0.5150942802429199,"243":-0.1949487030506134,"244":-0.43181732296943665,"245":0.6321163177490234,"246":0.0792834460735321,"247":-0.3760553002357483,"248":0.7454400062561035,"249":0.4961540699005127,"250":-0.22073490917682648,"251":0.33530130982398987,"252":-0.22231464087963104,"253":0.29652634263038635,"254":0.634352445602417,"255":0.6417359113693237,"256":-0.3764250874519348,"257":-0.5350378155708313,"258":0.3727874457836151,"259":-0.3354225754737854,"260":0.46835753321647644,"261":-0.2516094446182251,"262":0.5699470639228821,"263":-0.2510669231414795,"264":-0.33334851264953613,"265":0.588638961315155,"266":0.22856271266937256,"267":-0.2542797923088074,"268":0.6350663304328918,"269":0.33226242661476135,"270":-0.3223668932914734,"271":0.2503528594970703,"272":-0.27585700154304504,"273":0.373996376991272,"274":0.6130035519599915,"275":0.5921682715415955,"276":-0.39785996079444885,"277":-0.5304235816001892,"278":0.24623189866542816,"279":-0.29828935861587524,"280":-0.0014021795941516757,"281":0.02958087995648384,"282":0.02373899705708027,"283":0.37229761481285095,"284":-0.010882615111768246,"285":0.05269894376397133,"286":-0.41306760907173157,"287":0.002327439608052373,"288":0.10669846832752228,"289":-0.08042232692241669,"290":0.3426259458065033,"291":-0.10604289174079895,"292":0.28052520751953125,"293":-0.17056946456432343,"294":-0.022525079548358917,"295":0.07535029202699661,"296":-0.06247894465923309,"297":0.11803033202886581,"298":-0.19433210790157318,"299":-0.08550851047039032,"300":0.009200986474752426,"301":0.1248980164527893,"302":0.010941221378743649,"303":0.43548494577407837,"304":0.14736181497573853,"305":0.06588641554117203,"306":-0.1946641057729721,"307":0.010582073591649532,"308":0.12221831828355789,"309":0.1623733788728714,"310":0.25899142026901245,"311":-0.05626707151532173,"312":0.14550001919269562,"313":-0.0292607881128788,"314":0.011483050882816315,"315":0.1707349419593811,"316":0.071508027613163,"317":-0.150262251496315,"318":-0.19353878498077393,"319":0.07950479537248611,"320":0.4180825650691986,"321":-0.178224116563797,"322":0.6398017406463623,"323":-0.19584468007087708,"324":-0.2268068641424179,"325":0.6354461908340454,"326":0.22757315635681152,"327":-0.24785491824150085,"328":0.5596045851707458,"329":0.5142310857772827,"330":-0.3322967290878296,"331":0.20704340934753418,"332":-0.22205795347690582,"333":0.3027161955833435,"334":0.5051286220550537,"335":0.538370668888092,"336":-0.3660174012184143,"337":-0.6169940829277039,"338":0.3368566334247589,"339":-0.3777957260608673,"340":-0.014470326714217663,"341":0.14452487230300903,"342":0.03535033389925957,"343":0.42018553614616394,"344":0.04494524002075195,"345":-0.021769752725958824,"346":0.020332155749201775,"347":0.19154779613018036,"348":0.16263994574546814,"349":0.26180192828178406,"350":0.14210332930088043,"351":-0.1177903264760971,"352":-0.08185703307390213,"353":0.005276268348097801,"354":0.0891462042927742,"355":0.113161601126194,"356":0.07873550802469254,"357":-0.16470159590244293,"358":-0.15294474363327026,"359":0.1575283706188202,"360":0.5585578680038452,"361":-0.2763986587524414,"362":0.6423962712287903,"363":-0.28060513734817505,"364":-0.346153199672699,"365":0.6514622569084167,"366":0.21849891543388367,"367":-0.31947198510169983,"368":0.5808910131454468,"369":0.4582071304321289,"370":-0.2242058515548706,"371":0.26952043175697327,"372":-0.23732195794582367,"373":0.3703342080116272,"374":0.6188319325447083,"375":0.5226818323135376,"376":-0.33021068572998047,"377":-0.5394881367683411,"378":0.320621520280838,"379":-0.29920315742492676,"380":0.2736409902572632,"381":-0.2554841637611389,"382":0.410251647233963,"383":-0.194134920835495,"384":-0.26898545026779175,"385":0.4745649993419647,"386":0.23919600248336792,"387":-0.2523845136165619,"388":0.7125694155693054,"389":0.42110249400138855,"390":-0.2295585721731186,"391":0.3569493889808655,"392":-0.2868729829788208,"393":0.35448405146598816,"394":0.4389451742172241,"395":0.6079071164131165,"396":-0.32214590907096863,"397":-0.6168943643569946,"398":0.3123380243778229,"399":-0.35008588433265686}},"outputBias":{"rows":20,"columns":1,"weights":{"0":-0.26435619592666626,"1":-0.13555721938610077,"2":-0.5601557493209839,"3":-0.6354900598526001,"4":-0.07657080888748169,"5":-0.4850828945636749,"6":0.01707235351204872,"7":-0.17014098167419434,"8":-0.43536290526390076,"9":0.12068726122379303,"10":-0.2615762948989868,"11":-0.18235653638839722,"12":-0.02014153078198433,"13":-0.3625944256782532,"14":-0.6282398700714111,"15":-0.5637006759643555,"16":-0.038264039903879166,"17":-0.46456295251846313,"18":0.012764034792780876,"19":-0.12722046673297882}},"cellActivationMatrix":{"rows":20,"columns":3,"weights":{"0":-0.1748064160346985,"1":0.15550066530704498,"2":0.1220390573143959,"3":-0.43608614802360535,"4":-0.32924941182136536,"5":-0.3339705169200897,"6":0.1966760754585266,"7":0.19959942996501923,"8":0.285599946975708,"9":-0.6512051224708557,"10":-0.8859153985977173,"11":-0.799727201461792,"12":-0.5995975732803345,"13":-0.16378168761730194,"14":-0.07638795673847198,"15":0.25745198130607605,"16":0.19641922414302826,"17":0.32465168833732605,"18":-0.806085467338562,"19":-0.3877764046192169,"20":-0.48843640089035034,"21":-0.7082417607307434,"22":-0.30574777722358704,"23":-0.270353764295578,"24":0.6595005393028259,"25":-0.16013991832733154,"26":0.04587730020284653,"27":-0.019210319966077805,"28":0.0016442345222458243,"29":-0.14549843966960907,"30":0.18140223622322083,"31":0.08034776896238327,"32":0.12480960041284561,"33":0.45658132433891296,"34":-0.030653616413474083,"35":0.011425863951444626,"36":0.46975067257881165,"37":-0.00047749545774422586,"38":-0.025337452068924904,"39":-0.2888563871383667,"40":0.08875086158514023,"41":0.13283374905586243,"42":0.4943373203277588,"43":0.151841402053833,"44":0.25169095396995544,"45":0.26025745272636414,"46":-0.09746123105287552,"47":0.1431470364332199,"48":-0.399385005235672,"49":-0.002778136869892478,"50":-0.022158116102218628,"51":-0.20711874961853027,"52":0.21115577220916748,"53":-0.025501253083348274,"54":0.27652111649513245,"55":-0.12353326380252838,"56":0.009369603358209133,"57":-0.6174219250679016,"58":0.06731406599283218,"59":-0.07364986836910248}},"cellActivationHidden":{"rows":20,"columns":20,"weights":{"0":-0.18153907358646393,"1":-0.5270469188690186,"2":-0.07675399631261826,"3":-0.8169525265693665,"4":-0.4427679181098938,"5":-0.1742418110370636,"6":0.06645496934652328,"7":-0.49064499139785767,"8":-0.10608464479446411,"9":0.12545369565486908,"10":-0.30470922589302063,"11":0.5317650437355042,"12":-0.21305930614471436,"13":0.15766696631908417,"14":-0.015645479783415794,"15":-0.12320511043071747,"16":-0.506851851940155,"17":0.24468527734279633,"18":0.4460676610469818,"19":-0.5990464687347412,"20":0.4850948452949524,"21":-0.1482192873954773,"22":0.3864309787750244,"23":0.20341278612613678,"24":-0.13607247173786163,"25":0.33780986070632935,"26":0.14130082726478577,"27":-0.15645428001880646,"28":-0.1170017197728157,"29":0.35859325528144836,"30":0.2050289809703827,"31":0.04794992879033089,"32":0.08249761164188385,"33":0.2972205579280853,"34":0.30900752544403076,"35":0.26596686244010925,"36":-0.2032482922077179,"37":-0.4008634388446808,"38":-0.019233018159866333,"39":-0.24780234694480896,"40":-0.18178708851337433,"41":-0.4275367259979248,"42":-0.07291455566883087,"43":-0.5997236371040344,"44":-0.5071446895599365,"45":-0.19743023812770844,"46":-0.07616033405065536,"47":-0.48706406354904175,"48":-0.2636256814002991,"49":-0.1295630782842636,"50":-0.2418726533651352,"51":0.4739390015602112,"52":-0.16831737756729126,"53":0.08554977178573608,"54":-0.04967283830046654,"55":-0.26700904965400696,"56":-0.36301153898239136,"57":0.2444097399711609,"58":0.28879696130752563,"59":-0.46614542603492737,"60":0.4333602488040924,"61":-0.14974331855773926,"62":0.32610979676246643,"63":0.08318193256855011,"64":-0.2619616389274597,"65":0.35703229904174805,"66":0.33901476860046387,"67":-0.19203974306583405,"68":0.07373607158660889,"69":0.30094385147094727,"70":-0.06444703042507172,"71":0.28267309069633484,"72":-0.18200495839118958,"73":0.2676600515842438,"74":0.30413979291915894,"75":0.3095790147781372,"76":-0.3103080093860626,"77":-0.4225427210330963,"78":0.29024538397789,"79":-0.29092055559158325,"80":0.47884318232536316,"81":-0.26725202798843384,"82":0.38434332609176636,"83":0.022190416231751442,"84":-0.27838853001594543,"85":0.428792268037796,"86":0.1148495301604271,"87":-0.133454367518425,"88":0.02320690266788006,"89":0.3718187212944031,"90":0.092653289437294,"91":0.19609835743904114,"92":-0.052002232521772385,"93":0.2836618423461914,"94":0.3575011193752289,"95":0.36305370926856995,"96":-0.19381991028785706,"97":-0.30151745676994324,"98":0.03901102766394615,"99":-0.2793445289134979,"100":0.0615561306476593,"101":-0.5200297832489014,"102":-0.16395288705825806,"103":-0.525238037109375,"104":-0.4453841745853424,"105":-0.17464430630207062,"106":-0.07955848425626755,"107":-0.40576064586639404,"108":-0.15925224125385284,"109":-0.01324568409472704,"110":-0.1248837560415268,"111":0.41407275199890137,"112":-0.11626874655485153,"113":0.058609556406736374,"114":-0.002857170533388853,"115":-0.11152242869138718,"116":-0.37413290143013,"117":0.2098580151796341,"118":0.28270602226257324,"119":-0.4349103271961212,"120":-0.07920793443918228,"121":0.3636629581451416,"122":-0.2810998558998108,"123":0.33750826120376587,"124":0.09524867683649063,"125":-0.2776719629764557,"126":-0.6751161813735962,"127":0.2871796190738678,"128":-0.44752854108810425,"129":-0.9677639603614807,"130":0.6115552186965942,"131":-0.15412618219852448,"132":0.9308139681816101,"133":-0.46580642461776733,"134":-0.335905522108078,"135":-0.2926431894302368,"136":0.04418126866221428,"137":0.3011898994445801,"138":0.005990744102746248,"139":0.18197369575500488,"140":0.38370949029922485,"141":-0.090985506772995,"142":0.36912891268730164,"143":0.11746054142713547,"144":-0.2191484123468399,"145":0.33520594239234924,"146":0.012537555769085884,"147":-0.07130533456802368,"148":0.021523654460906982,"149":0.2572042942047119,"150":0.09904605895280838,"151":0.1715206503868103,"152":0.028300149366259575,"153":0.29959866404533386,"154":0.3038017153739929,"155":0.29195231199264526,"156":-0.29166850447654724,"157":-0.34431999921798706,"158":0.0859198197722435,"159":-0.2858388125896454,"160":-0.00662221759557724,"161":-0.19082865118980408,"162":0.07487240433692932,"163":-0.3272717595100403,"164":-0.19682595133781433,"165":0.5095136761665344,"166":-0.029849497601389885,"167":-0.18721823394298553,"168":0.4532405436038971,"169":0.15750016272068024,"170":-0.176481693983078,"171":0.12087951600551605,"172":-0.09193006157875061,"173":0.03375046327710152,"174":0.31205180287361145,"175":0.12235735356807709,"176":-0.14007723331451416,"177":-0.2851448059082031,"178":0.05567101389169693,"179":-0.10407094657421112,"180":-0.21140028536319733,"181":0.30209654569625854,"182":-0.2489730715751648,"183":0.45021796226501465,"184":0.459560364484787,"185":-0.15651653707027435,"186":-0.6349891424179077,"187":0.4666242003440857,"188":-0.1496897041797638,"189":-0.6198092699050903,"190":0.4645567536354065,"191":-0.3269008696079254,"192":0.6743999719619751,"193":-0.4998786449432373,"194":0.08121542632579803,"195":-0.10544919222593307,"196":0.4844730794429779,"197":0.2703648805618286,"198":-0.49003881216049194,"199":0.3493276536464691,"200":0.25156915187835693,"201":-0.06243762746453285,"202":0.42367273569107056,"203":-0.11755384504795074,"204":-0.15191805362701416,"205":0.35275736451148987,"206":0.13037432730197906,"207":-0.09855248779058456,"208":0.13020950555801392,"209":0.4778367578983307,"210":-0.05435648560523987,"211":0.22176077961921692,"212":-0.15579484403133392,"213":0.3483053743839264,"214":0.33943840861320496,"215":0.4211367070674896,"216":-0.17723682522773743,"217":-0.3217308223247528,"218":0.11298567801713943,"219":-0.24687233567237854,"220":-0.43322986364364624,"221":0.2747742533683777,"222":-0.37781012058258057,"223":-0.0036916357930749655,"224":0.18810495734214783,"225":-0.41848284006118774,"226":0.09177136421203613,"227":0.2483954131603241,"228":-0.2400282770395279,"229":-0.34923484921455383,"230":0.027380596846342087,"231":-0.158807635307312,"232":0.16533583402633667,"233":-0.32123032212257385,"234":-0.26815345883369446,"235":-0.3690396249294281,"236":0.24255841970443726,"237":0.3826688528060913,"238":-0.059035543352365494,"239":0.27706483006477356,"240":0.18366661667823792,"241":-0.30604588985443115,"242":0.3728508949279785,"243":-0.06296920776367188,"244":-0.26318010687828064,"245":0.35823142528533936,"246":0.3590104877948761,"247":-0.30419081449508667,"248":0.1382526010274887,"249":0.5079435110092163,"250":-0.2664484977722168,"251":0.26427677273750305,"252":-0.33655500411987305,"253":0.31742432713508606,"254":0.31548765301704407,"255":0.3157235085964203,"256":-0.28735870122909546,"257":-0.30568066239356995,"258":0.1615128517150879,"259":-0.2758106589317322,"260":-0.10163146257400513,"261":0.12080490589141846,"262":-0.21613523364067078,"263":0.04989124462008476,"264":0.31815963983535767,"265":-0.2417704463005066,"266":-0.47872796654701233,"267":0.32575908303260803,"268":0.018569115549325943,"269":-0.6584347486495972,"270":0.28045427799224854,"271":-0.5041124224662781,"272":0.36494824290275574,"273":-0.5533903241157532,"274":-0.3034285604953766,"275":-0.19878870248794556,"276":0.3018132746219635,"277":0.26797130703926086,"278":-0.32024848461151123,"279":0.23468831181526184,"280":-0.22780446708202362,"281":-0.5366821885108948,"282":-0.21593186259269714,"283":-0.5928249359130859,"284":-0.4702714681625366,"285":-0.3001059591770172,"286":-0.052713118493556976,"287":-0.44853734970092773,"288":-0.24921590089797974,"289":-0.0757921114563942,"290":-0.31760844588279724,"291":0.3723691701889038,"292":-0.18459820747375488,"293":0.0468146950006485,"294":-0.1336759775876999,"295":-0.40133047103881836,"296":-0.448140025138855,"297":0.4603744149208069,"298":0.3509536385536194,"299":-0.5038518905639648,"300":-0.17891313135623932,"301":-0.4270303249359131,"302":-0.3164869248867035,"303":-0.4011780321598053,"304":-0.3726845383644104,"305":-0.43702003359794617,"306":-0.21460147202014923,"307":-0.46247950196266174,"308":0.2535976767539978,"309":-0.19379962980747223,"310":-0.09600688517093658,"311":0.4271540641784668,"312":0.038044191896915436,"313":0.004497287329286337,"314":-0.08786893635988235,"315":-0.31644630432128906,"316":-0.37340182065963745,"317":0.43029704689979553,"318":0.2640201449394226,"319":-0.42565393447875977,"320":0.4646567404270172,"321":-0.19242367148399353,"322":0.39321383833885193,"323":-0.07540035992860794,"324":-0.23305240273475647,"325":0.33199724555015564,"326":0.11381867527961731,"327":-0.21740558743476868,"328":0.0044541857205331326,"329":0.5265771746635437,"330":-0.09103471785783768,"331":0.21357761323451996,"332":-0.23207919299602509,"333":0.3313051164150238,"334":0.3917850852012634,"335":0.36609548330307007,"336":-0.18642863631248474,"337":-0.38809195160865784,"338":0.17627200484275818,"339":-0.28531429171562195,"340":0.13221722841262817,"341":0.4405454993247986,"342":0.19703492522239685,"343":0.2179187685251236,"344":0.2903429865837097,"345":0.33632761240005493,"346":0.09217585623264313,"347":0.37741565704345703,"348":-0.445893794298172,"349":0.13916881382465363,"350":0.012702945619821548,"351":-0.3712608516216278,"352":0.018140148371458054,"353":0.15358078479766846,"354":0.07914651185274124,"355":0.2675551474094391,"356":0.3591928482055664,"357":-0.12783865630626678,"358":-0.2669474184513092,"359":0.40789294242858887,"360":-0.47884830832481384,"361":0.2521059215068817,"362":-0.43015894293785095,"363":0.11178076267242432,"364":0.13864466547966003,"365":-0.3135645091533661,"366":0.013946848921477795,"367":0.13568414747714996,"368":-0.18478599190711975,"369":-0.393425852060318,"370":-0.05469224229454994,"371":-0.1825750321149826,"372":0.16419605910778046,"373":-0.3010176420211792,"374":-0.3668183386325836,"375":-0.40265482664108276,"376":0.22652438282966614,"377":0.46566131711006165,"378":-0.05298537760972977,"379":0.3103090822696686,"380":0.4221210181713104,"381":-0.20924103260040283,"382":0.3901914656162262,"383":-0.38959822058677673,"384":-0.3029816746711731,"385":0.42099449038505554,"386":0.298880398273468,"387":-0.23565644025802612,"388":0.1965930312871933,"389":0.4276678264141083,"390":-0.2353023886680603,"391":0.20915500819683075,"392":-0.3893042504787445,"393":0.41728508472442627,"394":0.29136547446250916,"395":0.27438682317733765,"396":-0.2718781530857086,"397":-0.3558560907840729,"398":0.23462119698524475,"399":-0.27043476700782776}},"cellActivationBias":{"rows":20,"columns":1,"weights":{"0":0.14595362544059753,"1":0.11998000741004944,"2":-0.06769532710313797,"3":0.27339985966682434,"4":-0.26276934146881104,"5":-0.012697406113147736,"6":-0.4347050189971924,"7":-0.005710404831916094,"8":-0.17275285720825195,"9":-0.5189357995986938,"10":0.2606544494628906,"11":0.11373002827167511,"12":0.37447986006736755,"13":-0.11494706571102142,"14":-0.0935048907995224,"15":-0.1445126235485077,"16":-0.28535282611846924,"17":0.14651235938072205,"18":0.27130162715911865,"19":-0.16102759540081024}}}],"outputConnector":{"rows":3,"columns":20,"weights":{"0":0.42788851261138916,"1":0.004542249254882336,"2":0.48823681473731995,"3":-0.09541435539722443,"4":-0.2093566358089447,"5":0.5426973104476929,"6":-0.5161499381065369,"7":-0.1634160578250885,"8":0.1820114254951477,"9":-0.004464746452867985,"10":0.3069933354854584,"11":0.054747775197029114,"12":0.48735684156417847,"13":-0.3122961223125458,"14":0.520999550819397,"15":0.5577253103256226,"16":-0.18885301053524017,"17":-0.588692843914032,"18":0.07358070462942123,"19":-0.3512997031211853,"20":0.3639431297779083,"21":-0.3799440860748291,"22":0.005288347601890564,"23":-1.4967677593231201,"24":-0.150240957736969,"25":0.3666721284389496,"26":-0.03620300069451332,"27":-0.2958190143108368,"28":-0.0008254096610471606,"29":0.5341094136238098,"30":0.008031915873289108,"31":0.039825353771448135,"32":-0.3089718818664551,"33":0.5116321444511414,"34":0.0033032428473234177,"35":-0.030061226338148117,"36":-0.004042536485940218,"37":0.01471633743494749,"38":-0.045168716460466385,"39":-0.00231121014803648,"40":0.21067388355731964,"41":0.19065502285957336,"42":0.30623137950897217,"43":0.13232500851154327,"44":0.2849678099155426,"45":0.33815550804138184,"46":-0.5140450596809387,"47":0.16422265768051147,"48":0.3869570195674896,"49":0.041204649955034256,"50":0.11313490569591522,"51":-0.3059881925582886,"52":0.19048616290092468,"53":-0.14714376628398895,"54":0.3291970491409302,"55":0.2758851647377014,"56":0.31833121180534363,"57":-0.2458227425813675,"58":-0.3250150978565216,"59":0.2947981357574463}},"output":{"rows":3,"columns":1,"weights":{"0":-0.13201943039894104,"1":0.16357456147670746,"2":0.07824685424566269}},"inputLookup":null,"inputLookupLength":null,"outputLookup":null,"outputLookupLength":null}