{"type":"n","options":{"inputSize":1,"hiddenLayers":[20],"outputSize":1,"decayRate":0.999,"smoothEps":1e-8,"regc":0.000001,"clipval":5},"hiddenLayers":[{"inputMatrix":{"rows":20,"columns":1,"weights":{"0":0.17005494236946106,"1":0.7729519009590149,"2":0.5609915852546692,"3":1.006112813949585,"4":0.9082733988761902,"5":1.0089726448059082,"6":0.20069706439971924,"7":0.135930597782135,"8":0.36288172006607056,"9":0.44946739077568054,"10":0.010294974781572819,"11":0.5775738954544067,"12":-0.627825915813446,"13":2.366929769515991,"14":0.8146596550941467,"15":0.5821090340614319,"16":1.105488896369934,"17":0.7723295092582703,"18":0.18725740909576416,"19":0.697796106338501}},"inputHidden":{"rows":20,"columns":20,"weights":{"0":-0.9642823338508606,"1":-1.173900842666626,"2":-1.028294563293457,"3":-0.6444165110588074,"4":-1.3872517347335815,"5":1.0106796026229858,"6":-0.13487666845321655,"7":0.5691207647323608,"8":0.6802471280097961,"9":-0.4920518398284912,"10":-1.256155014038086,"11":0.21088820695877075,"12":0.3780302405357361,"13":-1.1262099742889404,"14":0.4607633948326111,"15":-1.0344939231872559,"16":0.8243116736412048,"17":-0.724864661693573,"18":0.5349738597869873,"19":1.0747908353805542,"20":0.9884054064750671,"21":0.8867093324661255,"22":1.1553634405136108,"23":0.4252510964870453,"24":0.4565739333629608,"25":-0.5995936393737793,"26":-0.3957231342792511,"27":1.3767069578170776,"28":0.9073259830474854,"29":0.3123501241207123,"30":1.1301120519638062,"31":-0.8712659478187561,"32":1.875651240348816,"33":-0.2297755926847458,"34":-0.941182553768158,"35":0.5450119376182556,"36":-0.9369101524353027,"37":-0.9316843748092651,"38":1.6166428327560425,"39":0.2611965835094452,"40":-1.8170499801635742,"41":-1.0819222927093506,"42":-1.2237555980682373,"43":-0.4282161295413971,"44":-0.9783552885055542,"45":0.2411668598651886,"46":-0.1003771722316742,"47":0.5225308537483215,"48":0.7459154725074768,"49":-0.3915937542915344,"50":-1.446182131767273,"51":0.5676282048225403,"52":-0.2247380167245865,"53":-1.0460623502731323,"54":0.2941708266735077,"55":-1.1805859804153442,"56":0.6000164151191711,"57":0.1122279092669487,"58":0.8312526941299438,"59":1.406319499015808,"60":-0.0661962628364563,"61":-0.4366271495819092,"62":0.9472024440765381,"63":1.1063225269317627,"64":-0.08590798079967499,"65":-0.1368207335472107,"66":-0.1529838889837265,"67":0.9928016662597656,"68":-0.3525002598762512,"69":0.12951946258544922,"70":0.7289932370185852,"71":1.1470426321029663,"72":1.7924860715866089,"73":-1.4473925828933716,"74":0.15916936099529266,"75":0.5987251996994019,"76":-0.3663612902164459,"77":-0.5309860110282898,"78":0.9692304730415344,"79":1.5249115228652954,"80":1.1676130294799805,"81":0.6784383654594421,"82":1.3537952899932861,"83":0.8329622149467468,"84":0.3058849275112152,"85":-0.3675493001937866,"86":-0.43740639090538025,"87":0.6518737077713013,"88":0.16344304382801056,"89":1.2320727109909058,"90":1.1855348348617554,"91":-0.40477293729782104,"92":1.164258599281311,"93":-0.05876731127500534,"94":-0.674902617931366,"95":0.9812192916870117,"96":-0.518670380115509,"97":-0.5471566319465637,"98":1.4358267784118652,"99":-0.01272640936076641,"100":-0.2960056960582733,"101":-0.9592661261558533,"102":0.09842993319034576,"103":-0.7477744817733765,"104":-0.5977265238761902,"105":0.7397838234901428,"106":-0.48485416173934937,"107":0.14675816893577576,"108":0.603441059589386,"109":-1.0773862600326538,"110":-0.12300282716751099,"111":1.0540688037872314,"112":0.32427358627319336,"113":-0.09069478511810303,"114":0.8368896842002869,"115":-1.194622278213501,"116":0.9426482319831848,"117":0.13152454793453217,"118":0.23335909843444824,"119":0.3023998439311981,"120":-0.5734636187553406,"121":-0.5100280046463013,"122":-0.37876543402671814,"123":-0.2951395809650421,"124":-0.9700567722320557,"125":0.7322235107421875,"126":-0.22898466885089874,"127":-0.2768999934196472,"128":0.0069875651970505714,"129":-0.6936435103416443,"130":-0.5344447493553162,"131":0.1899336278438568,"132":-1.0225733518600464,"133":-0.07314978539943695,"134":0.27451321482658386,"135":-0.21653534471988678,"136":0.3587741255760193,"137":-0.06636492908000946,"138":-0.38714301586151123,"139":0.6377788186073303,"140":-1.4017404317855835,"141":-0.4249536693096161,"142":-0.9155499935150146,"143":-0.48085054755210876,"144":-0.47981515526771545,"145":1.4718557596206665,"146":0.22266602516174316,"147":-0.6531150341033936,"148":-0.8099915385246277,"149":-0.7420961856842041,"150":-0.9088081121444702,"151":0.1254558265209198,"152":-1.5478557348251343,"153":0.4951701760292053,"154":0.3061220049858093,"155":-0.6246806383132935,"156":0.3786487281322479,"157":0.2958035171031952,"158":-0.7551342844963074,"159":0.39759159088134766,"160":-0.6067589521408081,"161":-0.20912081003189087,"162":-0.49342408776283264,"163":-0.07565820962190628,"164":-0.6377933025360107,"165":0.17878198623657227,"166":0.27242717146873474,"167":-0.6304346919059753,"168":-0.38652387261390686,"169":-0.2829314172267914,"170":-0.47166281938552856,"171":-0.09681563079357147,"172":-1.3859210014343262,"173":-0.006810057442635298,"174":0.03798592835664749,"175":0.16002798080444336,"176":0.08580974489450455,"177":-0.1562134474515915,"178":-0.5551045536994934,"179":0.5447314977645874,"180":-0.6930007934570312,"181":0.5354255437850952,"182":-0.03790338709950447,"183":-0.3602229654788971,"184":-0.6198000311851501,"185":-0.6043176651000977,"186":1.3509912490844727,"187":-0.7457890510559082,"188":-1.5061334371566772,"189":-1.179988145828247,"190":-0.39349818229675293,"191":-0.7675490379333496,"192":1.132250428199768,"193":0.35928359627723694,"194":-0.8756002187728882,"195":-0.7851943969726562,"196":-1.1550508737564087,"197":0.27805161476135254,"198":0.15756605565547943,"199":1.1407641172409058,"200":-1.3057149648666382,"201":-1.4374866485595703,"202":-1.5021673440933228,"203":-0.8465284705162048,"204":-1.8510057926177979,"205":0.9572999477386475,"206":-0.7808326482772827,"207":0.4720683991909027,"208":1.0018150806427002,"209":-0.809251070022583,"210":-2.199406385421753,"211":0.2927679121494293,"212":0.24837671220302582,"213":-1.5143147706985474,"214":0.5288753509521484,"215":-0.7439095377922058,"216":0.41998615860939026,"217":-0.4643493592739105,"218":1.214595079421997,"219":1.680448055267334,"220":0.9483563899993896,"221":0.007612504996359348,"222":1.4115899801254272,"223":0.7124685049057007,"224":-0.17449474334716797,"225":-0.9141539335250854,"226":-0.07949259877204895,"227":-0.5063763856887817,"228":-1.0118680000305176,"229":-0.3121007978916168,"230":1.311022162437439,"231":0.5138435363769531,"232":0.7221183776855469,"233":-0.6906545162200928,"234":-0.3996482193470001,"235":0.2134852558374405,"236":-0.2572997212409973,"237":-0.7617489695549011,"238":0.87059086561203,"239":1.4909058809280396,"240":-0.01352409552782774,"241":-0.1864258497953415,"242":-0.44384658336639404,"243":-0.1271342635154724,"244":-0.28209200501441956,"245":0.48771777749061584,"246":1.465746521949768,"247":0.48709651827812195,"248":-1.2104880809783936,"249":-0.14674627780914307,"250":-0.4589754343032837,"251":-0.11181008815765381,"252":-0.48416486382484436,"253":0.7190988063812256,"254":0.14319178462028503,"255":-0.19577819108963013,"256":0.22992093861103058,"257":0.030641790479421616,"258":-0.942051887512207,"259":-0.007799001410603523,"260":0.28819337487220764,"261":-0.3991664946079254,"262":0.25837451219558716,"263":-0.4299975037574768,"264":-1.321344017982483,"265":-0.23527896404266357,"266":-1.0735244750976562,"267":1.0666146278381348,"268":0.9543746709823608,"269":-1.0909594297409058,"270":-0.11663445830345154,"271":0.0613241046667099,"272":0.029986189678311348,"273":0.9017869234085083,"274":0.42558664083480835,"275":-0.1554325670003891,"276":-0.39530321955680847,"277":0.6800006628036499,"278":1.4978374242782593,"279":1.091972827911377,"280":0.022728269919753075,"281":0.6275670528411865,"282":0.8077453970909119,"283":0.3447609841823578,"284":0.6277716159820557,"285":0.054175201803445816,"286":-0.6850861310958862,"287":0.32484808564186096,"288":0.4336795210838318,"289":0.09361270070075989,"290":0.7893368601799011,"291":-0.8295146822929382,"292":0.9174166321754456,"293":-1.681075930595398,"294":-0.46028801798820496,"295":0.02681889198720455,"296":-0.23976072669029236,"297":-0.7015544772148132,"298":0.4785534739494324,"299":-0.049789004027843475,"300":-0.5633783340454102,"301":-0.23664546012878418,"302":0.847049355506897,"303":1.0099202394485474,"304":-0.12042021006345749,"305":-0.35249972343444824,"306":0.3579007387161255,"307":0.8279945850372314,"308":-0.7376876473426819,"309":0.5171053409576416,"310":0.6488977074623108,"311":0.3364584743976593,"312":1.8297053575515747,"313":-1.093135952949524,"314":-0.3231348395347595,"315":0.4916207492351532,"316":-0.7528780102729797,"317":-0.9153790473937988,"318":0.10786649584770203,"319":1.6205850839614868,"320":-0.0390683189034462,"321":-0.20138190686702728,"322":0.12003492563962936,"323":0.08000704646110535,"324":0.39391040802001953,"325":-0.11235443502664566,"326":-0.5244346857070923,"327":0.20419086515903473,"328":0.5004411339759827,"329":0.11442361772060394,"330":0.5518478751182556,"331":0.3438985049724579,"332":0.7873362898826599,"333":-0.4579574167728424,"334":0.2829647660255432,"335":-0.5337887406349182,"336":0.40661102533340454,"337":-0.3805428743362427,"338":-0.36223235726356506,"339":0.2615402042865753,"340":-0.65854412317276,"341":-1.4381380081176758,"342":-0.48782721161842346,"343":-1.102974534034729,"344":-1.505399465560913,"345":1.39808189868927,"346":0.6165657639503479,"347":0.6714179515838623,"348":-0.20008467137813568,"349":-0.30586445331573486,"350":-0.3965505361557007,"351":0.27323612570762634,"352":1.1490354537963867,"353":-1.2605677843093872,"354":0.7698206305503845,"355":-0.7754477262496948,"356":0.8687425255775452,"357":-0.015514744445681572,"358":0.8287541270256042,"359":1.3459714651107788,"360":-0.5210429430007935,"361":-0.16059328615665436,"362":-0.6904606223106384,"363":0.19243627786636353,"364":0.05352616310119629,"365":-0.20340855419635773,"366":0.35234302282333374,"367":-0.34618061780929565,"368":-0.30873167514801025,"369":0.5981276631355286,"370":-0.5220233798027039,"371":0.22267824411392212,"372":-1.120261549949646,"373":0.6473314762115479,"374":0.14796499907970428,"375":0.3122924566268921,"376":0.5696043372154236,"377":0.1498628854751587,"378":-0.9598686099052429,"379":-0.26516225934028625,"380":0.8614599108695984,"381":-0.6011385917663574,"382":1.1487066745758057,"383":0.08098705112934113,"384":-0.7691996693611145,"385":0.33233901858329773,"386":0.1604233980178833,"387":-0.5731362700462341,"388":-0.6646136045455933,"389":-0.21462459862232208,"390":1.005786657333374,"391":0.8780452013015747,"392":0.40609726309776306,"393":-0.8035371899604797,"394":0.28487613797187805,"395":0.4444953501224518,"396":-0.19837459921836853,"397":-0.2646653950214386,"398":0.2664065361022949,"399":1.0843664407730103}},"inputBias":{"rows":20,"columns":1,"weights":{"0":1.6937456130981445,"1":0.6765149235725403,"2":1.0980298519134521,"3":0.9435574412345886,"4":0.524273157119751,"5":0.5859770774841309,"6":0.6019154787063599,"7":-0.5452108979225159,"8":-0.42656248807907104,"9":-0.6606752872467041,"10":1.7753225564956665,"11":0.13942529261112213,"12":-0.5377362370491028,"13":0.2951315641403198,"14":0.9705538153648376,"15":0.9217860698699951,"16":0.7566181421279907,"17":1.6522760391235352,"18":0.9943973422050476,"19":0.36010095477104187}},"forgetMatrix":{"rows":20,"columns":1,"weights":{"0":0.35158342123031616,"1":0.7745804190635681,"2":0.5050396919250488,"3":1.5240522623062134,"4":1.4745018482208252,"5":1.3713539838790894,"6":-0.006415109150111675,"7":-1.4213719367980957,"8":-0.41774430871009827,"9":1.0552152395248413,"10":0.5914937257766724,"11":0.6981827020645142,"12":-0.2712569534778595,"13":1.141029953956604,"14":0.9197321534156799,"15":0.2768060863018036,"16":0.7024341225624084,"17":1.137488842010498,"18":0.0849519595503807,"19":0.7841385006904602}},"forgetHidden":{"rows":20,"columns":20,"weights":{"0":-0.2982312738895416,"1":-0.7356391549110413,"2":0.04861889407038689,"3":0.23783358931541443,"4":0.42425915598869324,"5":0.8307984471321106,"6":-1.1586902141571045,"7":1.0554121732711792,"8":0.9894022345542908,"9":-0.3324327766895294,"10":0.0622793585062027,"11":0.7076295614242554,"12":0.518846333026886,"13":-1.7563977241516113,"14":0.4606308341026306,"15":-0.33344101905822754,"16":-0.009651022963225842,"17":-0.14040999114513397,"18":0.9528456926345825,"19":0.8521703481674194,"20":0.6053040623664856,"21":0.5229659676551819,"22":0.8478283286094666,"23":0.5272846221923828,"24":0.2140653431415558,"25":-0.6565856337547302,"26":-0.5213202238082886,"27":0.7992973923683167,"28":0.7658065557479858,"29":0.3958783447742462,"30":0.8657708168029785,"31":-0.5588887929916382,"32":2.135989189147949,"33":0.0368800088763237,"34":-0.654904305934906,"35":0.5877123475074768,"36":-0.7862768173217773,"37":-0.6667875051498413,"38":2.1467416286468506,"39":-0.012678529135882854,"40":-0.2987758219242096,"41":-0.06320791691541672,"42":0.3318480849266052,"43":0.1847008615732193,"44":-0.21526651084423065,"45":0.6678838729858398,"46":-0.6825788021087646,"47":0.2154553383588791,"48":1.1088416576385498,"49":0.0717821940779686,"50":0.35642772912979126,"51":-0.04551395773887634,"52":0.059868425130844116,"53":-1.4964640140533447,"54":0.2789478003978729,"55":-0.14295685291290283,"56":-0.3533986210823059,"57":-0.22164152562618256,"58":1.2545596361160278,"59":0.8112767934799194,"60":-0.8540505170822144,"61":-0.5906549096107483,"62":0.8888663649559021,"63":-0.06685464084148407,"64":-1.3555750846862793,"65":1.208857774734497,"66":-1.2000195980072021,"67":0.22619321942329407,"68":0.29433315992355347,"69":-0.9842733144760132,"70":0.6228058934211731,"71":0.6545506715774536,"72":1.927118182182312,"73":-0.9914709329605103,"74":-0.17126451432704926,"75":-0.7390174269676208,"76":-0.4031142294406891,"77":-0.6180901527404785,"78":1.2335989475250244,"79":2.462686061859131,"80":0.4143465757369995,"81":-0.031194493174552917,"82":0.2840520143508911,"83":-0.046939652413129807,"84":-0.17067588865756989,"85":0.24268858134746552,"86":0.9419758319854736,"87":0.6540676951408386,"88":-0.10410673171281815,"89":-0.3657466173171997,"90":0.23592887818813324,"91":0.3389478623867035,"92":-0.1307196468114853,"93":-0.18152891099452972,"94":-0.13343793153762817,"95":-0.13323500752449036,"96":-0.1089041531085968,"97":0.31719255447387695,"98":0.387458473443985,"99":0.4180326759815216,"100":0.42831486463546753,"101":0.5234101414680481,"102":0.11725039035081863,"103":0.16010944545269012,"104":-0.35149121284484863,"105":-0.42669877409935,"106":0.6959567666053772,"107":-0.5572471618652344,"108":-1.0851188898086548,"109":0.018537839874625206,"110":0.06871530413627625,"111":-0.24566221237182617,"112":-0.1892196387052536,"113":-0.1334114521741867,"114":-0.5355207324028015,"115":0.1793462634086609,"116":-0.061830952763557434,"117":-0.10688550025224686,"118":-0.411274254322052,"119":0.8124639391899109,"120":-0.20833554863929749,"121":1.2202863693237305,"122":0.11190658062696457,"123":1.029144287109375,"124":1.2979507446289062,"125":-0.7067769169807434,"126":1.4319663047790527,"127":0.03625086322426796,"128":-1.243427038192749,"129":2.0538511276245117,"130":0.0432487428188324,"131":-1.3077424764633179,"132":0.3900914490222931,"133":1.0057793855667114,"134":-1.680293083190918,"135":1.1106245517730713,"136":-2.103240966796875,"137":0.6996632814407349,"138":-0.2815377116203308,"139":-0.753103494644165,"140":0.21488411724567413,"141":0.24426652491092682,"142":-0.30970603227615356,"143":0.5051023960113525,"144":-0.4209059476852417,"145":-0.7323384284973145,"146":0.4768693447113037,"147":0.2360125631093979,"148":0.0013755293330177665,"149":0.665319561958313,"150":-0.40139952301979065,"151":-0.8208996057510376,"152":0.18149155378341675,"153":0.6914573907852173,"154":-0.5359616875648499,"155":0.5502712726593018,"156":-1.3272126913070679,"157":-0.0030733183957636356,"158":0.41138121485710144,"159":-0.08112168312072754,"160":0.09476464986801147,"161":0.7441158890724182,"162":-0.28588709235191345,"163":0.503339409828186,"164":1.4702577590942383,"165":-1.0780541896820068,"166":1.2955442667007446,"167":-0.5019192099571228,"168":-1.2130486965179443,"169":0.8218701481819153,"170":-0.2375531643629074,"171":-1.0724992752075195,"172":0.13619175553321838,"173":0.8054028153419495,"174":-1.9260919094085693,"175":0.7327714562416077,"176":-1.6986421346664429,"177":0.4646139144897461,"178":-0.6335964798927307,"179":-0.7583032846450806,"180":0.4659452438354492,"181":-0.7848455905914307,"182":0.4110790491104126,"183":0.25749120116233826,"184":-0.6065011620521545,"185":0.4725983738899231,"186":-0.8791296482086182,"187":1.1807256937026978,"188":-0.2183326929807663,"189":0.12645111978054047,"190":0.2699016332626343,"191":0.9790221452713013,"192":1.4012914896011353,"193":-0.4882436692714691,"194":0.41662561893463135,"195":-0.09035864472389221,"196":-0.06194782629609108,"197":-0.3935736119747162,"198":0.3413759768009186,"199":1.2340137958526611,"200":-0.09552720934152603,"201":0.1287853717803955,"202":0.49483516812324524,"203":0.22087210416793823,"204":-0.2522778809070587,"205":0.6978683471679688,"206":-0.7457235455513,"207":0.13627929985523224,"208":0.860228955745697,"209":-0.07229649275541306,"210":0.5199937224388123,"211":-0.020507195964455605,"212":0.2011047750711441,"213":-1.916804313659668,"214":0.2919878661632538,"215":0.022057361900806427,"216":-0.3237129747867584,"217":-0.2768506109714508,"218":1.4069173336029053,"219":0.6820043921470642,"220":0.5568931102752686,"221":0.4047393798828125,"222":1.0927013158798218,"223":0.24928952753543854,"224":-0.364322692155838,"225":-1.0057460069656372,"226":0.5970637798309326,"227":-1.5041048526763916,"228":-0.937197744846344,"229":-0.19565068185329437,"230":0.8857812285423279,"231":-0.33028820157051086,"232":1.0169826745986938,"233":0.311689555644989,"234":-0.7156930565834045,"235":0.5068322420120239,"236":-1.1822826862335205,"237":-0.733116865158081,"238":1.3004186153411865,"239":0.9099447727203369,"240":-0.6135900616645813,"241":-0.8865935802459717,"242":-0.9600278735160828,"243":-0.7370457053184509,"244":-1.082004427909851,"245":0.6411418318748474,"246":-0.27216240763664246,"247":0.21961934864521027,"248":0.04031491279602051,"249":-0.9628635048866272,"250":-0.8120296001434326,"251":1.1592844724655151,"252":-0.6100142598152161,"253":-0.925134003162384,"254":0.7838577032089233,"255":-1.181450605392456,"256":0.8982279896736145,"257":0.4182393252849579,"258":-0.8384877443313599,"259":0.4121074676513672,"260":-0.6806653738021851,"261":-0.20388568937778473,"262":-0.474317729473114,"263":-0.4647871255874634,"264":0.5519039034843445,"265":0.1951799988746643,"266":-0.425838828086853,"267":0.38356173038482666,"268":0.224171981215477,"269":-0.6845139861106873,"270":-0.505972146987915,"271":0.3809960186481476,"272":0.08496594429016113,"273":0.154606431722641,"274":0.27180394530296326,"275":-0.9340609908103943,"276":0.19565986096858978,"277":0.8939480781555176,"278":0.3330404758453369,"279":-0.3635689318180084,"280":0.3197697699069977,"281":0.7382112145423889,"282":0.9588687419891357,"283":0.4242672920227051,"284":-0.3256094753742218,"285":-0.40165388584136963,"286":0.46981683373451233,"287":0.027540991082787514,"288":-0.027510173618793488,"289":0.1833331137895584,"290":0.7556554079055786,"291":-1.0233818292617798,"292":1.6616039276123047,"293":-0.16750331223011017,"294":-1.0702273845672607,"295":0.395846962928772,"296":-1.1488580703735352,"297":-0.7466424703598022,"298":1.6911901235580444,"299":0.4293573796749115,"300":0.5468846559524536,"301":-0.3950497806072235,"302":0.88981032371521,"303":0.5576697587966919,"304":-0.7819713354110718,"305":-0.14239974319934845,"306":-0.9117332100868225,"307":0.9365286231040955,"308":-0.11535043269395828,"309":-0.809943437576294,"310":0.8263370990753174,"311":1.188320517539978,"312":1.587519884109497,"313":-2.10510516166687,"314":-0.02092519775032997,"315":0.2820720374584198,"316":-0.7954016923904419,"317":-0.49106836318969727,"318":0.8799431920051575,"319":2.256782293319702,"320":0.2036055326461792,"321":-0.39311525225639343,"322":0.4672810733318329,"323":0.08652397990226746,"324":-0.8171842694282532,"325":-0.2883082926273346,"326":-0.4888647198677063,"327":0.5856748819351196,"328":0.7815397381782532,"329":-0.4775480329990387,"330":0.40730020403862,"331":0.4807630479335785,"332":1.2734177112579346,"333":-0.9417470693588257,"334":-0.08420319110155106,"335":0.16878032684326172,"336":-0.3871910572052002,"337":-0.3599493205547333,"338":0.19329605996608734,"339":1.3958898782730103,"340":-0.41833674907684326,"341":-0.7545522451400757,"342":-0.35614463686943054,"343":-0.27766212821006775,"344":-1.229583978652954,"345":0.7531449198722839,"346":1.0835129022598267,"347":-0.362420916557312,"348":-0.8212730884552002,"349":-0.38592642545700073,"350":-0.3617677390575409,"351":0.7703149318695068,"352":0.48283350467681885,"353":0.3950776755809784,"354":0.6524943113327026,"355":-0.4574545621871948,"356":1.1544362306594849,"357":1.0617215633392334,"358":-1.043755292892456,"359":1.2176008224487305,"360":-0.402897447347641,"361":-0.02547827735543251,"362":-0.8746057152748108,"363":0.06382060796022415,"364":0.5171281695365906,"365":-0.18383240699768066,"366":1.2888621091842651,"367":-0.594725489616394,"368":-1.063543677330017,"369":0.16450101137161255,"370":-0.4811075031757355,"371":-0.15674392879009247,"372":-0.325078547000885,"373":0.9293691515922546,"374":0.18726561963558197,"375":-0.23095493018627167,"376":0.4015035629272461,"377":0.9336370825767517,"378":-0.3671894967556,"379":-0.2556247115135193,"380":0.3467101752758026,"381":-0.31820252537727356,"382":0.8463394045829773,"383":0.10591980069875717,"384":-0.19656740128993988,"385":1.3279573917388916,"386":0.3847869336605072,"387":0.035247087478637695,"388":-0.2738194465637207,"389":-0.7095270752906799,"390":0.5180052518844604,"391":0.3125731945037842,"392":-0.43545767664909363,"393":0.1986415535211563,"394":0.14700496196746826,"395":-0.2971367835998535,"396":-0.3690834939479828,"397":-0.2232808768749237,"398":0.5511487126350403,"399":0.587813675403595}},"forgetBias":{"rows":20,"columns":1,"weights":{"0":0,"1":0,"2":0,"3":0,"4":0,"5":0,"6":0,"7":0,"8":0,"9":0,"10":0,"11":0,"12":0,"13":0,"14":0,"15":0,"16":0,"17":0,"18":0,"19":0}},"outputMatrix":{"rows":20,"columns":1,"weights":{"0":0.1346321702003479,"1":0.5909254550933838,"2":0.3280525505542755,"3":0.727981686592102,"4":1.3462132215499878,"5":0.5243213772773743,"6":0.26878806948661804,"7":0.05133196339011192,"8":0.3429838716983795,"9":0.7339391708374023,"10":0.2317826747894287,"11":1.1807595491409302,"12":-0.4594848155975342,"13":1.7126232385635376,"14":0.8083622455596924,"15":0.627352774143219,"16":0.5618513822555542,"17":0.7150503396987915,"18":0.252401202917099,"19":1.294614315032959}},"outputHidden":{"rows":20,"columns":20,"weights":{"0":-0.8218379616737366,"1":-0.40857499837875366,"2":-1.0133731365203857,"3":-0.5460366606712341,"4":-0.9949324131011963,"5":1.9952168464660645,"6":0.0014234139816835523,"7":0.6931344270706177,"8":0.26405981183052063,"9":-0.36148375272750854,"10":-1.0315083265304565,"11":0.16398698091506958,"12":0.46453115344047546,"13":-1.6122857332229614,"14":-0.0982775092124939,"15":-1.1001884937286377,"16":-0.04831305891275406,"17":-0.7643141150474548,"18":0.7138303518295288,"19":0.9061435461044312,"20":1.2112030982971191,"21":-0.11227239668369293,"22":1.1582376956939697,"23":0.12161901593208313,"24":-0.8365229964256287,"25":-0.19514943659305573,"26":-0.006990638095885515,"27":0.6677830815315247,"28":0.13491058349609375,"29":-0.5358504056930542,"30":1.18760347366333,"31":-0.20700323581695557,"32":1.2741317749023438,"33":-1.7793529033660889,"34":-0.08918089419603348,"35":0.4354938864707947,"36":-0.4192078709602356,"37":-1.1312652826309204,"38":1.4531662464141846,"39":1.530817985534668,"40":-0.42731544375419617,"41":-1.1581732034683228,"42":-0.512296736240387,"43":-0.13228188455104828,"44":-1.861053466796875,"45":1.0823220014572144,"46":-0.536112368106842,"47":1.0896966457366943,"48":0.9240228533744812,"49":-0.7475757598876953,"50":-0.6528261303901672,"51":-0.018998628482222557,"52":0.8551687598228455,"53":-1.3820984363555908,"54":0.39846524596214294,"55":-0.6584538817405701,"56":1.1834981441497803,"57":-0.11824287474155426,"58":1.0712357759475708,"59":1.2457102537155151,"60":0.227337047457695,"61":-0.8463339805603027,"62":0.8707922101020813,"63":0.37628796696662903,"64":-1.5553392171859741,"65":0.3700621724128723,"66":-0.1563226878643036,"67":1.3238787651062012,"68":-0.14908075332641602,"69":-0.8387735486030579,"70":0.5139252543449402,"71":1.1985381841659546,"72":1.7746187448501587,"73":-0.8214312791824341,"74":0.27116867899894714,"75":-0.06064877286553383,"76":-0.2810612618923187,"77":-0.5587229132652283,"78":0.8412628769874573,"79":2.0001893043518066,"80":0.9112483263015747,"81":-0.3353470265865326,"82":0.5840324759483337,"83":-0.12205762416124344,"84":-0.1270574927330017,"85":0.36427515745162964,"86":0.8240873217582703,"87":0.8268248438835144,"88":-0.5582422614097595,"89":-0.18063507974147797,"90":0.38016727566719055,"91":0.6424041986465454,"92":0.0958142951130867,"93":0.2322443127632141,"94":0.25166961550712585,"95":0.016700120642781258,"96":0.24623805284500122,"97":0.45981287956237793,"98":1.124442219734192,"99":0.4600375294685364,"100":-0.3307947814464569,"101":-0.5283288359642029,"102":-0.10693208128213882,"103":-0.43559983372688293,"104":-0.9156033992767334,"105":-0.22175802290439606,"106":-0.13530248403549194,"107":-0.08446424454450607,"108":0.4085442125797272,"109":-0.9837387800216675,"110":-0.16526585817337036,"111":0.7735031843185425,"112":-0.029341330751776695,"113":-0.16882681846618652,"114":0.14592547714710236,"115":-0.52781742811203,"116":0.08202465623617172,"117":-0.09517785906791687,"118":-0.27234315872192383,"119":0.9616872072219849,"120":-0.11425505578517914,"121":-0.31354495882987976,"122":-0.36841490864753723,"123":-0.14465755224227905,"124":-1.109800934791565,"125":-0.4332787096500397,"126":0.695633590221405,"127":0.22750972211360931,"128":-0.6612054705619812,"129":-0.12630940973758698,"130":-0.40983131527900696,"131":0.12013889849185944,"132":-0.3502764403820038,"133":0.3195881247520447,"134":0.038974739611148834,"135":0.0698694959282875,"136":0.10290367901325226,"137":0.1292663812637329,"138":-0.6577852964401245,"139":0.8309042453765869,"140":-0.41822153329849243,"141":-0.22116929292678833,"142":-0.6134849190711975,"143":-0.3071597218513489,"144":-0.4215201139450073,"145":0.17173820734024048,"146":1.3755611181259155,"147":-0.9236041307449341,"148":-1.4048091173171997,"149":-0.37466517090797424,"150":-0.5912377834320068,"151":0.059742625802755356,"152":-1.0238840579986572,"153":1.070318341255188,"154":0.08675849437713623,"155":-0.25448793172836304,"156":0.2983119785785675,"157":0.26831525564193726,"158":-1.2246448993682861,"159":0.11232823878526688,"160":-0.07277300953865051,"161":0.1042543277144432,"162":-0.468413770198822,"163":0.04136098548769951,"164":-0.7627905011177063,"165":-0.29025524854660034,"166":0.6605812311172485,"167":-0.8234096169471741,"168":-0.8948816061019897,"169":0.09378033131361008,"170":-0.47813141345977783,"171":-0.3954404890537262,"172":-0.7457646131515503,"173":0.9537436962127686,"174":-0.07099748402833939,"175":0.20141561329364777,"176":0.08572907000780106,"177":-0.015049203298985958,"178":-0.9174497723579407,"179":0.8357983827590942,"180":1.032869815826416,"181":0.09426005929708481,"182":0.9620962142944336,"183":0.506851315498352,"184":-0.2058590054512024,"185":-0.15972168743610382,"186":0.7741645574569702,"187":0.6597329378128052,"188":-0.8023765683174133,"189":-0.19546043872833252,"190":0.6988412141799927,"191":0.7036241888999939,"192":2.415491819381714,"193":-1.1686041355133057,"194":-0.26297658681869507,"195":0.3678605556488037,"196":-0.3655790388584137,"197":-0.4252977669239044,"198":0.8317896723747253,"199":1.313835859298706,"200":-0.3670526444911957,"201":-0.934104323387146,"202":-0.46802055835723877,"203":-0.6670384407043457,"204":-1.4013874530792236,"205":1.6820870637893677,"206":-0.29238176345825195,"207":0.9542428255081177,"208":0.815048336982727,"209":-0.9712516069412231,"210":-0.6597385406494141,"211":0.12854425609111786,"212":0.548250675201416,"213":-1.0314453840255737,"214":0.31470200419425964,"215":-0.7298630475997925,"216":0.5408421754837036,"217":0.21733982861042023,"218":1.0382658243179321,"219":1.3068134784698486,"220":0.7794119715690613,"221":0.7054635286331177,"222":1.1450660228729248,"223":0.5309204459190369,"224":0.21586234867572784,"225":-0.5717973113059998,"226":-0.904305100440979,"227":0.5147919654846191,"228":0.15757936239242554,"229":-0.008920642547309399,"230":0.9386640787124634,"231":-0.2314455211162567,"232":0.7196068167686462,"233":-0.2897949516773224,"234":-0.7366970777511597,"235":0.5507122278213501,"236":-0.6856880187988281,"237":-0.6331517696380615,"238":1.9915660619735718,"239":0.46860963106155396,"240":-0.41944223642349243,"241":-1.2339534759521484,"242":-1.4598064422607422,"243":-1.5151891708374023,"244":-1.0485271215438843,"245":1.0845307111740112,"246":-0.6832868456840515,"247":-0.16836482286453247,"248":-0.091890849173069,"249":-0.8317727446556091,"250":-1.569747805595398,"251":0.9379130601882935,"252":-0.9598628878593445,"253":0.051556989550590515,"254":1.291611671447754,"255":-1.5269323587417603,"256":1.469833254814148,"257":0.2358359843492508,"258":-1.3153810501098633,"259":0.8796257972717285,"260":-0.49514245986938477,"261":0.04311239346861839,"262":-0.36173003911972046,"263":-0.3331425189971924,"264":0.011554602533578873,"265":0.2777976095676422,"266":-1.2928389310836792,"267":1.1505097150802612,"268":0.6815420985221863,"269":-1.0747681856155396,"270":-0.7433319687843323,"271":0.49591612815856934,"272":0.4729676842689514,"273":1.2184996604919434,"274":0.21286161243915558,"275":-0.524075448513031,"276":-0.2570602297782898,"277":1.1146951913833618,"278":1.0496740341186523,"279":0.13027358055114746,"280":1.0386574268341064,"281":-0.33495020866394043,"282":1.495651125907898,"283":0.49308767914772034,"284":-0.08944742381572723,"285":0.041493020951747894,"286":-1.5328019857406616,"287":2.544217824935913,"288":1.470775842666626,"289":-0.09240206331014633,"290":1.338225245475769,"291":-0.157221257686615,"292":1.8735498189926147,"293":-1.4615274667739868,"294":-0.23083169758319855,"295":0.4267527759075165,"296":-0.1521959751844406,"297":-1.177513599395752,"298":1.9723252058029175,"299":0.9521688222885132,"300":-0.47331666946411133,"301":-0.22759415209293365,"302":0.7105246186256409,"303":0.6946516036987305,"304":-0.22251787781715393,"305":0.28428709506988525,"306":0.17393609881401062,"307":0.8999890685081482,"308":-0.4719816744327545,"309":-0.0482359379529953,"310":0.5296971201896667,"311":0.3024709224700928,"312":1.6912459135055542,"313":-1.4071162939071655,"314":-0.04054480046033859,"315":0.4971410632133484,"316":-0.3288070559501648,"317":-0.6078802347183228,"318":0.18487587571144104,"319":1.513713002204895,"320":-0.024447711184620857,"321":-0.29411447048187256,"322":0.49944037199020386,"323":0.4905094504356384,"324":-0.8517899513244629,"325":-0.14014098048210144,"326":-0.5081520676612854,"327":0.8804473876953125,"328":0.5456093549728394,"329":0.18334800004959106,"330":0.6318464279174805,"331":0.5482016205787659,"332":0.7528496980667114,"333":-1.6421384811401367,"334":-0.029400324448943138,"335":0.5623094439506531,"336":-0.43678605556488037,"337":-0.5549700260162354,"338":-0.28780317306518555,"339":1.70948326587677,"340":-0.23624306917190552,"341":-0.5743927359580994,"342":-0.1637043058872223,"343":-0.47207120060920715,"344":-0.7832990288734436,"345":0.83042311668396,"346":0.935387372970581,"347":0.5850561261177063,"348":-0.2554304897785187,"349":-0.7080850005149841,"350":-0.1405569463968277,"351":0.5088642835617065,"352":0.9721347689628601,"353":-0.6060858964920044,"354":0.2568230628967285,"355":-0.7305185794830322,"356":0.5150068402290344,"357":0.7248865962028503,"358":-0.46334904432296753,"359":1.0284278392791748,"360":-0.2084924280643463,"361":0.17042213678359985,"362":-0.12449274212121964,"363":0.24030958116054535,"364":0.07200499624013901,"365":-0.33288630843162537,"366":0.7754167318344116,"367":-0.911299467086792,"368":-1.1698445081710815,"369":0.09240201115608215,"370":-0.06252910196781158,"371":0.07852556556463242,"372":-1.169533610343933,"373":0.15781046450138092,"374":-0.08220953494310379,"375":0.14731498062610626,"376":-0.00850926898419857,"377":-0.15162508189678192,"378":-0.9745104908943176,"379":-0.03704957664012909,"380":0.9896532893180847,"381":0.5631974339485168,"382":1.33363676071167,"383":0.7748116254806519,"384":-0.1745595782995224,"385":-0.33889293670654297,"386":-0.7988820672035217,"387":0.3560543656349182,"388":0.10530838370323181,"389":0.9411926865577698,"390":1.1580541133880615,"391":-0.3344435393810272,"392":1.9509520530700684,"393":-0.050520818680524826,"394":-0.7552392482757568,"395":1.0560169219970703,"396":-0.978568434715271,"397":-1.0163837671279907,"398":2.0776023864746094,"399":0.5455127954483032}},"outputBias":{"rows":20,"columns":1,"weights":{"0":1.8963299989700317,"1":0.6593875885009766,"2":1.941076636314392,"3":1.026774287223816,"4":0.4313357174396515,"5":0.6485674977302551,"6":0.5232169032096863,"7":-0.4365454316139221,"8":-0.481844425201416,"9":0.5931204557418823,"10":1.717984914779663,"11":0.4162261188030243,"12":-0.5662081837654114,"13":0.27581530809402466,"14":0.5568331480026245,"15":1.3087918758392334,"16":0.6853471994400024,"17":1.6167010068893433,"18":0.8761410713195801,"19":0.4448271095752716}},"cellActivationMatrix":{"rows":20,"columns":1,"weights":{"0":0.008457988500595093,"1":-0.16177204251289368,"2":-0.16241808235645294,"3":-0.15711869299411774,"4":-0.059423793107271194,"5":0.25758644938468933,"6":0.007544471882283688,"7":-0.03345348313450813,"8":-0.0029933108016848564,"9":-0.3523252308368683,"10":-0.4265976548194885,"11":0.2191714644432068,"12":0.4618077874183655,"13":-0.2867185175418854,"14":0.18091531097888947,"15":-0.15625199675559998,"16":0.2992711067199707,"17":0.857024610042572,"18":-0.06614799052476883,"19":0.12802377343177795}},"cellActivationHidden":{"rows":20,"columns":20,"weights":{"0":0.0583009198307991,"1":0.36798030138015747,"2":0.19916298985481262,"3":-0.47835129499435425,"4":-0.6177623867988586,"5":-0.9976275563240051,"6":0.5070352554321289,"7":-0.9731754660606384,"8":-0.9564269781112671,"9":-0.06722865998744965,"10":0.08247698843479156,"11":-0.055762313306331635,"12":-0.5311770439147949,"13":0.8618043661117554,"14":-0.16819165647029877,"15":-0.07251869887113571,"16":-0.18107184767723083,"17":0.06234806403517723,"18":-0.46289411187171936,"19":-0.7369085550308228,"20":0.3136945366859436,"21":-0.36744430661201477,"22":-0.09929635375738144,"23":0.38776692748069763,"24":0.6924557089805603,"25":-0.7047601342201233,"26":0.5536827445030212,"27":-0.21979928016662598,"28":-0.28094810247421265,"29":0.06815844774246216,"30":0.2769380211830139,"31":0.9775368571281433,"32":-0.2477080374956131,"33":0.7651016116142273,"34":0.26339390873908997,"35":-0.21383868157863617,"36":-0.33319225907325745,"37":0.5469146966934204,"38":-0.15067178010940552,"39":-0.15083624422550201,"40":0.13052991032600403,"41":0.6179958581924438,"42":0.18806558847427368,"43":-0.008007459342479706,"44":0.9031499028205872,"45":-0.7040122747421265,"46":0.3687068521976471,"47":-0.6177406311035156,"48":-0.4714001715183258,"49":0.19953235983848572,"50":0.20702016353607178,"51":-0.1207776665687561,"52":-0.513327956199646,"53":0.7462570071220398,"54":-0.9664744138717651,"55":0.2215496301651001,"56":-0.8037899136543274,"57":-0.054192375391721725,"58":-0.10690128803253174,"59":-0.5683029294013977,"60":0.19056157767772675,"61":-0.14254789054393768,"62":0.9002484679222107,"63":-0.13708345592021942,"64":0.245675191283226,"65":-0.9800950288772583,"66":0.4716266989707947,"67":-1.4944623708724976,"68":-0.9089211821556091,"69":-0.28683820366859436,"70":0.7755945920944214,"71":-1.1828829050064087,"72":0.6337758898735046,"73":0.6008115410804749,"74":-1.2844264507293701,"75":-0.8761153817176819,"76":-1.4005082845687866,"77":0.5147789120674133,"78":-0.43500980734825134,"79":-0.3783397674560547,"80":1.1142425537109375,"81":-0.5332980751991272,"82":0.844265878200531,"83":1.0845248699188232,"84":-0.1426333785057068,"85":-1.3324986696243286,"86":-0.6299186944961548,"87":0.24703067541122437,"88":0.17893563210964203,"89":1.153475284576416,"90":1.687738060951233,"91":0.39295709133148193,"92":0.6733623743057251,"93":0.46072736382484436,"94":0.8893574476242065,"95":0.15423573553562164,"96":1.2275534868240356,"97":-0.4733504056930542,"98":-0.23319625854492188,"99":-0.1418733298778534,"100":0.2930833399295807,"101":-0.4670003056526184,"102":0.610046923160553,"103":0.06757601350545883,"104":-0.4479319751262665,"105":0.012052123434841633,"106":-0.34408655762672424,"107":0.5258187055587769,"108":0.5399547219276428,"109":0.21940812468528748,"110":0.4938332736492157,"111":0.09681285917758942,"112":0.1725505292415619,"113":-0.9431031346321106,"114":0.13191984593868256,"115":0.050120722502470016,"116":-0.2793166935443878,"117":-0.22373557090759277,"118":-0.03692611679434776,"119":0.517423689365387,"120":-1.6895558834075928,"121":-0.24738557636737823,"122":-1.6287367343902588,"123":-0.2142670750617981,"124":0.06430989503860474,"125":-0.1729515641927719,"126":0.05310899764299393,"127":0.33978790044784546,"128":-0.06803114712238312,"129":0.4687800109386444,"130":-1.0379949808120728,"131":0.7571859955787659,"132":1.3409678936004639,"133":-0.24634414911270142,"134":0.10744848847389221,"135":-0.005439049564301968,"136":0.0987815260887146,"137":1.2013804912567139,"138":0.3066740334033966,"139":0.35868898034095764,"140":1.0289101600646973,"141":0.9562602639198303,"142":0.4472651183605194,"143":-1.3059260845184326,"144":-0.15494239330291748,"145":-0.011365341953933239,"146":0.6728914976119995,"147":-0.8873925805091858,"148":-0.5553871989250183,"149":-0.6442150473594666,"150":0.5248865485191345,"151":-1.3169925212860107,"152":-0.5522149801254272,"153":0.3700658082962036,"154":-1.1255921125411987,"155":-0.5880095362663269,"156":0.5393736362457275,"157":-0.2505200505256653,"158":-0.6732305884361267,"159":-0.8712741136550903,"160":0.7787985801696777,"161":0.7857179045677185,"162":0.43313175439834595,"163":-0.36149266362190247,"164":-0.225735604763031,"165":-0.017853111028671265,"166":0.5936406254768372,"167":-0.5009337067604065,"168":-0.3522888720035553,"169":0.06167839840054512,"170":0.7326369285583496,"171":-0.7798311114311218,"172":-0.9984184503555298,"173":0.18791338801383972,"174":0.15095138549804688,"175":-0.3540498912334442,"176":0.43214938044548035,"177":-0.4191809892654419,"178":-0.5703195333480835,"179":-1.0182299613952637,"180":0.6791479587554932,"181":-0.5264833569526672,"182":0.7697705030441284,"183":0.034013550728559494,"184":0.10498985648155212,"185":-1.4290242195129395,"186":0.19270946085453033,"187":-0.6971611976623535,"188":-0.8695054650306702,"189":-0.21658024191856384,"190":0.7023306488990784,"191":-0.703669548034668,"192":0.16535179316997528,"193":1.1060640811920166,"194":-0.7376410961151123,"195":-0.6049092411994934,"196":-0.850386917591095,"197":0.325369656085968,"198":0.1771942675113678,"199":-0.4439784586429596,"200":0.2426249384880066,"201":0.9635496139526367,"202":0.5846491456031799,"203":0.12542308866977692,"204":1.2119892835617065,"205":-1.1765714883804321,"206":0.4519807696342468,"207":-0.6395626664161682,"208":-0.5578935742378235,"209":0.42354828119277954,"210":0.22744999825954437,"211":0.1531408578157425,"212":-0.4908439815044403,"213":0.7692227959632874,"214":-1.0115550756454468,"215":0.7041661739349365,"216":-1.2211707830429077,"217":0.2824215292930603,"218":-0.6665633320808411,"219":-0.7987757325172424,"220":0.21576182544231415,"221":-0.21858541667461395,"222":0.020783713087439537,"223":-0.7763912677764893,"224":-0.06433627009391785,"225":-0.39254751801490784,"226":0.009573119692504406,"227":0.09692426770925522,"228":0.3698415458202362,"229":-1.1799747943878174,"230":-0.40447497367858887,"231":-0.6156702637672424,"232":-0.27453601360321045,"233":-0.207855686545372,"234":-0.042590949684381485,"235":-1.0784428119659424,"236":-0.32259953022003174,"237":0.23874014616012573,"238":-0.295267254114151,"239":-0.189036563038826,"240":0.4980068504810333,"241":0.8397823572158813,"242":0.045989446341991425,"243":0.008253307081758976,"244":0.1747010201215744,"245":0.036814600229263306,"246":0.6144099831581116,"247":-0.473088800907135,"248":-0.5083957314491272,"249":0.9550952315330505,"250":0.27529677748680115,"251":-2.197200298309326,"252":-0.7170944213867188,"253":0.004413682967424393,"254":-0.4095807373523712,"255":-0.27026692032814026,"256":0.36193332076072693,"257":-0.6589701175689697,"258":-0.8895341753959656,"259":-0.40851661562919617,"260":-0.36414480209350586,"261":0.31031790375709534,"262":-0.5928061604499817,"263":-0.1788395792245865,"264":0.248382106423378,"265":0.38249388337135315,"266":0.8423149585723877,"267":-0.41808247566223145,"268":-0.19961242377758026,"269":0.12864451110363007,"270":-0.4485165476799011,"271":-0.6613105535507202,"272":-1.222685694694519,"273":-0.36345532536506653,"274":-0.08191578835248947,"275":-0.20793549716472626,"276":0.03206216171383858,"277":0.21794725954532623,"278":-0.8660969734191895,"279":-1.083008050918579,"280":-0.20284421741962433,"281":0.8137336373329163,"282":0.08345900475978851,"283":-0.5791115760803223,"284":-0.6658816933631897,"285":-0.17290771007537842,"286":-0.3157672882080078,"287":0.2553803324699402,"288":0.621245265007019,"289":-0.22421638667583466,"290":-0.3762727975845337,"291":-0.6824240684509277,"292":-0.34450268745422363,"293":-0.017541421577334404,"294":-0.7861197590827942,"295":-0.1895066201686859,"296":-0.45612022280693054,"297":-0.30049607157707214,"298":0.09316756576299667,"299":0.8175532817840576,"300":-0.021083012223243713,"301":0.04297170042991638,"302":0.1286940574645996,"303":-0.1533403992652893,"304":-0.6244538426399231,"305":-1.5288876295089722,"306":0.3325054347515106,"307":-1.2335964441299438,"308":-0.9239205718040466,"309":-0.35089218616485596,"310":0.19908568263053894,"311":-0.8586465120315552,"312":-0.08076860010623932,"313":0.5656636953353882,"314":-1.2853412628173828,"315":-0.5793665051460266,"316":-1.535624623298645,"317":0.17910829186439514,"318":-0.28132185339927673,"319":0.3453678488731384,"320":-0.2598479986190796,"321":-0.6370218992233276,"322":0.2512603998184204,"323":-0.14642323553562164,"324":-0.4141745865345001,"325":-0.44256606698036194,"326":0.32054275274276733,"327":-0.2510063648223877,"328":-0.07036406546831131,"329":-0.32403555512428284,"330":0.18991616368293762,"331":0.31004974246025085,"332":0.1514204889535904,"333":-0.07640410214662552,"334":0.029979413375258446,"335":-0.3026798963546753,"336":-0.6043073534965515,"337":0.003955192398279905,"338":-1.0504029989242554,"339":0.7461678981781006,"340":-0.1464737057685852,"341":-1.0793280601501465,"342":-0.3661876320838928,"343":-0.7569072842597961,"344":-1.6686367988586426,"345":1.297423005104065,"346":-0.4914066195487976,"347":0.8850316405296326,"348":1.0238583087921143,"349":-0.3930622935295105,"350":-0.24191124737262726,"351":0.8687845468521118,"352":0.11378080397844315,"353":0.010388593189418316,"354":1.7992080450057983,"355":0.07301861047744751,"356":1.0187764167785645,"357":0.48673102259635925,"358":0.42563650012016296,"359":1.2223514318466187,"360":0.9915972948074341,"361":0.004892837721854448,"362":0.547046422958374,"363":-0.5155529379844666,"364":-0.4621950387954712,"365":-0.6106268167495728,"366":0.029209740459918976,"367":-0.12227953970432281,"368":-0.01013543363660574,"369":-0.05104585736989975,"370":0.2956959009170532,"371":-0.6117699146270752,"372":-0.5261189937591553,"373":-0.2949317693710327,"374":-0.4193548858165741,"375":-0.3470281958580017,"376":-0.7379427552223206,"377":-0.9672980904579163,"378":-0.4860649108886719,"379":-0.06957685202360153,"380":-0.3568451404571533,"381":-0.7180336117744446,"382":-0.6428005695343018,"383":-1.3070260286331177,"384":0.08061543107032776,"385":0.14105260372161865,"386":0.24209243059158325,"387":-0.3897935152053833,"388":-0.041173867881298065,"389":-1.120544195175171,"390":-0.9729556441307068,"391":-0.13819186389446259,"392":-0.11039138585329056,"393":-0.46607130765914917,"394":0.17037074267864227,"395":-1.1787748336791992,"396":-0.11135990172624588,"397":0.07192517071962357,"398":-0.1384478062391281,"399":0.1744263470172882}},"cellActivationBias":{"rows":20,"columns":1,"weights":{"0":-1.6304140090942383,"1":-0.8240340352058411,"2":-1.4563788175582886,"3":-0.8917068839073181,"4":2.140109062194824,"5":0.986250638961792,"6":-1.0808974504470825,"7":-0.6748242378234863,"8":-0.3022964894771576,"9":-0.39514797925949097,"10":-0.7578201293945312,"11":0.4945088028907776,"12":-0.30098459124565125,"13":0.49926963448524475,"14":1.039313554763794,"15":-0.9471020698547363,"16":0.9948722720146179,"17":0.5687448382377625,"18":-1.4871916770935059,"19":-3.0623531341552734}}}],"outputConnector":{"rows":1,"columns":20,"weights":{"0":-0.5836330056190491,"1":-0.6951979398727417,"2":-0.66404128074646,"3":-0.5977746844291687,"4":-0.819976806640625,"5":0.8116937875747681,"6":1.1941481828689575,"7":-1.0435097217559814,"8":-0.8329529762268066,"9":-0.5741158723831177,"10":-0.6263773441314697,"11":0.5241487622261047,"12":1.2824335098266602,"13":-0.48220095038414,"14":0.7061623334884644,"15":-0.5176194310188293,"16":0.8275765180587769,"17":0.5439115762710571,"18":-0.5995708107948303,"19":0.523338794708252}},"output":{"rows":1,"columns":1,"weights":{"0":-0.31082043051719666}},"inputLookup":null,"inputLookupLength":null,"outputLookup":null,"outputLookupLength":null}